{"learner":{"attributes":{"scikit_learn":"{\"_estimator_type\": \"classifier\"}"},"feature_names":[],"feature_types":[],"gradient_booster":{"model":{"cats":{"enc":[],"feature_segments":[],"sorted_idx":[]},"gbtree_model_param":{"num_parallel_tree":"1","num_trees":"1200"},"iteration_indptr":[0,4,8,12,16,20,24,28,32,36,40,44,48,52,56,60,64,68,72,76,80,84,88,92,96,100,104,108,112,116,120,124,128,132,136,140,144,148,152,156,160,164,168,172,176,180,184,188,192,196,200,204,208,212,216,220,224,228,232,236,240,244,248,252,256,260,264,268,272,276,280,284,288,292,296,300,304,308,312,316,320,324,328,332,336,340,344,348,352,356,360,364,368,372,376,380,384,388,392,396,400,404,408,412,416,420,424,428,432,436,440,444,448,452,456,460,464,468,472,476,480,484,488,492,496,500,504,508,512,516,520,524,528,532,536,540,544,548,552,556,560,564,568,572,576,580,584,588,592,596,600,604,608,612,616,620,624,628,632,636,640,644,648,652,656,660,664,668,672,676,680,684,688,692,696,700,704,708,712,716,720,724,728,732,736,740,744,748,752,756,760,764,768,772,776,780,784,788,792,796,800,804,808,812,816,820,824,828,832,836,840,844,848,852,856,860,864,868,872,876,880,884,888,892,896,900,904,908,912,916,920,924,928,932,936,940,944,948,952,956,960,964,968,972,976,980,984,988,992,996,1000,1004,1008,1012,1016,1020,1024,1028,1032,1036,1040,1044,1048,1052,1056,1060,1064,1068,1072,1076,1080,1084,1088,1092,1096,1100,1104,1108,1112,1116,1120,1124,1128,1132,1136,1140,1144,1148,1152,1156,1160,1164,1168,1172,1176,1180,1184,1188,1192,1196,1200],"tree_info":[0,1,2,3,0,1,2,3,0,1,2,3,0,1,2,3,0,1,2,3,0,1,2,3,0,1,2,3,0,1,2,3,0,1,2,3,0,1,2,3,0,1,2,3,0,1,2,3,0,1,2,3,0,1,2,3,0,1,2,3,0,1,2,3,0,1,2,3,0,1,2,3,0,1,2,3,0,1,2,3,0,1,2,3,0,1,2,3,0,1,2,3,0,1,2,3,0,1,2,3,0,1,2,3,0,1,2,3,0,1,2,3,0,1,2,3,0,1,2,3,0,1,2,3,0,1,2,3,0,1,2,3,0,1,2,3,0,1,2,3,0,1,2,3,0,1,2,3,0,1,2,3,0,1,2,3,0,1,2,3,0,1,2,3,0,1,2,3,0,1,2,3,0,1,2,3,0,1,2,3,0,1,2,3,0,1,2,3,0,1,2,3,0,1,2,3,0,1,2,3,0,1,2,3,0,1,2,3,0,1,2,3,0,1,2,3,0,1,2,3,0,1,2,3,0,1,2,3,0,1,2,3,0,1,2,3,0,1,2,3,0,1,2,3,0,1,2,3,0,1,2,3,0,1,2,3,0,1,2,3,0,1,2,3,0,1,2,3,0,1,2,3,0,1,2,3,0,1,2,3,0,1,2,3,0,1,2,3,0,1,2,3,0,1,2,3,0,1,2,3,0,1,2,3,0,1,2,3,0,1,2,3,0,1,2,3,0,1,2,3,0,1,2,3,0,1,2,3,0,1,2,3,0,1,2,3,0,1,2,3,0,1,2,3,0,1,2,3,0,1,2,3,0,1,2,3,0,1,2,3,0,1,2,3,0,1,2,3,0,1,2,3,0,1,2,3,0,1,2,3,0,1,2,3,0,1,2,3,0,1,2,3,0,1,2,3,0,1,2,3,0,1,2,3,0,1,2,3,0,1,2,3,0,1,2,3,0,1,2,3,0,1,2,3,0,1,2,3,0,1,2,3,0,1,2,3,0,1,2,3,0,1,2,3,0,1,2,3,0,1,2,3,0,1,2,3,0,1,2,3,0,1,2,3,0,1,2,3,0,1,2,3,0,1,2,3,0,1,2,3,0,1,2,3,0,1,2,3,0,1,2,3,0,1,2,3,0,1,2,3,0,1,2,3,0,1,2,3,0,1,2,3,0,1,2,3,0,1,2,3,0,1,2,3,0,1,2,3,0,1,2,3,0,1,2,3,0,1,2,3,0,1,2,3,0,1,2,3,0,1,2,3,0,1,2,3,0,1,2,3,0,1,2,3,0,1,2,3,0,1,2,3,0,1,2,3,0,1,2,3,0,1,2,3,0,1,2,3,0,1,2,3,0,1,2,3,0,1,2,3,0,1,2,3,0,1,2,3,0,1,2,3,0,1,2,3,0,1,2,3,0,1,2,3,0,1,2,3,0,1,2,3,0,1,2,3,0,1,2,3,0,1,2,3,0,1,2,3,0,1,2,3,0,1,2,3,0,1,2,3,0,1,2,3,0,1,2,3,0,1,2,3,0,1,2,3,0,1,2,3,0,1,2,3,0,1,2,3,0,1,2,3,0,1,2,3,0,1,2,3,0,1,2,3,0,1,2,3,0,1,2,3,0,1,2,3,0,1,2,3,0,1,2,3,0,1,2,3,0,1,2,3,0,1,2,3,0,1,2,3,0,1,2,3,0,1,2,3,0,1,2,3,0,1,2,3,0,1,2,3,0,1,2,3,0,1,2,3,0,1,2,3,0,1,2,3,0,1,2,3,0,1,2,3,0,1,2,3,0,1,2,3,0,1,2,3,0,1,2,3,0,1,2,3,0,1,2,3,0,1,2,3,0,1,2,3,0,1,2,3,0,1,2,3,0,1,2,3,0,1,2,3,0,1,2,3,0,1,2,3,0,1,2,3,0,1,2,3,0,1,2,3,0,1,2,3,0,1,2,3,0,1,2,3,0,1,2,3,0,1,2,3,0,1,2,3,0,1,2,3,0,1,2,3,0,1,2,3,0,1,2,3,0,1,2,3,0,1,2,3,0,1,2,3,0,1,2,3,0,1,2,3,0,1,2,3,0,1,2,3,0,1,2,3,0,1,2,3,0,1,2,3,0,1,2,3,0,1,2,3,0,1,2,3,0,1,2,3,0,1,2,3,0,1,2,3,0,1,2,3,0,1,2,3,0,1,2,3,0,1,2,3,0,1,2,3,0,1,2,3,0,1,2,3,0,1,2,3,0,1,2,3,0,1,2,3,0,1,2,3,0,1,2,3,0,1,2,3,0,1,2,3,0,1,2,3,0,1,2,3,0,1,2,3,0,1,2,3,0,1,2,3,0,1,2,3,0,1,2,3,0,1,2,3,0,1,2,3,0,1,2,3,0,1,2,3,0,1,2,3,0,1,2,3,0,1,2,3,0,1,2,3,0,1,2,3,0,1,2,3,0,1,2,3,0,1,2,3,0,1,2,3,0,1,2,3,0,1,2,3,0,1,2,3,0,1,2,3,0,1,2,3,0,1,2,3,0,1,2,3,0,1,2,3,0,1,2,3,0,1,2,3,0,1,2,3,0,1,2,3,0,1,2,3,0,1,2,3,0,1,2,3,0,1,2,3,0,1,2,3,0,1,2,3,0,1,2,3,0,1,2,3,0,1,2,3,0,1,2,3,0,1,2,3,0,1,2,3,0,1,2,3,0,1,2,3,0,1,2,3],"trees":[{"base_weights":[5.8651026E-3,1.5724564E0,-3.327461E-2,9.937646E-2,7.600596E-1,1.4698795E0,6.3400574E-2,1.76E0,9.714286E-1,-4.827586E-1,3.2635984E-1,9.120879E-2,3.846154E-2,-2.173913E-2,5.84E-2,5.882353E-3,-2.7102804E-2,4.805195E-2,1.1764707E-3],"categories":[],"categories_nodes":[],"categories_segments":[],"categories_sizes":[],"default_left":[0,0,0,0,0,0,0,0,0,0,0,0,0,0,0,0,0,0,0],"id":0,"left_children":[1,3,-1,-1,5,7,9,11,13,15,17,-1,-1,-1,-1,-1,-1,-1,-1],"loss_changes":[8.528264E2,8.051422E1,0E0,0E0,4.1383205E1,4.2916336E0,6.3869667E0,1.8637848E-1,5.345192E0,5.8000803E-1,5.7193666E0,0E0,0E0,0E0,0E0,0E0,0E0,0E0,0E0],"parents":[2147483647,0,0,1,1,4,4,5,5,6,6,7,7,8,8,9,9,10,10],"right_children":[2,4,-1,-1,6,8,10,12,14,16,18,-1,-1,-1,-1,-1,-1,-1,-1],"split_conditions":[1E1,8E0,-3.327461E-2,9.937646E-2,9.437907E-2,6.073736E-3,5.91886E0,9E0,1.381088E-2,3E0,2E0,9.120879E-2,3.846154E-2,-2.173913E-2,5.84E-2,5.882353E-3,-2.7102804E-2,4.805195E-2,1.1764707E-3],"split_indices":[11,11,0,0,10,10,6,8,10,3,8,0,0,0,0,0,0,0,0],"split_type":[0,0,0,0,0,0,0,0,0,0,0,0,0,0,0,0,0,0,0],"sum_hessian":[8.08875E2,2.4225E2,5.66625E2,1.59375E2,8.2875E1,4.05E1,4.2375E1,2.4E1,1.65E1,1.35E1,2.8875E1,2.175E1,2.25E0,1.875E0,1.4625E1,1.125E0,1.2375E1,8.625E0,2.025E1],"tree_param":{"num_deleted":"0","num_feature":"13","num_nodes":"19","size_leaf_vector":"1"}},{"base_weights":[3.3955858E-3,5.3858966E-1,-3.3240903E-2,-3.313253E-2,1.2357581E0,5.9180576E-1,1.4898835E0,-3.468208E-2,8.016194E-1,9.9241704E-2,5.753425E-1,-2.0930232E-2,1.5789473E-2,2.6790453E-2,7.76E-2,3.80531E-2,-2.8571428E-3],"categories":[],"categories_nodes":[],"categories_segments":[],"categories_sizes":[],"default_left":[0,0,0,0,0,0,0,0,0,0,0,0,0,0,0,0,0],"id":1,"left_children":[1,3,-1,-1,5,7,9,11,13,-1,15,-1,-1,-1,-1,-1,-1],"loss_changes":[2.8998877E2,3.778883E2,0E0,0E0,4.5797913E1,1.0855642E1,9.114258E1,3.04192E0,1.148502E1,0E0,8.618423E0,0E0,0E0,0E0,0E0,0E0,0E0],"parents":[2147483647,0,0,1,1,4,4,5,5,6,6,7,7,8,8,10,10],"right_children":[2,4,-1,-1,6,8,10,12,14,-1,16,-1,-1,-1,-1,-1,-1],"split_conditions":[1.8E1,8E0,-3.3240903E-2,-3.313253E-2,1E1,2E0,1.6E1,1E0,7E0,9.9241704E-2,3E0,-2.0930232E-2,1.5789473E-2,2.6790453E-2,7.76E-2,3.80531E-2,-2.8571428E-3],"split_indices":[11,11,0,0,11,8,11,1,7,0,4,0,0,0,0,0,0],"split_type":[0,0,0,0,0,0,0,0,0,0,0,0,0,0,0,0,0],"sum_hessian":[8.08875E2,4.4925E2,3.59625E2,1.65E2,2.8425E2,8.1375E1,2.02875E2,2.0625E1,6.075E1,1.30875E2,7.2E1,9.75E0,1.0875E1,4.6125E1,1.4625E1,5.55E1,1.65E1],"tree_param":{"num_deleted":"0","num_feature":"13","num_nodes":"17","size_leaf_vector":"1"}},{"base_weights":[-2.1548406E-3,-3.324406E-2,5.6054574E-1,1.2153444E0,-3.3116885E-2,1.5088607E0,5.595568E-1,7.045075E-1,9.91911E-2,1.3544669E0,-1.7232376E-1,6.849315E-3,7.6859504E-2,8.510639E-2,4.491018E-2,1.2727273E-2,-1.6725978E-2],"categories":[],"categories_nodes":[],"categories_segments":[],"categories_sizes":[],"default_left":[0,0,0,0,0,0,0,0,0,0,0,0,0,0,0,0,0],"id":2,"left_children":[1,-1,3,5,-1,7,9,11,-1,13,15,-1,-1,-1,-1,-1,-1],"loss_changes":[3.0322748E2,0E0,3.5293143E2,5.4350616E1,0E0,7.405463E1,5.273898E1,3.517273E1,0E0,5.351494E0,3.3998432E0,0E0,0E0,0E0,0E0,0E0,0E0],"parents":[2147483647,0,0,2,2,3,3,5,5,6,6,7,7,9,9,10,10],"right_children":[2,-1,4,6,-1,8,10,12,-1,14,16,-1,-1,-1,-1,-1,-1],"split_conditions":[1.6E1,-3.324406E-2,2.6E1,2.4E1,-3.3116885E-2,1.8E1,5.1630515E-1,3.2907403E-1,9.91911E-2,3.678591E-1,5E0,6.849315E-3,7.6859504E-2,8.510639E-2,4.491018E-2,1.2727273E-2,-1.6725978E-2],"split_indices":[11,0,11,11,0,11,10,10,0,10,7,0,0,0,0,0,0],"split_type":[0,0,0,0,0,0,0,0,0,0,0,0,0,0,0,0,0],"sum_hessian":[8.11125E2,3.72375E2,4.3875E2,2.8575E2,1.53E2,1.965E2,8.925E1,7.3875E1,1.22625E2,4.2375E1,4.6875E1,4.4625E1,2.925E1,2.25E1,1.9875E1,1.275E1,3.4125E1],"tree_param":{"num_deleted":"0","num_feature":"13","num_nodes":"17","size_leaf_vector":"1"}},{"base_weights":[-1.0111843E-2,-3.327526E-2,1.5388575E0,7.641379E-1,9.934747E-2,-1.3981763E-1,1.4851485E0,-5.47486E-1,3.2911393E-1,1.0709678E0,1.6887159E0,-3.129771E-2,-1.4285715E-2,-4.3478264E-3,4.0540542E-2,7.2093025E-2,2.727273E-2,4.1935485E-2,9.4088666E-2],"categories":[],"categories_nodes":[],"categories_segments":[],"categories_sizes":[],"default_left":[0,0,0,0,0,0,0,0,0,0,0,0,0,0,0,0,0,0,0],"id":3,"left_children":[1,-1,3,5,-1,7,9,11,13,15,17,-1,-1,-1,-1,-1,-1,-1,-1],"loss_changes":[8.2928754E2,0E0,8.279474E1,5.927354E1,0E0,8.041993E0,2.4492798E0,2.8075504E-1,4.028797E0,2.989893E0,3.6934586E0,0E0,0E0,0E0,0E0,0E0,0E0,0E0,0E0],"parents":[2147483647,0,0,2,2,3,3,5,5,6,6,7,7,8,8,9,9,10,10],"right_children":[2,-1,4,6,-1,8,10,12,14,16,18,-1,-1,-1,-1,-1,-1,-1,-1],"split_conditions":[2.4E1,-3.327526E-2,2.6E1,5.1630515E-1,9.934747E-2,3.61855E-1,7E0,8E0,3E1,6.1165648E0,5.6649756E-1,-3.129771E-2,-1.4285715E-2,-4.3478264E-3,4.0540542E-2,7.2093025E-2,2.727273E-2,4.1935485E-2,9.4088666E-2],"split_indices":[11,0,11,10,0,10,8,8,0,6,10,0,0,0,0,0,0,0,0],"split_type":[0,0,0,0,0,0,0,0,0,0,0,0,0,0,0,0,0,0,0],"sum_hessian":[8.14875E2,5.73E2,2.41875E2,8.9625E1,1.5225E2,4.0125E1,4.95E1,2.1375E1,1.875E1,1.8375E1,3.1125E1,1.5375E1,6E0,1.05E1,8.25E0,9.75E0,8.625E0,6.75E0,2.4375E1],"tree_param":{"num_deleted":"0","num_feature":"13","num_nodes":"19","size_leaf_vector":"1"}},{"base_weights":[9.879089E-4,1.424935E0,-3.2902956E-2,9.016394E-2,6.4994156E-1,1.3535608E0,5.3971846E-2,8.075737E-2,8.856923E-1,7.213793E-1,-1.9830245E-1,-2.2883957E-2,5.6422677E-2,5.364254E-2,-2.4588674E-2,-1.7681018E-2,1.5338974E-2],"categories":[],"categories_nodes":[],"categories_segments":[],"categories_sizes":[],"default_left":[0,0,0,0,0,0,0,0,0,0,0,0,0,0,0,0,0],"id":4,"left_children":[1,3,-1,-1,5,7,9,-1,11,13,15,-1,-1,-1,-1,-1,-1],"loss_changes":[7.6842786E2,7.4791626E1,0E0,0E0,3.622056E1,3.4220428E0,8.208178E0,0E0,5.875415E0,6.2221203E0,2.8970096E0,0E0,0E0,0E0,0E0,0E0,0E0],"parents":[2147483647,0,0,1,1,4,4,5,5,6,6,8,8,9,9,10,10],"right_children":[2,4,-1,-1,6,8,10,-1,12,14,16,-1,-1,-1,-1,-1,-1],"split_conditions":[1E1,8E0,-3.2902956E-2,9.016394E-2,7.1498305E-2,6.073736E-3,2E0,8.075737E-2,1.381088E-2,3.2907403E-1,3.5E1,-2.2883957E-2,5.6422677E-2,5.364254E-2,-2.4588674E-2,-1.7681018E-2,1.5338974E-2],"split_indices":[11,11,0,0,10,10,8,0,10,10,0,0,0,0,0,0,0],"split_type":[0,0,0,0,0,0,0,0,0,0,0,0,0,0,0,0,0],"sum_hessian":[8.168291E2,2.5807224E2,5.587569E2,1.7252197E2,8.555025E1,3.8648964E1,4.6901283E1,2.3216446E1,1.5432516E1,1.2355234E1,3.454605E1,2.2264838E0,1.3206033E1,9.669471E0,2.685764E0,2.6650593E1,7.8954577E0],"tree_param":{"num_deleted":"0","num_feature":"13","num_nodes":"17","size_leaf_vector":"1"}},{"base_weights":[8.04765E-3,5.3188354E-1,-3.2870535E-2,-3.2746814E-2,1.155417E0,1.3701258E0,4.833664E-1,6.204863E-1,9.005167E-2,1.0501163E0,-3.787682E-1,-7.7608363E-3,5.968417E-2,7.459583E-2,3.5666943E-2,2.9568909E-2,-2.3317274E-2],"categories":[],"categories_nodes":[],"categories_segments":[],"categories_sizes":[],"default_left":[0,0,0,0,0,0,0,0,0,0,0,0,0,0,0,0,0],"id":5,"left_children":[1,3,-1,-1,5,7,9,11,-1,13,15,-1,-1,-1,-1,-1,-1],"loss_changes":[2.8093497E2,3.3445782E2,0E0,0E0,4.204651E1,7.116644E1,3.616951E1,3.7180237E1,0E0,5.54755E0,2.8053842E0,0E0,0E0,0E0,0E0,0E0,0E0],"parents":[2147483647,0,0,1,1,4,4,5,5,6,6,7,7,9,9,10,10],"right_children":[2,4,-1,-1,6,8,10,12,-1,14,16,-1,-1,-1,-1,-1,-1],"split_conditions":[1.8E1,8E0,-3.2870535E-2,-3.2746814E-2,1.6E1,1E1,3.2907403E-1,7.1498305E-2,9.005167E-2,1.7514218E-1,1.5E3,-7.7608363E-3,5.968417E-2,7.459583E-2,3.5666943E-2,2.9568909E-2,-2.3317274E-2],"split_indices":[11,11,0,0,11,11,10,10,0,10,12,0,0,0,0,0,0],"split_type":[0,0,0,0,0,0,0,0,0,0,0,0,0,0,0,0,0],"sum_hessian":[8.039128E2,4.499341E2,3.5397867E2,1.5495184E2,2.9498227E2,2.2277173E2,7.2210556E1,8.220378E1,1.4056795E2,4.3437546E1,2.877301E1,3.524127E1,4.6962517E1,1.730546E1,2.6132084E1,1.9060376E0,2.6866972E1],"tree_param":{"num_deleted":"0","num_feature":"13","num_nodes":"17","size_leaf_vector":"1"}},{"base_weights":[5.1844646E-3,-3.287038E-2,5.460243E-1,1.1480312E0,-3.273822E-2,1.4283684E0,4.9211246E-1,7.623722E-1,9.001264E-2,1.2516837E0,-2.4506322E-1,7.6261386E-3,7.600702E-2,7.635727E-2,4.1187175E-2,1.2674733E-2,-1.9861996E-2],"categories":[],"categories_nodes":[],"categories_segments":[],"categories_sizes":[],"default_left":[0,0,0,0,0,0,0,0,0,0,0,0,0,0,0,0,0],"id":6,"left_children":[1,-1,3,5,-1,7,9,11,-1,13,15,-1,-1,-1,-1,-1,-1],"loss_changes":[2.9059464E2,0E0,3.234973E2,5.4045715E1,0E0,5.0160065E1,5.108026E1,3.502229E1,0E0,4.025917E0,3.6554008E0,0E0,0E0,0E0,0E0,0E0,0E0],"parents":[2147483647,0,0,2,2,3,3,5,5,6,6,7,7,9,9,10,10],"right_children":[2,-1,4,6,-1,8,10,12,-1,14,16,-1,-1,-1,-1,-1,-1],"split_conditions":[1.6E1,-3.287038E-2,2.6E1,2.4E1,-3.273822E-2,1.8E1,5.1630515E-1,3.2907403E-1,9.001264E-2,3E1,4E0,7.6261386E-3,7.600702E-2,7.635727E-2,4.1187175E-2,1.2674733E-2,-1.9861996E-2],"split_indices":[11,0,11,11,0,11,10,10,0,0,7,0,0,0,0,0,0],"split_type":[0,0,0,0,0,0,0,0,0,0,0,0,0,0,0,0,0],"sum_hessian":[8.089084E2,3.6343842E2,4.4547E2,2.9674362E2,1.4872638E2,2.0706651E2,8.967712E1,7.528712E1,1.317794E2,4.382389E1,4.585322E1,4.238062E1,3.29065E1,2.5099169E1,1.8724722E1,1.0567249E1,3.5285973E1],"tree_param":{"num_deleted":"0","num_feature":"13","num_nodes":"17","size_leaf_vector":"1"}},{"base_weights":[1.552691E-2,-3.290279E-2,1.4428364E0,7.963441E-1,9.014757E-2,-9.820906E-3,1.4064618E0,-3.9524606E-1,3.6563566E-1,8.8221604E-1,1.5800589E0,-2.6220327E-2,3.1377487E-2,-7.533072E-3,3.363837E-2,7.941066E-3,6.425809E-2,1.7865097E-2,8.1067495E-2],"categories":[],"categories_nodes":[],"categories_segments":[],"categories_sizes":[],"default_left":[0,0,0,0,0,0,0,0,0,0,0,0,0,0,0,0,0,0,0],"id":7,"left_children":[1,-1,3,5,-1,7,9,11,13,15,17,-1,-1,-1,-1,-1,-1,-1,-1],"loss_changes":[7.858872E2,0E0,5.9579346E1,4.701077E1,0E0,6.244783E0,3.556427E0,3.1405315E0,3.5698047E0,4.4001637E0,1.420021E0,0E0,0E0,0E0,0E0,0E0,0E0,0E0,0E0],"parents":[2147483647,0,0,2,2,3,3,5,5,6,6,7,7,8,8,9,9,10,10],"right_children":[2,-1,4,6,-1,8,10,12,14,16,18,-1,-1,-1,-1,-1,-1,-1,-1],"split_conditions":[2.4E1,-3.290279E-2,2.6E1,5.1630515E-1,9.014757E-2,3.678591E-1,5E0,1E1,2E0,7E0,2.024E3,-2.6220327E-2,3.1377487E-2,-7.533072E-3,3.363837E-2,7.941066E-3,6.425809E-2,1.7865097E-2,8.1067495E-2],"split_indices":[11,0,11,10,0,10,7,7,4,8,12,0,0,0,0,0,0,0,0],"split_type":[0,0,0,0,0,0,0,0,0,0,0,0,0,0,0,0,0,0,0],"sum_hessian":[8.1544354E2,5.5436426E2,2.6107928E2,9.455031E1,1.6652898E2,4.1155E1,5.339531E1,2.0281897E1,2.0873102E1,1.4795715E1,3.8599594E1,1.8440481E1,1.8414156E0,7.9755063E0,1.2897595E1,5.791888E0,9.003827E0,1.576212E0,3.702338E1],"tree_param":{"num_deleted":"0","num_feature":"13","num_nodes":"19","size_leaf_vector":"1"}},{"base_weights":[1.1068617E-3,1.3310938E0,-3.2547485E-2,8.2629375E-2,6.382741E-1,1.2536073E0,3.5986546E-2,1.5088707E0,7.719767E-1,7.508039E-1,-2.0776398E-1,7.8146644E-2,3.3954985E-2,1.3498299E-2,6.6244535E-2,5.875179E-2,-2.4469683E-2,-3.0169008E-2,-5.650724E-4],"categories":[],"categories_nodes":[],"categories_segments":[],"categories_sizes":[],"default_left":[0,0,0,0,0,0,0,0,0,0,0,0,0,0,0,0,0,0,0],"id":8,"left_children":[1,3,-1,-1,5,7,9,11,13,15,17,-1,-1,-1,-1,-1,-1,-1,-1],"loss_changes":[7.0772455E2,5.8744507E1,0E0,0E0,3.2095528E1,4.1054764E0,7.97161E0,1.4849472E-1,4.332473E0,6.690312E0,2.6539116E0,0E0,0E0,0E0,0E0,0E0,0E0,0E0,0E0],"parents":[2147483647,0,0,1,1,4,4,5,5,6,6,7,7,8,8,9,9,10,10],"right_children":[2,4,-1,-1,6,8,10,12,14,16,18,-1,-1,-1,-1,-1,-1,-1,-1],"split_conditions":[1E1,8E0,-3.2547485E-2,8.2629375E-2,7.1498305E-2,6.073736E-3,2E0,9E0,1E0,2.8923887E-1,5.3752427E0,7.8146644E-2,3.3954985E-2,1.3498299E-2,6.6244535E-2,5.875179E-2,-2.4469683E-2,-3.0169008E-2,-5.650724E-4],"split_indices":[11,11,0,0,10,10,8,8,1,10,6,0,0,0,0,0,0,0,0],"split_type":[0,0,0,0,0,0,0,0,0,0,0,0,0,0,0,0,0,0,0],"sum_hessian":[8.140787E2,2.674746E2,5.4660406E2,1.8175044E2,8.5724174E1,4.1867943E1,4.385623E1,2.597069E1,1.5897256E1,1.0623062E1,3.323317E1,2.3552593E1,2.4180965E0,9.112208E0,6.7850475E0,7.9545918E0,2.66847E0,1.0340103E1,2.2893066E1],"tree_param":{"num_deleted":"0","num_feature":"13","num_nodes":"19","size_leaf_vector":"1"}},{"base_weights":[7.7513573E-3,3.3639225E-1,-5.0890195E-1,-5.3818876E-1,6.6497993E-1,-2.7211115E-1,-6.297715E-1,-6.276652E-1,-1.7254832E-1,7.4868053E-1,2.4452111E-1,-6.1045635E-2,-4.5382175E-1,-5.03947E-1,-3.241842E-2,-3.181789E-2,-2.6816896E-1,4.9845186E-1,-3.008951E-1,3.3871907E-1,8.133838E-1,7.209394E-1,6.967584E-2,-2.6557645E-1,3.4766477E-1,-5.9233224E-1,-3.2584384E-1,-3.1382605E-2,1.3705848E-1,6.037857E-3,-2.2232806E-2,-1.7130814E-2,4.1762177E-2,-1.8021582E-2,1.30231595E-2,7.952056E-3,6.760243E-2,4.492871E-2,2.9256625E-2,4.5123715E-2,4.89092E-3,1.4432311E-2,-1.4473687E-2,8.118783E-3,-2.1694554E-2,4.923286E-2,-1.3935968E-2,5.535793E-3,-3.1420164E-2,-3.6197528E-3,-2.362237E-2,-1.3476558E-2,3.822038E-2],"categories":[],"categories_nodes":[],"categories_segments":[],"categories_sizes":[],"default_left":[0,0,0,0,0,0,0,0,0,0,0,0,0,0,0,0,0,0,0,0,0,0,0,0,0,0,0,0,0,0,0,0,0,0,0,0,0,0,0,0,0,0,0,0,0,0,0,0,0,0,0,0,0],"id":9,"left_children":[1,3,5,7,9,11,13,15,17,19,21,23,25,27,-1,-1,29,31,33,35,37,39,41,43,45,47,49,-1,51,-1,-1,-1,-1,-1,-1,-1,-1,-1,-1,-1,-1,-1,-1,-1,-1,-1,-1,-1,-1,-1,-1,-1,-1],"loss_changes":[1.3578041E2,1.4081584E2,8.727188E0,4.2767754E0,1.2335846E1,4.069615E0,1.5314484E-1,1.6466141E-1,2.5381365E0,7.5809937E0,4.9929333E0,4.3204565E0,8.218727E-1,2.5360389E0,0E0,0E0,3.4621823E-1,1.6540341E0,8.9269495E-1,7.447941E0,4.4345093E0,1.7382336E0,3.653611E0,2.539435E0,7.178179E0,7.358284E-1,1.154083E0,0E0,1.6902865E0,0E0,0E0,0E0,0E0,0E0,0E0,0E0,0E0,0E0,0E0,0E0,0E0,0E0,0E0,0E0,0E0,0E0,0E0,0E0,0E0,0E0,0E0,0E0,0E0],"parents":[2147483647,0,0,1,1,2,2,3,3,4,4,5,5,6,6,7,7,8,8,9,9,10,10,11,11,12,12,13,13,16,16,17,17,18,18,19,19,20,20,21,21,22,22,23,23,24,24,25,25,26,26,28,28],"right_children":[2,4,6,8,10,12,14,16,18,20,22,24,26,28,-1,-1,30,32,34,36,38,40,42,44,46,48,50,-1,52,-1,-1,-1,-1,-1,-1,-1,-1,-1,-1,-1,-1,-1,-1,-1,-1,-1,-1,-1,-1,-1,-1,-1,-1],"split_conditions":[2.592E3,8.26E2,3.2E3,7E2,2.272E3,2E0,3.384E3,5.1E1,5.057458E0,1.062E3,3E0,7.0581713E0,2E0,7.017571E0,-3.241842E-2,-3.181789E-2,2.2E1,1.8E1,9E0,9E0,1.92E3,3.3E1,3.4E1,5E0,1E0,2.618E3,5E0,-3.1382605E-2,2.5E1,6.037857E-3,-2.2232806E-2,-1.7130814E-2,4.1762177E-2,-1.8021582E-2,1.30231595E-2,7.952056E-3,6.760243E-2,4.492871E-2,2.9256625E-2,4.5123715E-2,4.89092E-3,1.4432311E-2,-1.4473687E-2,8.118783E-3,-2.1694554E-2,4.923286E-2,-1.3935968E-2,5.535793E-3,-3.1420164E-2,-3.6197528E-3,-2.362237E-2,-1.3476558E-2,3.822038E-2],"split_indices":[12,12,12,12,12,4,12,3,6,12,7,6,2,6,0,0,0,0,8,8,12,0,3,8,1,12,8,0,3,0,0,0,0,0,0,0,0,0,0,0,0,0,0,0,0,0,0,0,0,0,0,0,0],"split_type":[0,0,0,0,0,0,0,0,0,0,0,0,0,0,0,0,0,0,0,0,0,0,0,0,0,0,0,0,0,0,0,0,0,0,0,0,0,0,0,0,0,0,0,0,0,0,0,0,0,0,0,0,0],"sum_hessian":[7.9767194E2,4.8775928E2,3.0991263E2,1.330338E2,3.547255E2,1.0583221E2,2.0408043E2,1.06303474E2,2.673032E1,2.9518292E2,5.9542583E1,4.957936E1,5.6252846E1,2.9897207E1,1.7418321E2,1.0304181E2,3.2616675E0,3.828932E0,2.2901388E1,4.1087364E1,2.5409555E2,1.5146933E1,4.439565E1,3.3276848E1,1.6302513E1,2.527227E1,3.0980574E1,2.5078281E1,4.8189263E0,1.1166568E0,2.145011E0,1.0898817E0,2.7390504E0,2.1029022E1,1.8723657E0,3.5881927E1,5.205435E0,1.8289626E2,7.119929E1,1.1382527E1,3.7644048E0,2.7702179E1,1.669347E1,9.403374E0,2.3873474E1,7.7992287E0,8.503284E0,1.1323634E0,2.4139908E1,1.1900595E1,1.9079979E1,3.2699878E0,1.5489385E0],"tree_param":{"num_deleted":"0","num_feature":"13","num_nodes":"53","size_leaf_vector":"1"}},{"base_weights":[-7.909241E-3,-3.2512464E-2,4.9549317E-1,1.0576994E0,-3.237872E-2,1.2950817E0,5.025925E-1,6.7662597E-1,8.2473494E-2,1.2151371E0,-1.8623368E-1,9.280567E-3,6.5192826E-2,7.253177E-2,3.993327E-2,7.007473E-3,-2.1102533E-2],"categories":[],"categories_nodes":[],"categories_segments":[],"categories_sizes":[],"default_left":[0,0,0,0,0,0,0,0,0,0,0,0,0,0,0,0,0],"id":10,"left_children":[1,-1,3,5,-1,7,9,11,-1,13,15,-1,-1,-1,-1,-1,-1],"loss_changes":[2.589676E2,0E0,2.8923373E2,3.9059357E1,0E0,4.500943E1,4.5333504E1,2.3891006E1,0E0,3.2849655E0,3.7224371E0,0E0,0E0,0E0,0E0,0E0,0E0],"parents":[2147483647,0,0,2,2,3,3,5,5,6,6,7,7,9,9,10,10],"right_children":[2,-1,4,6,-1,8,10,12,-1,14,16,-1,-1,-1,-1,-1,-1],"split_conditions":[1.6E1,-3.2512464E-2,2.6E1,2.4E1,-3.237872E-2,1.8E1,5.097928E-1,3.2907403E-1,8.2473494E-2,4.0383703E-1,6.073582E-1,9.280567E-3,6.5192826E-2,7.253177E-2,3.993327E-2,7.007473E-3,-2.1102533E-2],"split_indices":[11,0,11,11,0,11,10,10,0,10,10,0,0,0,0,0,0],"split_type":[0,0,0,0,0,0,0,0,0,0,0,0,0,0,0,0,0],"sum_hessian":[7.9887933E2,3.5087375E2,4.4800558E2,3.0035413E2,1.4765147E2,2.0945229E2,9.090183E1,7.735919E1,1.320931E2,4.430608E1,4.659575E1,4.4118134E1,3.324106E1,2.6716059E1,1.7590021E1,1.971493E1,2.688082E1],"tree_param":{"num_deleted":"0","num_feature":"13","num_nodes":"17","size_leaf_vector":"1"}},{"base_weights":[-3.8218917E-3,-3.2546885E-2,1.3285011E0,7.44209E-1,8.259758E-2,3.5584447E-1,1.0657104E0,-1.1676469E-1,7.3939407E-1,2.9388002E-1,1.102912E0,-2.3595205E-2,5.740447E-3,5.647962E-2,1.795483E-2,-1.803564E-2,3.5982028E-2,5.621165E-2,5.379453E-3],"categories":[],"categories_nodes":[],"categories_segments":[],"categories_sizes":[],"default_left":[0,0,0,0,0,0,0,0,0,0,0,0,0,0,0,0,0,0,0],"id":11,"left_children":[1,-1,3,5,-1,7,9,11,13,15,17,-1,-1,-1,-1,-1,-1,-1,-1],"loss_changes":[6.986652E2,0E0,4.8838165E1,1.1634541E1,0E0,8.257744E0,1.172966E0,1.7860464E0,3.307189E0,1.3077047E0,9.2692566E-1,0E0,0E0,0E0,0E0,0E0,0E0,0E0,0E0],"parents":[2147483647,0,0,2,2,3,3,5,5,6,6,7,7,8,8,9,9,10,10],"right_children":[2,-1,4,6,-1,8,10,12,14,16,18,-1,-1,-1,-1,-1,-1,-1,-1],"split_conditions":[2.4E1,-3.2546885E-2,2.6E1,7E0,8.259758E-2,6E0,1E0,2.9E1,5.8973713E0,6.0498233E0,4.785E3,-2.3595205E-2,5.740447E-3,5.647962E-2,1.795483E-2,-1.803564E-2,3.5982028E-2,5.621165E-2,5.379453E-3],"split_indices":[11,0,11,8,0,7,7,3,6,6,12,0,0,0,0,0,0,0,0],"split_type":[0,0,0,0,0,0,0,0,0,0,0,0,0,0,0,0,0,0,0],"sum_hessian":[8.083562E2,5.444336E2,2.639226E2,9.521813E1,1.6870448E2,4.4078903E1,5.113923E1,2.0058464E1,2.4020437E1,2.7607536E0,4.8378475E1,7.5073857E0,1.2551079E1,1.0883402E1,1.3137035E1,1.1482056E0,1.6125481E0,4.723708E1,1.1413949E0],"tree_param":{"num_deleted":"0","num_feature":"13","num_nodes":"19","size_leaf_vector":"1"}},{"base_weights":[1.8199371E-3,1.2488331E0,-3.221828E-2,7.657216E-2,6.265093E-1,1.2443496E0,2.4540052E-2,1.4499346E0,8.499474E-1,-5.368813E-1,2.467372E-1,7.552176E-2,3.096504E-2,6.5252446E-2,1.6718542E-2,5.481132E-3,-3.0346364E-2,3.7103858E-2,-6.5871403E-3],"categories":[],"categories_nodes":[],"categories_segments":[],"categories_sizes":[],"default_left":[0,0,0,0,0,0,0,0,0,0,0,0,0,0,0,0,0,0,0],"id":12,"left_children":[1,3,-1,-1,5,7,9,11,13,15,17,-1,-1,-1,-1,-1,-1,-1,-1],"loss_changes":[6.502161E2,4.747937E1,0E0,0E0,3.2588642E1,2.2754211E0,5.8013105E0,4.2251968E-1,3.6088562E0,6.6431046E-1,6.3299685E0,0E0,0E0,0E0,0E0,0E0,0E0,0E0,0E0],"parents":[2147483647,0,0,1,1,4,4,5,5,6,6,7,7,8,8,9,9,10,10],"right_children":[2,4,-1,-1,6,8,10,12,14,16,18,-1,-1,-1,-1,-1,-1,-1,-1],"split_conditions":[1E1,8E0,-3.221828E-2,7.657216E-2,7.1498305E-2,6.073736E-3,5.553569E0,3.5E1,1.278E3,4.3273954E0,4E0,7.552176E-2,3.096504E-2,6.5252446E-2,1.6718542E-2,5.481132E-3,-3.0346364E-2,3.7103858E-2,-6.5871403E-3],"split_indices":[11,11,0,0,10,10,6,0,12,6,7,0,0,0,0,0,0,0,0],"split_type":[0,0,0,0,0,0,0,0,0,0,0,0,0,0,0,0,0,0,0],"sum_hessian":[8.049195E2,2.7441635E2,5.305031E2,1.8771175E2,8.670462E1,4.2261627E1,4.4442993E1,2.6021467E1,1.624016E1,1.2200352E1,3.224264E1,2.3491978E1,2.529489E0,7.812655E0,8.427505E0,1.1374065E0,1.1062944E1,1.3549242E1,1.8693398E1],"tree_param":{"num_deleted":"0","num_feature":"13","num_nodes":"19","size_leaf_vector":"1"}},{"base_weights":[1.0834863E-2,5.0060695E-1,-3.2279965E-2,-3.2127123E-2,1.0396302E0,5.0697273E-1,1.2342337E0,-1.5921631E-1,1.0672783E0,7.8766234E-2,5.4071003E-1,-2.3488479E-2,1.28683E-2,1.6554932E-3,6.0245033E-2,5.0095923E-2,-1.1917402E-2],"categories":[],"categories_nodes":[],"categories_segments":[],"categories_sizes":[],"default_left":[0,0,0,0,0,0,0,0,0,0,0,0,0,0,0,0,0],"id":13,"left_children":[1,3,-1,-1,5,7,9,11,13,-1,15,-1,-1,-1,-1,-1,-1],"loss_changes":[2.595005E2,2.8549432E2,0E0,0E0,3.1975098E1,3.2216633E1,5.347357E1,5.3075576E0,6.6156006E0,0E0,2.7989714E1,0E0,0E0,0E0,0E0,0E0,0E0],"parents":[2147483647,0,0,1,1,4,4,5,5,6,6,7,7,8,8,10,10],"right_children":[2,4,-1,-1,6,8,10,12,14,-1,16,-1,-1,-1,-1,-1,-1],"split_conditions":[1.8E1,8E0,-3.2279965E-2,-3.2127123E-2,1E1,8.297114E-2,1.6E1,6.073736E-3,1E0,7.8766234E-2,3.2907403E-1,-2.3488479E-2,1.28683E-2,1.6554932E-3,6.0245033E-2,5.0095923E-2,-1.1917402E-2],"split_indices":[11,11,0,0,11,10,11,10,8,0,10,0,0,0,0,0,0],"split_type":[0,0,0,0,0,0,0,0,0,0,0,0,0,0,0,0,0],"sum_hessian":[8.0514233E2,4.6124225E2,3.439001E2,1.4773561E2,3.1350665E2,8.485408E1,2.2865257E2,3.9091324E1,4.5762753E1,1.5241827E2,7.62343E1,2.2322615E1,1.6768711E1,5.520364E0,4.024239E1,4.7705944E1,2.8528355E1],"tree_param":{"num_deleted":"0","num_feature":"13","num_nodes":"17","size_leaf_vector":"1"}},{"base_weights":[7.1548866E-3,-3.2207344E-2,4.9647367E-1,1.0003471E0,-3.2016493E-2,1.218957E0,4.684917E-1,6.282403E-1,7.677195E-2,1.1276907E0,-2.0716253E-1,5.8118813E-3,6.409572E-2,7.031237E-2,3.875106E-2,5.7196156E-3,-2.3919865E-2],"categories":[],"categories_nodes":[],"categories_segments":[],"categories_sizes":[],"default_left":[0,0,0,0,0,0,0,0,0,0,0,0,0,0,0,0,0],"id":14,"left_children":[1,-1,3,5,-1,7,9,11,-1,13,15,-1,-1,-1,-1,-1,-1],"loss_changes":[2.577363E2,0E0,2.6515027E2,3.667581E1,0E0,4.1362885E1,4.252003E1,2.6852114E1,0E0,3.6463585E0,4.2176533E0,0E0,0E0,0E0,0E0,0E0,0E0],"parents":[2147483647,0,0,2,2,3,3,5,5,6,6,7,7,9,9,10,10],"right_children":[2,-1,4,6,-1,8,10,12,-1,14,16,-1,-1,-1,-1,-1,-1],"split_conditions":[1.6E1,-3.2207344E-2,2.6E1,2.4E1,-3.2016493E-2,1.8E1,5.1630515E-1,3.2907403E-1,7.677195E-2,3.678591E-1,7E0,5.8118813E-3,6.409572E-2,7.031237E-2,3.875106E-2,5.7196156E-3,-2.3919865E-2],"split_indices":[11,0,11,11,0,11,10,10,0,10,7,0,0,0,0,0,0],"split_type":[0,0,0,0,0,0,0,0,0,0,0,0,0,0,0,0,0],"sum_hessian":[8.067228E2,3.4594308E2,4.607797E2,3.1935138E2,1.4142831E2,2.2540904E2,9.394233E1,7.967674E1,1.4573228E2,4.7211555E1,4.6730774E1,4.5340645E1,3.43361E1,2.4708254E1,2.2503304E1,2.1646555E1,2.5084217E1],"tree_param":{"num_deleted":"0","num_feature":"13","num_nodes":"17","size_leaf_vector":"1"}},{"base_weights":[1.0728599E-3,-3.221907E-2,1.2374465E0,6.799183E-1,7.642577E-2,-5.3795792E-2,1.2097361E0,-5.5707026E-1,2.6024067E-1,6.9688344E-1,1.3268563E0,-3.063487E-2,-5.0478725E-4,-7.2432184E-3,3.5198744E-2,-1.0617375E-2,4.6940412E-2,1.7785458E-2,6.8771206E-2],"categories":[],"categories_nodes":[],"categories_segments":[],"categories_sizes":[],"default_left":[0,0,0,0,0,0,0,0,0,0,0,0,0,0,0,0,0,0,0],"id":15,"left_children":[1,-1,3,5,-1,7,9,11,13,15,17,-1,-1,-1,-1,-1,-1,-1,-1],"loss_changes":[6.468464E2,0E0,4.4077026E1,3.7834923E1,0E0,6.7352705E0,2.466774E0,4.9099445E-1,4.840104E0,2.971651E0,1.6266022E0,0E0,0E0,0E0,0E0,0E0,0E0,0E0,0E0],"parents":[2147483647,0,0,2,2,3,3,5,5,6,6,7,7,8,8,9,9,10,10],"right_children":[2,-1,4,6,-1,8,10,12,14,16,18,-1,-1,-1,-1,-1,-1,-1,-1],"split_conditions":[2.4E1,-3.221907E-2,2.6E1,5.1630515E-1,7.642577E-2,3.230004E-1,5.6649756E-1,1E1,3E1,1.6E1,2E0,-3.063487E-2,-5.0478725E-4,-7.2432184E-3,3.5198744E-2,-1.0617375E-2,4.6940412E-2,1.7785458E-2,6.8771206E-2],"split_indices":[11,0,11,10,0,10,10,7,0,0,8,0,0,0,0,0,0,0,0],"split_type":[0,0,0,0,0,0,0,0,0,0,0,0,0,0,0,0,0,0,0],"sum_hessian":[8.0856213E2,5.3154535E2,2.7701675E2,9.616097E1,1.8085579E2,4.069847E1,5.54625E1,1.534027E1,2.5358202E1,1.1603328E1,4.3859173E1,1.3815118E1,1.5251522E0,1.3608197E1,1.1750005E1,2.4642282E0,9.139099E0,2.485421E0,4.1373753E1],"tree_param":{"num_deleted":"0","num_feature":"13","num_nodes":"19","size_leaf_vector":"1"}},{"base_weights":[-2.4099309E-2,1.0906835E0,-5.387615E-1,1.3215623E0,3.9980277E-1,2.356168E-2,-6.234986E-1,7.010811E-2,1.064174E0,6.660916E-2,-1.01895355E-1,1.0901856E0,-2.2956406E-1,-4.5874044E-1,-3.1870753E-2,1.2180458E0,4.6727905E-1,4.1640645E-1,-2.7849895E-1,6.069848E-2,6.244547E-1,1.4719039E-1,-4.692941E-1,1.3314926E-2,-5.1637983E-1,1.0196486E-2,6.3375965E-2,4.4372305E-2,-3.8360064E-3,3.6555644E-2,-2.3838187E-2,1.0453469E-2,-1.8934114E-2,7.065444E-3,4.834714E-2,2.3658972E-2,-1.9169293E-2,1.6454428E-2,-2.7060661E-2,-2.463187E-2,4.72626E-2,-4.7930283E-3,-2.8043142E-2],"categories":[],"categories_nodes":[],"categories_segments":[],"categories_sizes":[],"default_left":[0,0,0,0,0,0,0,0,0,0,0,0,0,0,0,0,0,0,0,0,0,0,0,0,0,0,0,0,0,0,0,0,0,0,0,0,0,0,0,0,0,0,0],"id":16,"left_children":[1,3,5,7,9,11,13,-1,15,-1,17,19,21,23,-1,25,27,29,31,-1,33,35,37,39,41,-1,-1,-1,-1,-1,-1,-1,-1,-1,-1,-1,-1,-1,-1,-1,-1,-1,-1],"loss_changes":[4.5976196E2,3.9845703E1,2.6136673E1,2.4345703E0,3.0462742E1,1.989352E1,8.000488E-1,0E0,3.95755E0,0E0,4.059302E0,5.6430817E-2,5.454562E0,1.1136513E0,0E0,1.6762619E0,2.7477934E0,3.5386968E0,1.6779683E0,0E0,6.9500256E-1,4.3235464E0,2.284173E0,3.0124035E0,6.248083E-1,0E0,0E0,0E0,0E0,0E0,0E0,0E0,0E0,0E0,0E0,0E0,0E0,0E0,0E0,0E0,0E0,0E0,0E0],"parents":[2147483647,0,0,1,1,2,2,3,3,4,4,5,5,6,6,8,8,10,10,11,11,12,12,13,13,15,15,16,16,17,17,18,18,20,20,21,21,22,22,23,23,24,24],"right_children":[2,4,6,8,10,12,14,-1,16,-1,18,20,22,24,-1,26,28,30,32,-1,34,36,38,40,42,-1,-1,-1,-1,-1,-1,-1,-1,-1,-1,-1,-1,-1,-1,-1,-1,-1,-1],"split_conditions":[1.278E3,1.1823109E-1,1.595E3,8.64E2,7E2,3.6202057E-3,1.805E3,7.010811E-2,5.6297146E-2,6.660916E-2,2E0,1.47E3,1.4746425E-1,1E0,-3.1870753E-2,4E0,3.2E1,7E0,8.1E2,6.069848E-2,4E0,6E0,1E0,1.737E3,2.2996845E-2,1.0196486E-2,6.3375965E-2,4.4372305E-2,-3.8360064E-3,3.6555644E-2,-2.3838187E-2,1.0453469E-2,-1.8934114E-2,7.065444E-3,4.834714E-2,2.3658972E-2,-1.9169293E-2,1.6454428E-2,-2.7060661E-2,-2.463187E-2,4.72626E-2,-4.7930283E-3,-2.8043142E-2],"split_indices":[12,10,12,12,12,10,12,0,10,0,8,12,10,8,0,3,3,7,12,0,7,8,8,12,10,0,0,0,0,0,0,0,0,0,0,0,0,0,0,0,0,0,0],"split_type":[0,0,0,0,0,0,0,0,0,0,0,0,0,0,0,0,0,0,0,0,0,0,0,0,0,0,0,0,0,0,0,0,0,0,0,0,0,0,0,0,0,0,0],"sum_hessian":[7.993227E2,2.5211354E2,5.4720917E2,1.8828088E2,6.3832657E1,7.1755486E1,4.7545367E2,1.3999458E2,4.8286304E1,2.1752115E1,4.208054E1,1.3128324E1,5.8627163E1,3.9676884E1,4.3577676E2,3.7562534E1,1.072377E1,1.0349282E1,3.1731258E1,9.102446E0,4.0258775E0,2.2948236E1,3.567893E1,4.4011703E0,3.5275715E1,1.985494E0,3.557704E1,5.694324E0,5.029446E0,7.7869935E0,2.5622888E0,5.2233896E0,2.650787E1,2.2559783E0,1.7698992E0,1.4281674E1,8.666563E0,2.6529047E0,3.3026024E1,3.1580405E0,1.2431295E0,3.6763525E0,3.1599361E1],"tree_param":{"num_deleted":"0","num_feature":"13","num_nodes":"43","size_leaf_vector":"1"}},{"base_weights":[-4.2517115E-3,4.5808998E-1,-3.1946786E-2,-3.1782623E-2,9.604345E-1,4.4199467E-1,1.1465348E0,-1.8729974E-1,1.0353402E0,7.311711E-2,4.6659032E-1,-2.3772521E-2,1.015352E-2,2.011039E-2,6.000488E-2,4.6598386E-2,-1.3733603E-2],"categories":[],"categories_nodes":[],"categories_segments":[],"categories_sizes":[],"default_left":[0,0,0,0,0,0,0,0,0,0,0,0,0,0,0,0,0],"id":17,"left_children":[1,3,-1,-1,5,7,9,11,13,-1,15,-1,-1,-1,-1,-1,-1],"loss_changes":[2.3577782E2,2.5602463E2,0E0,0E0,3.0266571E1,3.225963E1,4.9581512E1,4.87977E0,4.144066E0,0E0,2.6372498E1,0E0,0E0,0E0,0E0,0E0,0E0],"parents":[2147483647,0,0,1,1,4,4,5,5,6,6,7,7,8,8,10,10],"right_children":[2,4,-1,-1,6,8,10,12,14,-1,16,-1,-1,-1,-1,-1,-1],"split_conditions":[1.8E1,8E0,-3.1946786E-2,-3.1782623E-2,1E1,9.437907E-2,1.6E1,6.073736E-3,2E0,7.311711E-2,3.2907403E-1,-2.3772521E-2,1.015352E-2,2.011039E-2,6.000488E-2,4.6598386E-2,-1.3733603E-2],"split_indices":[11,11,0,0,11,10,11,10,8,0,10,0,0,0,0,0,0],"split_type":[0,0,0,0,0,0,0,0,0,0,0,0,0,0,0,0,0],"sum_hessian":[8.014961E2,4.6386636E2,3.376297E2,1.4591148E2,3.179549E2,8.487747E1,2.3307741E2,4.1523026E1,4.3354443E1,1.5837007E2,7.470734E1,2.3763853E1,1.7759172E1,9.662901E0,3.369154E1,4.573613E1,2.8971209E1],"tree_param":{"num_deleted":"0","num_feature":"13","num_nodes":"17","size_leaf_vector":"1"}},{"base_weights":[-2.0979613E-3,-3.1877834E-2,4.6735308E-1,9.46827E-1,-3.16852E-2,1.1504201E0,4.6707904E-1,6.1649555E-1,7.142975E-2,1.1267529E0,-1.7174405E-1,6.549696E-3,5.9718378E-2,5.8556944E-2,-3.5323685E-3,1.1717424E-2,-1.7624443E-2],"categories":[],"categories_nodes":[],"categories_segments":[],"categories_sizes":[],"default_left":[0,0,0,0,0,0,0,0,0,0,0,0,0,0,0,0,0],"id":18,"left_children":[1,-1,3,5,-1,7,9,11,-1,13,15,-1,-1,-1,-1,-1,-1],"loss_changes":[2.4031485E2,0E0,2.4519112E2,3.1026398E1,0E0,3.2714294E1,4.147693E1,2.2074522E1,0E0,2.651249E0,3.7992568E0,0E0,0E0,0E0,0E0,0E0,0E0],"parents":[2147483647,0,0,2,2,3,3,5,5,6,6,7,7,9,9,10,10],"right_children":[2,-1,4,6,-1,8,10,12,-1,14,16,-1,-1,-1,-1,-1,-1],"split_conditions":[1.6E1,-3.1877834E-2,2.6E1,2.4E1,-3.16852E-2,1.8E1,5.1630515E-1,3.2907403E-1,7.142975E-2,1E1,5E0,6.549696E-3,5.9718378E-2,5.8556944E-2,-3.5323685E-3,1.1717424E-2,-1.7624443E-2],"split_indices":[11,0,11,11,0,11,10,10,0,8,7,0,0,0,0,0,0],"split_type":[0,0,0,0,0,0,0,0,0,0,0,0,0,0,0,0,0],"sum_hessian":[8.035706E2,3.4126675E2,4.6230386E2,3.2215576E2,1.401481E2,2.2519194E2,9.696383E1,7.823848E1,1.4695346E2,4.732765E1,4.9636185E1,4.318397E1,3.5054512E1,4.5657135E1,1.6705139E0,1.5196509E1,3.4439674E1],"tree_param":{"num_deleted":"0","num_feature":"13","num_nodes":"17","size_leaf_vector":"1"}},{"base_weights":[-3.8926124E-3,-5.181369E-1,8.8786787E-1,-5.6839156E-1,9.4185036E-1,3.956007E-1,1.1863655E0,-6.277629E-1,-3.2458192E-1,3.9526057E-1,5.7089347E-2,-3.0063713E-2,5.618136E-1,1.0027896E0,6.829542E-2,-3.1507637E-2,5.1954943E-3,-3.090584E-2,-2.1916403E-1,-1.5421447E-1,3.7412673E-2,3.795279E-2,8.2419676E-1,6.399752E-1,1.1567891E0,-2.3121761E-2,-2.6591725E-3,4.402256E-3,-1.6686963E-2,-1.1918928E-2,2.936535E-2,-5.133915E-3,4.413123E-2,3.0730905E-3,4.002774E-2,3.457534E-2,6.1907213E-2],"categories":[],"categories_nodes":[],"categories_segments":[],"categories_sizes":[],"default_left":[0,0,0,0,0,0,0,0,0,0,0,0,0,0,0,0,0,0,0,0,0,0,0,0,0,0,0,0,0,0,0,0,0,0,0,0,0],"id":19,"left_children":[1,3,5,7,9,11,13,15,17,19,-1,-1,21,23,-1,-1,-1,-1,25,27,-1,29,31,33,35,-1,-1,-1,-1,-1,-1,-1,-1,-1,-1,-1,-1],"loss_changes":[3.6391663E2,3.746428E1,4.21799E1,6.8484955E0,1.4201365E0,1.874022E1,4.5691223E0,7.486572E-1,2.880827E0,1.3016245E0,0E0,0E0,1.3124046E1,4.4477234E0,0E0,0E0,0E0,0E0,2.9338841E0,1.694827E-1,0E0,5.147674E0,3.5414352E0,2.7290506E0,1.5644073E0,0E0,0E0,0E0,0E0,0E0,0E0,0E0,0E0,0E0,0E0,0E0,0E0],"parents":[2147483647,0,0,1,1,2,2,3,3,4,4,5,5,6,6,7,7,8,8,9,9,12,12,13,13,18,18,19,19,21,21,22,22,23,23,24,24],"right_children":[2,4,6,8,10,12,14,16,18,20,-1,-1,22,24,-1,-1,-1,-1,26,28,-1,30,32,34,36,-1,-1,-1,-1,-1,-1,-1,-1,-1,-1,-1,-1],"split_conditions":[4.3632808E-1,4.424E3,3.22E3,2.592E3,4.68E3,1.965E3,6.073582E-1,4.328179E-1,1E0,3.5306838E-1,5.7089347E-2,-3.0063713E-2,5.308439E-1,5E0,6.829542E-2,-3.1507637E-2,5.1954943E-3,-3.090584E-2,2.8568012E-1,2E0,3.7412673E-2,9E0,2E0,4.8016796E-1,3.476E3,-2.3121761E-2,-2.6591725E-3,4.402256E-3,-1.6686963E-2,-1.1918928E-2,2.936535E-2,-5.133915E-3,4.413123E-2,3.0730905E-3,4.002774E-2,3.457534E-2,6.1907213E-2],"split_indices":[10,12,12,12,12,12,10,10,4,10,0,0,10,7,0,0,0,0,10,2,0,8,8,10,12,0,0,0,0,0,0,0,0,0,0,0,0],"split_type":[0,0,0,0,0,0,0,0,0,0,0,0,0,0,0,0,0,0,0,0,0,0,0,0,0,0,0,0,0,0,0,0,0,0,0,0,0],"sum_hessian":[7.9156494E2,5.023169E2,2.8924808E2,4.8619223E2,1.612467E1,1.1006301E2,1.7918506E2,3.897157E2,9.647652E1,5.115838E0,1.1008832E1,1.5354671E1,9.470834E1,9.185355E1,8.7331505E1,3.8858527E2,1.1304504E0,2.4207502E1,7.226901E1,2.221279E0,2.8945591E0,3.1987795E1,6.2720547E1,2.8906666E1,6.2946884E1,2.8585821E1,4.368319E1,1.1623338E0,1.058945E0,2.16591E1,1.0328695E1,3.6743772E0,5.904617E1,6.5808535E0,2.2325811E1,1.0782135E1,5.216475E1],"tree_param":{"num_deleted":"0","num_feature":"13","num_nodes":"37","size_leaf_vector":"1"}},{"base_weights":[2.9852656E-3,1.1072215E0,-3.1597488E-2,6.698694E-2,5.632515E-1,9.670886E-1,2.7944222E-1,1.108874E0,1.6893305E-1,5.533497E-1,-5.5153005E-2,6.2366705E-2,4.2591974E-2,4.020151E-2,-1.5420781E-2,3.5275016E-2,-5.1099746E-3,-1.9744342E-2,7.1738735E-3],"categories":[],"categories_nodes":[],"categories_segments":[],"categories_sizes":[],"default_left":[0,0,0,0,0,0,0,0,0,0,0,0,0,0,0,0,0,0,0],"id":20,"left_children":[1,3,-1,-1,5,7,9,11,13,15,17,-1,-1,-1,-1,-1,-1,-1,-1],"loss_changes":[5.512286E2,3.554953E1,0E0,0E0,9.778494E0,3.861744E0,4.8783407E0,1.2355804E-2,2.2418473E0,2.9822187E0,1.7247752E0,0E0,0E0,0E0,0E0,0E0,0E0,0E0,0E0],"parents":[2147483647,0,0,1,1,4,4,5,5,6,6,7,7,8,8,9,9,10,10],"right_children":[2,4,-1,-1,6,8,10,12,14,16,18,-1,-1,-1,-1,-1,-1,-1,-1],"split_conditions":[1E1,8E0,-3.1597488E-2,6.698694E-2,3E0,8E0,2E0,4E0,1E0,7E0,1.092E3,6.2366705E-2,4.2591974E-2,4.020151E-2,-1.5420781E-2,3.5275016E-2,-5.1099746E-3,-1.9744342E-2,7.1738735E-3],"split_indices":[11,11,0,0,8,7,4,7,4,7,12,0,0,0,0,0,0,0,0],"split_type":[0,0,0,0,0,0,0,0,0,0,0,0,0,0,0,0,0,0,0],"sum_hessian":[7.842155E2,2.860291E2,4.981864E2,1.9935349E2,8.667564E1,3.477961E1,5.1896027E1,2.9202705E1,5.5769024E0,2.817639E1,2.3719637E1,1.6475069E1,1.2727636E1,2.099379E0,3.477523E0,2.2806814E1,5.369577E0,8.386861E0,1.5332776E1],"tree_param":{"num_deleted":"0","num_feature":"13","num_nodes":"19","size_leaf_vector":"1"}},{"base_weights":[6.5893633E-4,4.4242522E-1,-3.1637114E-2,-3.147882E-2,9.125146E-1,1.0631225E0,4.0667805E-1,4.9211043E-1,6.8460375E-2,8.372168E-1,-3.2355043E-1,-2.202726E-2,3.898285E-2,6.1948556E-2,2.4953365E-2,-2.4697248E-2,-5.0744894E-3],"categories":[],"categories_nodes":[],"categories_segments":[],"categories_sizes":[],"default_left":[0,0,0,0,0,0,0,0,0,0,0,0,0,0,0,0,0],"id":21,"left_children":[1,3,-1,-1,5,7,9,11,-1,13,15,-1,-1,-1,-1,-1,-1],"loss_changes":[2.2029895E2,2.3430682E2,0E0,0E0,2.4161987E1,4.2696716E1,2.4066248E1,2.39858E1,0E0,5.88805E0,1.0393839E0,0E0,0E0,0E0,0E0,0E0,0E0],"parents":[2147483647,0,0,1,1,4,4,5,5,6,6,7,7,9,9,10,10],"right_children":[2,4,-1,-1,6,8,10,12,-1,14,16,-1,-1,-1,-1,-1,-1],"split_conditions":[1.8E1,8E0,-3.1637114E-2,-3.147882E-2,1.6E1,1E1,3.2907403E-1,3.6202057E-3,6.8460375E-2,1.803796E-1,1E0,-2.202726E-2,3.898285E-2,6.1948556E-2,2.4953365E-2,-2.4697248E-2,-5.0744894E-3],"split_indices":[11,11,0,0,11,11,10,10,0,10,1,0,0,0,0,0,0],"split_type":[0,0,0,0,0,0,0,0,0,0,0,0,0,0,0,0,0],"sum_hessian":[7.8530084E2,4.62813E2,3.2248788E2,1.4098E2,3.2183298E2,2.4714597E2,7.468702E1,8.7157814E1,1.5998816E2,4.689278E1,2.779424E1,2.0413769E1,6.674404E1,2.0213367E1,2.6679413E1,1.5033878E1,1.2760363E1],"tree_param":{"num_deleted":"0","num_feature":"13","num_nodes":"17","size_leaf_vector":"1"}},{"base_weights":[-8.119326E-4,-3.1559963E-2,4.4059426E-1,8.8940066E-1,-3.142917E-2,1.0907258E0,3.96308E-1,5.9935844E-1,6.7183666E-2,9.8576635E-1,-1.8238513E-1,-1.4033872E-2,4.313235E-2,5.978466E-2,3.3036623E-2,6.823531E-3,-2.1030419E-2],"categories":[],"categories_nodes":[],"categories_segments":[],"categories_sizes":[],"default_left":[0,0,0,0,0,0,0,0,0,0,0,0,0,0,0,0,0],"id":22,"left_children":[1,-1,3,5,-1,7,9,11,-1,13,15,-1,-1,-1,-1,-1,-1],"loss_changes":[2.2120697E2,0E0,2.2492621E2,3.2302185E1,0E0,2.8225739E1,3.332607E1,1.9052559E1,0E0,2.5051918E0,3.8459806E0,0E0,0E0,0E0,0E0,0E0,0E0],"parents":[2147483647,0,0,2,2,3,3,5,5,6,6,7,7,9,9,10,10],"right_children":[2,-1,4,6,-1,8,10,12,-1,14,16,-1,-1,-1,-1,-1,-1],"split_conditions":[1.6E1,-3.1559963E-2,2.6E1,2.4E1,-3.142917E-2,1.8E1,5.1630515E-1,1.803796E-1,6.7183666E-2,7E0,6.073582E-1,-1.4033872E-2,4.313235E-2,5.978466E-2,3.3036623E-2,6.823531E-3,-2.1030419E-2],"split_indices":[11,0,11,11,0,11,10,10,0,8,10,0,0,0,0,0,0],"split_type":[0,0,0,0,0,0,0,0,0,0,0,0,0,0,0,0,0],"sum_hessian":[7.929746E2,3.2640067E2,4.6657394E2,3.2874536E2,1.3782858E2,2.325751E2,9.617026E1,8.018325E1,1.5239186E2,4.729352E1,4.887674E1,1.8449656E1,6.1733593E1,2.7107296E1,2.0186226E1,2.1083775E1,2.7792965E1],"tree_param":{"num_deleted":"0","num_feature":"13","num_nodes":"17","size_leaf_vector":"1"}},{"base_weights":[8.514801E-3,-3.162928E-2,1.1176596E0,6.5503657E-1,6.749404E-2,-3.7076514E-2,1.0905849E0,-4.2061436E-1,3.5412505E-1,2.5848117E-1,1.1419896E0,-3.0253453E-2,3.4823106E-3,-1.1947704E-2,3.607007E-2,3.0186776E-2,-1.9951157E-2,3.816447E-2,6.140525E-2],"categories":[],"categories_nodes":[],"categories_segments":[],"categories_sizes":[],"default_left":[0,0,0,0,0,0,0,0,0,0,0,0,0,0,0,0,0,0,0],"id":23,"left_children":[1,-1,3,5,-1,7,9,11,13,15,17,-1,-1,-1,-1,-1,-1,-1,-1],"loss_changes":[5.6198816E2,0E0,3.0216125E1,2.9791176E1,0E0,6.0134616E0,2.2971954E0,1.8682556E0,4.5054827E0,1.3348012E0,9.145508E-1,0E0,0E0,0E0,0E0,0E0,0E0,0E0,0E0],"parents":[2147483647,0,0,2,2,3,3,5,5,6,6,7,7,8,8,9,9,10,10],"right_children":[2,-1,4,6,-1,8,10,12,14,16,18,-1,-1,-1,-1,-1,-1,-1,-1],"split_conditions":[2.4E1,-3.162928E-2,2.6E1,5.1630515E-1,6.749404E-2,3.678591E-1,1E0,3.2E1,2E0,3.7E1,5.6649756E-1,-3.0253453E-2,3.4823106E-3,-1.1947704E-2,3.607007E-2,3.0186776E-2,-1.9951157E-2,3.816447E-2,6.140525E-2],"split_indices":[11,0,11,10,0,10,7,0,4,0,10,0,0,0,0,0,0,0,0],"split_type":[0,0,0,0,0,0,0,0,0,0,0,0,0,0,0,0,0,0,0],"sum_hessian":[7.883437E2,4.9985217E2,2.8849152E2,9.769256E1,1.9079897E2,3.8086163E1,5.960639E1,1.9193491E1,1.8892673E1,3.8187964E0,5.5787598E1,1.3776187E1,5.417303E0,7.3588943E0,1.1533778E1,2.5575883E0,1.2612079E0,1.2163051E1,4.3624546E1],"tree_param":{"num_deleted":"0","num_feature":"13","num_nodes":"19","size_leaf_vector":"1"}},{"base_weights":[-8.282961E-4,1.0435755E0,-3.1298123E-2,6.304477E-2,5.284122E-1,9.9639946E-1,-4.521609E-2,1.2188835E0,6.708535E-1,3.1761086E-1,-3.6473626E-1,6.354757E-2,2.1134378E-2,-1.2265534E-2,4.080954E-2,4.8793342E-2,-1.823628E-3,1.8401928E-2,-2.1888213E-2],"categories":[],"categories_nodes":[],"categories_segments":[],"categories_sizes":[],"default_left":[0,0,0,0,0,0,0,0,0,0,0,0,0,0,0,0,0,0,0],"id":24,"left_children":[1,3,-1,-1,5,7,9,11,13,15,17,-1,-1,-1,-1,-1,-1,-1,-1],"loss_changes":[5.1122177E2,3.2157562E1,0E0,0E0,2.3858496E1,2.7237282E0,4.8471665E0,6.1613846E-1,3.139452E0,4.614465E0,1.3473074E0,0E0,0E0,0E0,0E0,0E0,0E0,0E0,0E0],"parents":[2147483647,0,0,1,1,4,4,5,5,6,6,7,7,8,8,9,9,10,10],"right_children":[2,4,-1,-1,6,8,10,12,14,16,18,-1,-1,-1,-1,-1,-1,-1,-1],"split_conditions":[1E1,8E0,-3.1298123E-2,6.304477E-2,1.0279389E-1,6.073736E-3,4E0,9E0,1.381088E-2,3E0,1.5E1,6.354757E-2,2.1134378E-2,-1.2265534E-2,4.080954E-2,4.8793342E-2,-1.823628E-3,1.8401928E-2,-2.1888213E-2],"split_indices":[11,11,0,0,10,10,7,8,10,8,0,0,0,0,0,0,0,0,0],"split_type":[0,0,0,0,0,0,0,0,0,0,0,0,0,0,0,0,0,0,0],"sum_hessian":[7.8101013E2,2.9218723E2,4.8882288E2,2.0448032E2,8.7706924E1,4.7895218E1,3.9811707E1,2.6821083E1,2.1074135E1,1.8645279E1,2.1166426E1,2.4615086E1,2.2059975E0,2.7912192E0,1.8282915E1,5.9073076E0,1.2737971E1,1.552155E0,1.9614271E1],"tree_param":{"num_deleted":"0","num_feature":"13","num_nodes":"19","size_leaf_vector":"1"}},{"base_weights":[-3.990304E-3,2.3280028E-1,-5.470199E-1,-5.229286E-1,4.5069796E-1,3.5082322E-1,-6.005223E-1,-5.60071E-1,7.973016E-1,6.2773013E-1,-2.1672422E-1,8.113339E-1,-2.5675416E-2,-2.8244203E-1,-3.0600194E-2,-3.0964917E-2,-3.527147E-1,6.030601E-3,5.135375E-2,8.769333E-2,7.173407E-1,9.6102834E-1,-4.1292897E-1,5.425298E-2,-5.9821582E-3,3.5942307E-1,-2.8021976E-2,-3.0007241E-2,6.57999E-3,-1.3945338E-2,5.9299137E-2,3.9303344E-2,1.5279456E-2,6.360545E-2,4.823901E-3,-9.582126E-3,-2.720201E-2,-1.763547E-2,4.595127E-2],"categories":[],"categories_nodes":[],"categories_segments":[],"categories_sizes":[],"default_left":[0,0,0,0,0,0,0,0,0,0,0,0,0,0,0,0,0,0,0,0,0,0,0,0,0,0,0,0,0,0,0,0,0,0,0,0,0,0,0],"id":25,"left_children":[1,3,5,7,9,11,13,15,17,19,21,23,-1,25,-1,-1,27,-1,-1,29,31,33,35,-1,-1,37,-1,-1,-1,-1,-1,-1,-1,-1,-1,-1,-1,-1,-1],"loss_changes":[1.0161446E2,9.0855774E1,1.1737427E1,6.508541E0,5.0669403E1,6.0392904E0,6.555557E-1,1.2654495E0,4.6624112E-1,1.6307602E1,2.1287426E1,2.5771046E0,0E0,1.9429041E0,0E0,0E0,3.574217E0,0E0,0E0,2.017381E1,7.966217E0,3.4301548E0,2.1643753E0,0E0,0E0,1.7423571E0,0E0,0E0,0E0,0E0,0E0,0E0,0E0,0E0,0E0,0E0,0E0,0E0,0E0],"parents":[2147483647,0,0,1,1,2,2,3,3,4,4,5,5,6,6,7,7,8,8,9,9,10,10,11,11,13,13,16,16,19,19,20,20,21,21,22,22,25,25],"right_children":[2,4,6,8,10,12,14,16,18,20,22,24,-1,26,-1,-1,28,-1,-1,30,32,34,36,-1,-1,38,-1,-1,-1,-1,-1,-1,-1,-1,-1,-1,-1,-1,-1],"split_conditions":[2.875E3,7.98E2,1.803796E-1,3.011509E-1,4.0383703E-1,3.384E3,2.4442454E-1,6.2E2,7.25E2,3.6202057E-3,1.584E3,3.3E1,-2.5675416E-2,3E0,-3.0600194E-2,-3.0964917E-2,7.988587E-2,6.030601E-3,5.135375E-2,1.595E3,2.375E3,7E0,5.020023E-1,5.425298E-2,-5.9821582E-3,2.2609256E-1,-2.8021976E-2,-3.0007241E-2,6.57999E-3,-1.3945338E-2,5.9299137E-2,3.9303344E-2,1.5279456E-2,6.360545E-2,4.823901E-3,-9.582126E-3,-2.720201E-2,-1.763547E-2,4.595127E-2],"split_indices":[12,12,10,10,10,12,10,12,12,10,12,0,0,7,0,0,10,0,0,12,12,7,10,0,0,10,0,0,0,0,0,0,0,0,0,0,0,0,0],"split_type":[0,0,0,0,0,0,0,0,0,0,0,0,0,0,0,0,0,0,0,0,0,0,0,0,0,0,0,0,0,0,0,0,0,0,0,0,0,0,0],"sum_hessian":[7.8826526E2,5.4930817E2,2.3895709E2,1.226219E2,4.2668628E2,1.3126092E1,2.25831E2,1.1982656E2,2.7953372E0,3.3728238E2,8.940389E1,8.60351E0,4.5225825E0,8.75958E0,2.1707141E2,9.165923E1,2.8167334E1,1.095113E0,1.7002243E0,4.8283176E1,2.889992E2,1.2210457E1,7.7193436E1,6.5207686E0,2.0827408E0,2.558769E0,6.2008104E0,1.8484615E1,9.682719E0,3.675928E1,1.1523896E1,2.4688252E2,4.2116673E1,8.632808E0,3.5776486E0,2.9636063E1,4.7557373E1,1.2886224E0,1.2701466E0],"tree_param":{"num_deleted":"0","num_feature":"13","num_nodes":"39","size_leaf_vector":"1"}},{"base_weights":[-3.496623E-3,-3.1258296E-2,4.1557685E-1,8.387896E-1,-3.1119535E-2,1.0224787E0,3.9681703E-1,5.381856E-1,6.3244425E-2,9.221301E-1,-1.4018646E-1,-7.5496465E-4,4.9854767E-2,5.6689706E-2,3.244865E-2,7.848641E-3,-1.9974636E-2],"categories":[],"categories_nodes":[],"categories_segments":[],"categories_sizes":[],"default_left":[0,0,0,0,0,0,0,0,0,0,0,0,0,0,0,0,0],"id":26,"left_children":[1,-1,3,5,-1,7,9,11,-1,13,15,-1,-1,-1,-1,-1,-1],"loss_changes":[2.034906E2,0E0,2.0547678E2,2.6536392E1,0E0,2.676596E1,2.8075077E1,2.0258661E1,0E0,2.1671944E0,3.9043438E0,0E0,0E0,0E0,0E0,0E0,0E0],"parents":[2147483647,0,0,2,2,3,3,5,5,6,6,7,7,9,9,10,10],"right_children":[2,-1,4,6,-1,8,10,12,-1,14,16,-1,-1,-1,-1,-1,-1],"split_conditions":[1.6E1,-3.1258296E-2,2.6E1,2.4E1,-3.1119535E-2,1.8E1,5.1630515E-1,3.011509E-1,6.3244425E-2,3.678591E-1,7E0,-7.5496465E-4,4.9854767E-2,5.6689706E-2,3.244865E-2,7.848641E-3,-1.9974636E-2],"split_indices":[11,0,11,11,0,11,10,10,0,10,7,0,0,0,0,0,0],"split_type":[0,0,0,0,0,0,0,0,0,0,0,0,0,0,0,0,0],"sum_hessian":[7.790814E2,3.1351288E2,4.6556854E2,3.308587E2,1.3470982E2,2.3279346E2,9.806525E1,7.872817E1,1.5406529E2,4.920967E1,4.885557E1,3.6132313E1,4.2595856E1,2.5950474E1,2.32592E1,2.2950008E1,2.5905561E1],"tree_param":{"num_deleted":"0","num_feature":"13","num_nodes":"17","size_leaf_vector":"1"}},{"base_weights":[-1.4578772E-3,-3.1325344E-2,1.0385456E0,5.8353615E-1,6.348279E-2,-4.595279E-2,1.0283644E0,-3.4232473E-1,3.1664777E-1,6.992781E-1,1.1419024E0,-2.7664244E-2,5.940829E-3,-2.6138244E-2,2.8853307E-2,5.3162247E-2,2.3889508E-2,1.14391325E-2,5.882609E-2],"categories":[],"categories_nodes":[],"categories_segments":[],"categories_sizes":[],"default_left":[0,0,0,0,0,0,0,0,0,0,0,0,0,0,0,0,0,0,0],"id":27,"left_children":[1,-1,3,5,-1,7,9,11,13,15,17,-1,-1,-1,-1,-1,-1,-1,-1],"loss_changes":[5.1002917E2,0E0,3.0231354E1,2.8345463E1,0E0,4.708066E0,1.4155922E0,2.403653E0,4.6232495E0,9.2533016E-1,1.0736313E0,0E0,0E0,0E0,0E0,0E0,0E0,0E0,0E0],"parents":[2147483647,0,0,2,2,3,3,5,5,6,6,7,7,8,8,9,9,10,10],"right_children":[2,-1,4,6,-1,8,10,12,14,16,18,-1,-1,-1,-1,-1,-1,-1,-1],"split_conditions":[2.4E1,-3.1325344E-2,2.6E1,5.1630515E-1,6.348279E-2,3E1,5E0,4.3632808E-1,2.820692E-1,5.676317E0,2.024E3,-2.7664244E-2,5.940829E-3,-2.6138244E-2,2.8853307E-2,5.3162247E-2,2.3889508E-2,1.14391325E-2,5.882609E-2],"split_indices":[11,0,11,10,0,0,7,10,10,6,12,0,0,0,0,0,0,0,0],"split_type":[0,0,0,0,0,0,0,0,0,0,0,0,0,0,0,0,0,0,0],"sum_hessian":[7.825952E2,4.890628E2,2.935324E2,1.00059784E2,1.9347264E2,4.180171E1,5.825807E1,2.3032219E1,1.8769491E1,1.6780195E1,4.147788E1,1.5665735E1,7.366483E0,4.205713E0,1.4563778E1,4.9104624E0,1.1869732E1,1.793046E0,3.968483E1],"tree_param":{"num_deleted":"0","num_feature":"13","num_nodes":"19","size_leaf_vector":"1"}},{"base_weights":[-7.946403E-3,9.861669E-1,-3.1023351E-2,5.9733797E-2,5.225883E-1,9.492615E-1,-1.806268E-2,1.158485E0,6.5024334E-1,4.070863E-1,-4.1000998E-1,5.9201755E-2,1.8747456E-2,5.4756094E-2,1.6023101E-2,-2.65204E-2,3.4326237E-2,1.319318E-2,-2.6074508E-2],"categories":[],"categories_nodes":[],"categories_segments":[],"categories_sizes":[],"default_left":[0,0,0,0,0,0,0,0,0,0,0,0,0,0,0,0,0,0,0],"id":28,"left_children":[1,3,-1,-1,5,7,9,11,13,15,17,-1,-1,-1,-1,-1,-1,-1,-1],"loss_changes":[4.6999396E2,2.7819763E1,0E0,0E0,2.148705E1,2.502266E0,7.1712804E0,1.4334488E-1,3.1263418E0,5.7777276E0,1.8180552E0,0E0,0E0,0E0,0E0,0E0,0E0,0E0,0E0],"parents":[2147483647,0,0,1,1,4,4,5,5,6,6,7,7,8,8,9,9,10,10],"right_children":[2,4,-1,-1,6,8,10,12,14,16,18,-1,-1,-1,-1,-1,-1,-1,-1],"split_conditions":[1E1,8E0,-3.1023351E-2,5.9733797E-2,1.0279389E-1,6.073736E-3,4E0,9E0,1E0,5.2262745E0,1E0,5.9201755E-2,1.8747456E-2,5.4756094E-2,1.6023101E-2,-2.65204E-2,3.4326237E-2,1.319318E-2,-2.6074508E-2],"split_indices":[11,11,0,0,10,10,7,7,4,6,8,0,0,0,0,0,0,0,0],"split_type":[0,0,0,0,0,0,0,0,0,0,0,0,0,0,0,0,0,0,0],"sum_hessian":[7.6985004E2,2.9326865E2,4.765814E2,2.0119693E2,9.207172E1,5.1037758E1,4.103396E1,2.8336416E1,2.2701344E1,1.966477E1,2.136919E1,2.694658E1,1.3898342E0,8.676246E0,1.4025098E1,4.3092966E0,1.5355474E1,2.8393028E0,1.8529886E1],"tree_param":{"num_deleted":"0","num_feature":"13","num_nodes":"19","size_leaf_vector":"1"}},{"base_weights":[1.0915768E-3,4.0467572E-1,-3.1101411E-2,-3.0944128E-2,8.19134E-1,9.515971E-1,3.8622516E-1,4.2120323E-1,6.1764237E-2,5.298135E-1,-9.47719E-2,1.7753972E-3,3.2895558E-2,3.9068688E-2,1.481735E-2,3.92615E-2,-1.2328486E-2],"categories":[],"categories_nodes":[],"categories_segments":[],"categories_sizes":[],"default_left":[0,0,0,0,0,0,0,0,0,0,0,0,0,0,0,0,0],"id":29,"left_children":[1,3,-1,-1,5,7,9,11,-1,13,15,-1,-1,-1,-1,-1,-1],"loss_changes":[1.9844336E2,2.0367207E2,0E0,0E0,1.9204865E1,3.87005E1,5.689455E0,8.4080925E0,0E0,3.4703274E0,2.8143966E0,0E0,0E0,0E0,0E0,0E0,0E0],"parents":[2147483647,0,0,1,1,4,4,5,5,6,6,7,7,9,9,10,10],"right_children":[2,4,-1,-1,6,8,10,12,-1,14,16,-1,-1,-1,-1,-1,-1],"split_conditions":[1.8E1,8E0,-3.1101411E-2,-3.0944128E-2,1.6E1,1E1,3E0,3E0,6.1764237E-2,5E0,1.584E3,1.7753972E-3,3.2895558E-2,3.9068688E-2,1.481735E-2,3.92615E-2,-1.2328486E-2],"split_indices":[11,11,0,0,11,11,4,8,0,7,12,0,0,0,0,0,0],"split_type":[0,0,0,0,0,0,0,0,0,0,0,0,0,0,0,0,0],"sum_hessian":[7.8709705E2,4.7791205E2,3.09185E2,1.3759938E2,3.4031268E2,2.596621E2,8.065056E1,9.13518E1,1.6831033E2,6.2031334E1,1.8619226E1,3.517962E1,5.6172176E1,2.8728998E1,3.3302338E1,2.1253405E0,1.6493885E1],"tree_param":{"num_deleted":"0","num_feature":"13","num_nodes":"17","size_leaf_vector":"1"}},{"base_weights":[-2.297676E-3,-3.099673E-2,4.1781482E-1,8.242769E-1,-3.08126E-2,9.798068E-1,4.2193845E-1,5.5126816E-1,6.0048085E-2,9.145721E-1,-1.4840396E-1,-1.5873162E-2,3.9593447E-2,5.7257462E-2,2.826116E-2,1.134187E-2,-1.6447302E-2],"categories":[],"categories_nodes":[],"categories_segments":[],"categories_sizes":[],"default_left":[0,0,0,0,0,0,0,0,0,0,0,0,0,0,0,0,0],"id":30,"left_children":[1,-1,3,5,-1,7,9,11,-1,13,15,-1,-1,-1,-1,-1,-1],"loss_changes":[2.027714E2,0E0,1.9599603E2,2.0505493E1,0E0,2.2115997E1,2.6815626E1,1.7737925E1,0E0,3.4680252E0,3.1142635E0,0E0,0E0,0E0,0E0,0E0,0E0],"parents":[2147483647,0,0,2,2,3,3,5,5,6,6,7,7,9,9,10,10],"right_children":[2,-1,4,6,-1,8,10,12,-1,14,16,-1,-1,-1,-1,-1,-1],"split_conditions":[1.6E1,-3.099673E-2,2.6E1,2.4E1,-3.08126E-2,1.8E1,5.1630515E-1,1.803796E-1,6.0048085E-2,3E1,5E0,-1.5873162E-2,3.9593447E-2,5.7257462E-2,2.826116E-2,1.134187E-2,-1.6447302E-2],"split_indices":[11,0,11,11,0,11,10,10,0,0,7,0,0,0,0,0,0],"split_type":[0,0,0,0,0,0,0,0,0,0,0,0,0,0,0,0,0],"sum_hessian":[7.794637E2,3.1535803E2,4.6410565E2,3.3329843E2,1.308072E2,2.3934201E2,9.3956436E1,8.2660645E1,1.5668137E2,5.008872E1,4.3867718E1,1.785881E1,6.4801834E1,2.880133E1,2.128739E1,1.4166801E1,2.9700918E1],"tree_param":{"num_deleted":"0","num_feature":"13","num_nodes":"17","size_leaf_vector":"1"}},{"base_weights":[-7.7420156E-3,-5.089212E-1,7.468059E-1,-5.5815226E-1,7.503679E-1,-2.9514545E-1,8.427859E-1,-6.0184306E-1,-2.4386269E-1,2.0549847E-1,8.997758E-1,-2.9363299E-2,1.7242058E-1,6.3348883E-1,1.1055739E0,-6.040316E-1,-3.4726285E-3,-3.8899782E-1,2.213606E-2,4.8707417E-1,-1.7827345E-2,2.9093751E-3,9.7422373E-1,-1.3118327E-1,4.2279653E-2,2.3859012E-1,8.526262E-1,5.852269E-1,5.6541085E-2,-3.0996293E-2,-2.6578102E-2,-2.1516921E-2,1.2938607E-2,-1.999544E-2,1.9642884E-2,1.9714763E-4,3.9216567E-2,2.0279622E-2,5.2659955E-2,-2.129856E-2,4.071739E-2,-1.1580035E-2,2.1336464E-2,3.324964E-2,5.5516243E-2,-1.9102316E-2,4.4527244E-2],"categories":[],"categories_nodes":[],"categories_segments":[],"categories_sizes":[],"default_left":[0,0,0,0,0,0,0,0,0,0,0,0,0,0,0,0,0,0,0,0,0,0,0,0,0,0,0,0,0,0,0,0,0,0,0,0,0,0,0,0,0,0,0,0,0,0,0],"id":31,"left_children":[1,3,5,7,9,11,13,15,17,19,21,-1,23,25,27,29,-1,31,33,35,-1,-1,37,39,-1,41,43,45,-1,-1,-1,-1,-1,-1,-1,-1,-1,-1,-1,-1,-1,-1,-1,-1,-1,-1,-1],"loss_changes":[2.946317E2,2.9442139E1,3.134665E1,6.047638E0,1.2836847E0,3.7848074E0,1.4974319E1,4.1871643E-1,2.1990266E0,9.931506E-1,8.118105E-1,0E0,2.3883674E0,1.3727554E1,9.805145E-1,1.2387085E-1,0E0,1.0958347E0,3.4389365E0,5.530501E-1,0E0,0E0,1.4188576E-1,2.7287583E0,0E0,5.303907E0,4.248886E0,2.6607358E0,0E0,0E0,0E0,0E0,0E0,0E0,0E0,0E0,0E0,0E0,0E0,0E0,0E0,0E0,0E0,0E0,0E0,0E0,0E0],"parents":[2147483647,0,0,1,1,2,2,3,3,4,4,5,5,6,6,7,7,8,8,9,9,10,10,12,12,13,13,14,14,15,15,17,17,18,18,19,19,22,22,23,23,25,25,26,26,27,27],"right_children":[2,4,6,8,10,12,14,16,18,20,22,-1,24,26,28,30,-1,32,34,36,-1,-1,38,40,-1,42,44,46,-1,-1,-1,-1,-1,-1,-1,-1,-1,-1,-1,-1,-1,-1,-1,-1,-1,-1,-1],"split_conditions":[4.328179E-1,4.424E3,2.108E3,2.976E3,4.56E3,1.965E3,6.130695E-1,4.2732242E-1,3.2E1,6.264913E0,9E0,-2.9363299E-2,1E1,3.22E3,2E0,3E0,-3.4726285E-3,4.9E1,7E0,1E0,-1.7827345E-2,2.9093751E-3,2.9984692E-1,1E1,4.2279653E-2,2.2E1,4.368E3,2.976E3,5.6541085E-2,-3.0996293E-2,-2.6578102E-2,-2.1516921E-2,1.2938607E-2,-1.999544E-2,1.9642884E-2,1.9714763E-4,3.9216567E-2,2.0279622E-2,5.2659955E-2,-2.129856E-2,4.071739E-2,-1.1580035E-2,2.1336464E-2,3.324964E-2,5.5516243E-2,-1.9102316E-2,4.4527244E-2],"split_indices":[10,12,12,12,12,12,10,10,0,6,3,0,8,12,8,4,0,3,8,5,0,0,10,7,0,0,12,12,0,0,0,0,0,0,0,0,0,0,0,0,0,0,0,0,0,0,0],"split_type":[0,0,0,0,0,0,0,0,0,0,0,0,0,0,0,0,0,0,0,0,0,0,0,0,0,0,0,0,0,0,0,0,0,0,0,0,0,0,0,0,0,0,0,0,0,0,0],"sum_hessian":[7.771064E2,4.671474E2,3.09959E2,4.501075E2,1.7039865E1,2.5968798E1,2.8399023E2,3.9436948E2,5.573805E1,4.1781535E0,1.28617115E1,1.582551E1,1.0143287E1,1.5998282E2,1.240074E2,3.9262094E2,1.7485421E0,3.5762688E1,1.997536E1,2.872478E0,1.3056753E0,1.1900876E0,1.1671623E1,7.5454025E0,2.5978842E0,5.784015E1,1.0214267E2,6.8574457E0,1.17149956E2,3.158037E2,7.681722E1,3.3932766E1,1.8299236E0,9.304267E0,1.0671094E1,1.4801153E0,1.3923627E0,2.1715932E0,9.5000305E0,6.170971E0,1.3744316E0,1.646368E1,4.137647E1,6.1178425E1,4.0964245E1,1.5849338E0,5.272512E0],"tree_param":{"num_deleted":"0","num_feature":"13","num_nodes":"47","size_leaf_vector":"1"}},{"base_weights":[5.173141E-4,9.411789E-1,-3.0752627E-2,5.6744665E-2,4.8850432E-1,8.782558E-1,2.7112406E-2,1.0761746E0,5.6130093E-1,2.1322736E-1,-2.9954923E-2,5.6210753E-2,2.2724776E-2,-2.3069773E-2,3.45439E-2,-2.7513308E-2,1.8707579E-2],"categories":[],"categories_nodes":[],"categories_segments":[],"categories_sizes":[],"default_left":[0,0,0,0,0,0,0,0,0,0,0,0,0,0,0,0,0],"id":32,"left_children":[1,3,-1,-1,5,7,9,11,13,15,-1,-1,-1,-1,-1,-1,-1],"loss_changes":[4.431399E2,2.5990479E1,0E0,0E0,1.6605854E1,2.5386314E0,5.1832924E0,3.7754822E-1,3.1477385E0,4.4049993E0,0E0,0E0,0E0,0E0,0E0,0E0,0E0],"parents":[2147483647,0,0,1,1,4,4,5,5,6,6,7,7,8,8,9,9],"right_children":[2,4,-1,-1,6,8,10,12,14,16,-1,-1,-1,-1,-1,-1,-1],"split_conditions":[1E1,8E0,-3.0752627E-2,5.6744665E-2,1.0279389E-1,6.073736E-3,3.2907403E-1,3.5E1,1.381088E-2,5.3752427E0,-2.9954923E-2,5.6210753E-2,2.2724776E-2,-2.3069773E-2,3.45439E-2,-2.7513308E-2,1.8707579E-2],"split_indices":[11,11,0,0,10,10,10,0,10,6,0,0,0,0,0,0,0],"split_type":[0,0,0,0,0,0,0,0,0,0,0,0,0,0,0,0,0],"sum_hessian":[7.632975E2,3.017143E2,4.6158316E2,2.1023901E2,9.147529E1,4.90976E1,4.237769E1,2.8749771E1,2.034783E1,3.3176777E1,9.200912E0,2.5937124E1,2.8126452E0,2.0002143E0,1.8347616E1,5.3542957E0,2.7822483E1],"tree_param":{"num_deleted":"0","num_feature":"13","num_nodes":"17","size_leaf_vector":"1"}},{"base_weights":[-6.667803E-3,3.9376992E-1,-3.0832961E-2,-3.0644817E-2,7.8449506E-1,9.085247E-1,3.8440043E-1,4.1433293E-1,5.8553945E-2,7.1849483E-1,-3.0395845E-1,-1.0457798E-2,4.2086042E-2,5.9402216E-2,2.715326E-2,2.6082636E-3,-2.3098165E-2],"categories":[],"categories_nodes":[],"categories_segments":[],"categories_sizes":[],"default_left":[0,0,0,0,0,0,0,0,0,0,0,0,0,0,0,0,0],"id":33,"left_children":[1,3,-1,-1,5,7,9,11,-1,13,15,-1,-1,-1,-1,-1,-1],"loss_changes":[1.908191E2,1.8598221E2,0E0,0E0,1.653209E1,3.3114273E1,1.9130741E1,2.452919E1,0E0,3.9398518E0,1.5756626E0,0E0,0E0,0E0,0E0,0E0,0E0],"parents":[2147483647,0,0,1,1,4,4,5,5,6,6,7,7,9,9,10,10],"right_children":[2,4,-1,-1,6,8,10,12,-1,14,16,-1,-1,-1,-1,-1,-1],"split_conditions":[1.8E1,8E0,-3.0832961E-2,-3.0644817E-2,1.6E1,1E1,3.556715E-1,7.1498305E-2,5.8553945E-2,3E0,4E0,-1.0457798E-2,4.2086042E-2,5.9402216E-2,2.715326E-2,2.6082636E-3,-2.3098165E-2],"split_indices":[11,11,0,0,11,11,10,10,0,8,7,0,0,0,0,0,0],"split_type":[0,0,0,0,0,0,0,0,0,0,0,0,0,0,0,0,0],"sum_hessian":[7.792075E2,4.7061795E2,3.0858954E2,1.3143068E2,3.391873E2,2.579514E2,8.1235886E1,9.039113E1,1.6756027E2,5.466197E1,2.657392E1,3.696942E1,5.3421707E1,1.3297665E1,4.1364304E1,8.372706E0,1.8201212E1],"tree_param":{"num_deleted":"0","num_feature":"13","num_nodes":"17","size_leaf_vector":"1"}},{"base_weights":[4.9180714E-3,-3.071769E-2,4.1306162E-1,7.997603E-1,-3.0579507E-2,8.702182E-1,3.5605557E-2,5.2864194E-1,9.861411E-1,5.316898E-2,-3.4602776E-1,7.040405E-3,4.8629954E-2,5.718338E-2,3.284622E-2,6.458768E-3,-2.4282862E-2],"categories":[],"categories_nodes":[],"categories_segments":[],"categories_sizes":[],"default_left":[0,0,0,0,0,0,0,0,0,0,0,0,0,0,0,0,0],"id":34,"left_children":[1,-1,3,5,-1,7,9,11,13,-1,15,-1,-1,-1,-1,-1,-1],"loss_changes":[1.9520155E2,0E0,1.8493399E2,1.8188095E1,0E0,1.1744873E1,1.1981733E1,1.3749231E1,1.118335E1,0E0,1.5454693E0,0E0,0E0,0E0,0E0,0E0,0E0],"parents":[2147483647,0,0,2,2,3,3,5,5,6,6,7,7,8,8,10,10],"right_children":[2,-1,4,6,-1,8,10,12,14,-1,16,-1,-1,-1,-1,-1,-1],"split_conditions":[1.6E1,-3.071769E-2,2.6E1,6.455835E-1,-3.0579507E-2,1.8E1,2.4E1,3.2907403E-1,2.4E1,5.316898E-2,4E0,7.040405E-3,4.8629954E-2,5.718338E-2,3.284622E-2,6.458768E-3,-2.4282862E-2],"split_indices":[11,0,11,10,0,11,11,10,11,0,7,0,0,0,0,0,0],"split_type":[0,0,0,0,0,0,0,0,0,0,0,0,0,0,0,0,0],"sum_hessian":[7.703013E2,3.0580356E2,4.6449774E2,3.3738843E2,1.271093E2,3.0877905E2,2.860939E1,7.9648476E1,2.2913057E2,7.2630177E0,2.1346373E1,4.3214314E1,3.6434162E1,1.5330292E2,7.5827644E1,4.864798E0,1.6481575E1],"tree_param":{"num_deleted":"0","num_feature":"13","num_nodes":"17","size_leaf_vector":"1"}},{"base_weights":[-2.4579617E-3,-3.0813524E-2,9.466159E-1,5.3932637E-1,5.752272E-2,-2.0652318E-1,8.427534E-1,-5.4594225E-1,2.1114196E-1,5.138477E-1,1.0491111E0,8.706237E-3,-3.0113433E-2,-2.5589375E-2,2.7241886E-2,6.9002495E-3,4.906754E-2,1.017747E-2,5.4050025E-2],"categories":[],"categories_nodes":[],"categories_segments":[],"categories_sizes":[],"default_left":[0,0,0,0,0,0,0,0,0,0,0,0,0,0,0,0,0,0,0],"id":35,"left_children":[1,-1,3,5,-1,7,9,11,13,15,17,-1,-1,-1,-1,-1,-1,-1,-1],"loss_changes":[4.4758487E2,0E0,2.4431335E1,2.3377737E1,0E0,4.4323344E0,4.4208527E0,7.975664E-1,3.746338E0,5.159212E0,9.6489334E-1,0E0,0E0,0E0,0E0,0E0,0E0,0E0,0E0],"parents":[2147483647,0,0,2,2,3,3,5,5,6,6,7,7,8,8,9,9,10,10],"right_children":[2,-1,4,6,-1,8,10,12,14,16,18,-1,-1,-1,-1,-1,-1,-1,-1],"split_conditions":[2.4E1,-3.0813524E-2,2.6E1,4.3632808E-1,5.752272E-2,3E1,6E0,2.08E3,2.820692E-1,6.274182E-1,2.024E3,8.706237E-3,-3.0113433E-2,-2.5589375E-2,2.7241886E-2,6.9002495E-3,4.906754E-2,1.017747E-2,5.4050025E-2],"split_indices":[11,0,11,10,0,0,7,12,10,10,12,0,0,0,0,0,0,0,0],"split_type":[0,0,0,0,0,0,0,0,0,0,0,0,0,0,0,0,0,0,0],"sum_hessian":[7.6631415E2,4.6556265E2,3.007515E2,1.0153013E2,1.9922137E2,2.9452568E1,7.207756E1,1.6078836E1,1.3373731E1,2.913326E1,4.2944298E1,1.0147752E0,1.5064062E1,4.0550475E0,9.318683E0,1.6867811E1,1.22654505E1,1.8290483E0,4.111525E1],"tree_param":{"num_deleted":"0","num_feature":"13","num_nodes":"19","size_leaf_vector":"1"}},{"base_weights":[-2.8314667E-3,8.9155775E-1,-3.0488348E-2,5.407531E-2,4.2925653E-1,8.7002695E-1,5.6015593E-3,5.4231044E-2,6.590061E-1,7.5394756E-1,-1.3949902E-1,4.3682147E-2,1.5480809E-2,5.0216552E-2,-1.8399714E-2,-2.931395E-2,1.304935E-3],"categories":[],"categories_nodes":[],"categories_segments":[],"categories_sizes":[],"default_left":[0,0,0,0,0,0,0,0,0,0,0,0,0,0,0,0,0],"id":36,"left_children":[1,3,-1,-1,5,7,9,-1,11,13,15,-1,-1,-1,-1,-1,-1],"loss_changes":[4.1345886E2,2.657492E1,0E0,0E0,1.7049534E1,1.311863E0,5.2711773E0,0E0,1.6128016E0,2.5839472E0,3.0259893E0,0E0,0E0,0E0,0E0,0E0,0E0],"parents":[2147483647,0,0,1,1,4,4,5,5,6,6,8,8,9,9,10,10],"right_children":[2,4,-1,-1,6,8,10,-1,12,14,16,-1,-1,-1,-1,-1,-1],"split_conditions":[1E1,8E0,-3.0488348E-2,5.407531E-2,7.1498305E-2,3E0,1E0,5.4231044E-2,3.6202057E-3,3.2907403E-1,5.3752427E0,4.3682147E-2,1.5480809E-2,5.0216552E-2,-1.8399714E-2,-2.931395E-2,1.304935E-3],"split_indices":[11,11,0,0,10,8,8,0,10,10,6,0,0,0,0,0,0],"split_type":[0,0,0,0,0,0,0,0,0,0,0,0,0,0,0,0,0],"sum_hessian":[7.596621E2,3.0691644E2,4.5274564E2,2.1658679E2,9.0329666E1,4.3754196E1,4.6575466E1,1.9640882E1,2.4113314E1,6.8826504E0,3.9692818E1,1.4007665E1,1.010565E1,5.7125993E0,1.1700511E0,1.0046674E1,2.9646143E1],"tree_param":{"num_deleted":"0","num_feature":"13","num_nodes":"17","size_leaf_vector":"1"}},{"base_weights":[1.699825E-2,3.9504054E-1,-3.0549407E-2,-3.0360697E-2,7.651263E-1,3.9202046E-1,8.93899E-1,-1.9167566E-1,8.030696E-1,5.5675175E-2,4.2201418E-1,-2.4210257E-2,9.455465E-3,1.21207304E-4,4.5973856E-2,3.924411E-2,-1.4356288E-2],"categories":[],"categories_nodes":[],"categories_segments":[],"categories_sizes":[],"default_left":[0,0,0,0,0,0,0,0,0,0,0,0,0,0,0,0,0],"id":37,"left_children":[1,3,-1,-1,5,7,9,11,13,-1,15,-1,-1,-1,-1,-1,-1],"loss_changes":[1.8206813E2,1.7802197E2,0E0,0E0,1.6467789E1,2.213039E1,2.6416245E1,4.3975716E0,5.0249863E0,0E0,2.1842281E1,0E0,0E0,0E0,0E0,0E0,0E0],"parents":[2147483647,0,0,1,1,4,4,5,5,6,6,7,7,8,8,10,10],"right_children":[2,4,-1,-1,6,8,10,12,14,-1,16,-1,-1,-1,-1,-1,-1],"split_conditions":[1.8E1,8E0,-3.0549407E-2,-3.0360697E-2,1E1,7.1498305E-2,1.6E1,6.073736E-3,1E0,5.5675175E-2,3.2907403E-1,-2.4210257E-2,9.455465E-3,1.21207304E-4,4.5973856E-2,3.924411E-2,-1.4356288E-2],"split_indices":[11,11,0,0,11,10,11,10,8,0,10,0,0,0,0,0,0],"split_type":[0,0,0,0,0,0,0,0,0,0,0,0,0,0,0,0,0],"sum_hessian":[7.6489136E2,4.7769446E2,2.8719693E2,1.2864943E2,3.49045E2,9.0596146E1,2.5844888E2,3.765672E1,5.293943E1,1.7544232E2,8.300655E1,2.114271E1,1.651401E1,6.849525E0,4.6089905E1,5.4838696E1,2.8167856E1],"tree_param":{"num_deleted":"0","num_feature":"13","num_nodes":"17","size_leaf_vector":"1"}},{"base_weights":[3.037011E-4,-3.0450776E-2,3.838416E-1,7.3013896E-1,-3.0296614E-2,8.882612E-1,3.430689E-1,5.0701505E-1,5.447932E-2,7.9520255E-1,-1.9478402E-1,1.2953581E-3,4.2848617E-2,5.0235808E-2,2.4004249E-2,6.876445E-3,-2.0493476E-2],"categories":[],"categories_nodes":[],"categories_segments":[],"categories_sizes":[],"default_left":[0,0,0,0,0,0,0,0,0,0,0,0,0,0,0,0,0],"id":38,"left_children":[1,-1,3,5,-1,7,9,11,-1,13,15,-1,-1,-1,-1,-1,-1],"loss_changes":[1.779272E2,0E0,1.6059428E2,2.0908386E1,0E0,1.8286362E1,2.4996405E1,1.4573616E1,0E0,3.1947365E0,3.44838E0,0E0,0E0,0E0,0E0,0E0,0E0],"parents":[2147483647,0,0,2,2,3,3,5,5,6,6,7,7,9,9,10,10],"right_children":[2,-1,4,6,-1,8,10,12,-1,14,16,-1,-1,-1,-1,-1,-1],"split_conditions":[1.6E1,-3.0450776E-2,2.6E1,2.4E1,-3.0296614E-2,1.8E1,5.1630515E-1,2.9373023E-1,5.447932E-2,3E1,6E0,1.2953581E-3,4.2848617E-2,5.0235808E-2,2.4004249E-2,6.876445E-3,-2.0493476E-2],"split_indices":[11,0,11,11,0,11,10,10,0,0,7,0,0,0,0,0,0],"split_type":[0,0,0,0,0,0,0,0,0,0,0,0,0,0,0,0,0],"sum_hessian":[7.5935815E2,2.931108E2,4.6624734E2,3.4559467E2,1.2065268E2,2.4444247E2,1.0115219E2,8.5690384E1,1.5875209E2,5.469534E1,4.645685E1,3.653605E1,4.9154335E1,3.1538086E1,2.3157253E1,1.8395655E1,2.8061195E1],"tree_param":{"num_deleted":"0","num_feature":"13","num_nodes":"17","size_leaf_vector":"1"}},{"base_weights":[4.626117E-4,-3.0542625E-2,9.078542E-1,5.312133E-1,5.4749873E-2,-4.8321564E-2,9.0120983E-1,-3.619313E-1,3.0831778E-1,6.4349985E-1,9.8679656E-1,-2.9195765E-2,-2.809257E-3,-4.6935976E-3,3.925042E-2,6.057972E-3,4.5525845E-2,1.4759733E-2,5.091958E-2],"categories":[],"categories_nodes":[],"categories_segments":[],"categories_sizes":[],"default_left":[0,0,0,0,0,0,0,0,0,0,0,0,0,0,0,0,0,0,0],"id":39,"left_children":[1,-1,3,5,-1,7,9,11,13,15,17,-1,-1,-1,-1,-1,-1,-1,-1],"loss_changes":[4.2115E2,0E0,2.0959534E1,2.221237E1,0E0,4.723551E0,7.579155E-1,1.4875774E0,3.8762467E0,2.4865084E0,6.943245E-1,0E0,0E0,0E0,0E0,0E0,0E0,0E0,0E0],"parents":[2147483647,0,0,2,2,3,3,5,5,6,6,7,7,8,8,9,9,10,10],"right_children":[2,-1,4,6,-1,8,10,12,14,16,18,-1,-1,-1,-1,-1,-1,-1,-1],"split_conditions":[2.4E1,-3.0542625E-2,2.6E1,5.1630515E-1,5.4749873E-2,7E0,5.84362E-1,3.9084E-1,3E1,2.3E1,2E0,-2.9195765E-2,-2.809257E-3,-4.6935976E-3,3.925042E-2,6.057972E-3,4.5525845E-2,1.4759733E-2,5.091958E-2],"split_indices":[11,0,11,10,0,8,10,10,0,0,8,0,0,0,0,0,0,0,0],"split_type":[0,0,0,0,0,0,0,0,0,0,0,0,0,0,0,0,0,0,0],"sum_hessian":[7.572366E2,4.526263E2,3.0461023E2,1.0238688E2,2.0222334E2,4.0235077E1,6.21518E1,2.1401178E1,1.8833899E1,1.7618738E1,4.453306E1,1.1871899E1,9.52928E0,1.065078E1,8.183119E0,6.451678E0,1.1167061E1,2.3974288E0,4.213563E1],"tree_param":{"num_deleted":"0","num_feature":"13","num_nodes":"19","size_leaf_vector":"1"}},{"base_weights":[-5.876705E-3,8.5128003E-1,-3.0236138E-2,5.16944E-2,4.461082E-1,6.022102E-1,-8.302928E-2,-1.704175E-2,7.2927433E-1,3.8185453E-1,-3.3021384E-1,2.7282292E-2,-1.8967858E-2,4.0632408E-2,1.6780294E-2,-1.3643885E-3,3.997555E-2,-6.4788237E-3,-2.4093505E-2],"categories":[],"categories_nodes":[],"categories_segments":[],"categories_sizes":[],"default_left":[0,0,0,0,0,0,0,0,0,0,0,0,0,0,0,0,0,0,0],"id":40,"left_children":[1,3,-1,-1,5,7,9,11,13,15,17,-1,-1,-1,-1,-1,-1,-1,-1],"loss_changes":[3.827939E2,2.2232513E1,0E0,0E0,8.066271E0,5.918701E0,2.7676291E0,3.0116267E0,1.7722397E0,1.4646513E0,4.1053033E-1,0E0,0E0,0E0,0E0,0E0,0E0,0E0,0E0],"parents":[2147483647,0,0,1,1,4,4,5,5,6,6,7,7,8,8,9,9,10,10],"right_children":[2,4,-1,-1,6,8,10,12,14,16,18,-1,-1,-1,-1,-1,-1,-1,-1],"split_conditions":[1E1,8E0,-3.0236138E-2,5.16944E-2,7E0,5.2262745E0,2E0,1E0,7E0,6.8874516E0,9E0,2.7282292E-2,-1.8967858E-2,4.0632408E-2,1.6780294E-2,-1.3643885E-3,3.997555E-2,-6.4788237E-3,-2.4093505E-2],"split_indices":[11,11,0,0,7,6,8,4,8,6,11,0,0,0,0,0,0,0,0],"split_type":[0,0,0,0,0,0,0,0,0,0,0,0,0,0,0,0,0,0,0],"sum_hessian":[7.437409E2,3.0572324E2,4.3801767E2,2.0967328E2,9.604995E1,7.406251E1,2.1987442E1,1.275694E1,6.1305565E1,7.4435077E0,1.4543935E1,4.7985845E0,7.9583554E0,4.9712757E1,1.1592809E1,4.2322245E0,3.2112837E0,7.0592012E0,7.484734E0],"tree_param":{"num_deleted":"0","num_feature":"13","num_nodes":"19","size_leaf_vector":"1"}},{"base_weights":[1.3822298E-2,3.765735E-1,-3.0288542E-2,-3.0083535E-2,7.088659E-1,8.251395E-1,3.0959558E-1,3.8107672E-1,5.312785E-2,7.3424935E-1,-2.20859E-1,-2.1744244E-2,3.0737368E-2,3.907782E-2,-2.2760127E-2,3.5283443E-2,-1.5183869E-2],"categories":[],"categories_nodes":[],"categories_segments":[],"categories_sizes":[],"default_left":[0,0,0,0,0,0,0,0,0,0,0,0,0,0,0,0,0],"id":41,"left_children":[1,3,-1,-1,5,7,9,11,-1,13,15,-1,-1,-1,-1,-1,-1],"loss_changes":[1.7024313E2,1.5571645E2,0E0,0E0,1.6320572E1,2.8685318E1,1.8662445E1,1.8892967E1,0E0,2.9354057E0,3.07525E0,0E0,0E0,0E0,0E0,0E0,0E0],"parents":[2147483647,0,0,1,1,4,4,5,5,6,6,7,7,9,9,10,10],"right_children":[2,4,-1,-1,6,8,10,12,-1,14,16,-1,-1,-1,-1,-1,-1],"split_conditions":[1.8E1,8E0,-3.0288542E-2,-3.0083535E-2,1.6E1,1E1,3.011509E-1,6.073736E-3,5.312785E-2,5.1E1,1.5E3,-2.1744244E-2,3.0737368E-2,3.907782E-2,-2.2760127E-2,3.5283443E-2,-1.5183869E-2],"split_indices":[11,11,0,0,11,11,10,10,0,3,12,0,0,0,0,0,0],"split_type":[0,0,0,0,0,0,0,0,0,0,0,0,0,0,0,0,0],"sum_hessian":[7.5543536E2,4.7672244E2,2.7871295E2,1.2066955E2,3.560529E2,2.7492416E2,8.112873E1,9.668703E1,1.7823712E2,4.484445E1,3.6284275E1,2.1332907E1,7.535412E1,4.3458927E1,1.3855269E0,2.360096E0,3.392418E1],"tree_param":{"num_deleted":"0","num_feature":"13","num_nodes":"17","size_leaf_vector":"1"}},{"base_weights":[1.5997331E-3,-3.019384E-2,3.80162E-1,7.137904E-1,-3.0035777E-2,8.466697E-1,3.717334E-1,4.6851936E-1,5.207506E-2,7.82834E-1,-1.0476256E-1,-1.3853595E-2,3.3710185E-2,5.0128408E-2,2.23474E-2,7.63478E-3,-1.7900012E-2],"categories":[],"categories_nodes":[],"categories_segments":[],"categories_sizes":[],"default_left":[0,0,0,0,0,0,0,0,0,0,0,0,0,0,0,0,0],"id":42,"left_children":[1,-1,3,5,-1,7,9,11,-1,13,15,-1,-1,-1,-1,-1,-1],"loss_changes":[1.7410179E2,0E0,1.5337161E2,1.5557129E1,0E0,1.7983658E1,1.9569431E1,1.3539366E1,0E0,3.5022812E0,3.1162682E0,0E0,0E0,0E0,0E0,0E0,0E0],"parents":[2147483647,0,0,2,2,3,3,5,5,6,6,7,7,9,9,10,10],"right_children":[2,-1,4,6,-1,8,10,12,-1,14,16,-1,-1,-1,-1,-1,-1],"split_conditions":[1.6E1,-3.019384E-2,2.6E1,2.4E1,-3.0035777E-2,1.8E1,5.1630515E-1,1.803796E-1,5.207506E-2,3E1,7E0,-1.3853595E-2,3.3710185E-2,5.0128408E-2,2.23474E-2,7.63478E-3,-1.7900012E-2],"split_indices":[11,0,11,11,0,11,10,10,0,0,7,0,0,0,0,0,0],"split_type":[0,0,0,0,0,0,0,0,0,0,0,0,0,0,0,0,0],"sum_hessian":[7.575698E2,2.912101E2,4.663597E2,3.481984E2,1.1816134E2,2.497158E2,9.8482574E1,8.60688E1,1.6364702E2,5.2524097E1,4.5958473E1,1.8534708E1,6.753409E1,3.0552216E1,2.1971884E1,2.2986206E1,2.2972267E1],"tree_param":{"num_deleted":"0","num_feature":"13","num_nodes":"17","size_leaf_vector":"1"}},{"base_weights":[6.9657373E-3,-3.0288054E-2,8.733014E-1,5.22729E-1,5.233258E-2,-1.13971226E-1,8.4533566E-1,-3.6975074E-1,1.9473779E-1,5.9194905E-1,9.881837E-1,-2.7488066E-2,2.6783658E-2,-1.395672E-2,2.4352694E-2,-1.2587609E-2,3.4941785E-2,1.826913E-2,5.0730925E-2],"categories":[],"categories_nodes":[],"categories_segments":[],"categories_sizes":[],"default_left":[0,0,0,0,0,0,0,0,0,0,0,0,0,0,0,0,0,0,0],"id":43,"left_children":[1,-1,3,5,-1,7,9,11,13,15,17,-1,-1,-1,-1,-1,-1,-1,-1],"loss_changes":[3.9337088E2,0E0,1.8109238E1,2.1370344E1,0E0,2.8918312E0,1.9074898E0,3.5338283E0,2.4681516E0,2.6395683E0,3.296585E-1,0E0,0E0,0E0,0E0,0E0,0E0,0E0,0E0],"parents":[2147483647,0,0,2,2,3,3,5,5,6,6,7,7,8,8,9,9,10,10],"right_children":[2,-1,4,6,-1,8,10,12,14,16,18,-1,-1,-1,-1,-1,-1,-1,-1],"split_conditions":[2.4E1,-3.0288054E-2,2.6E1,4.8016796E-1,5.233258E-2,7E0,7E0,4.272E3,2E0,5.2168113E-1,1E0,-2.7488066E-2,2.6783658E-2,-1.395672E-2,2.4352694E-2,-1.2587609E-2,3.4941785E-2,1.826913E-2,5.0730925E-2],"split_indices":[11,0,11,10,0,8,8,12,4,10,7,0,0,0,0,0,0,0,0],"split_type":[0,0,0,0,0,0,0,0,0,0,0,0,0,0,0,0,0,0,0],"sum_hessian":[7.390562E2,4.3306577E2,3.0599045E2,1.02571625E2,2.0341882E2,3.471144E1,6.786018E1,1.887495E1,1.583649E1,2.631897E1,4.154121E1,1.6072361E1,2.8025906E0,6.05914E0,9.777349E0,2.8069794E0,2.3511992E1,2.2949343E0,3.9246277E1],"tree_param":{"num_deleted":"0","num_feature":"13","num_nodes":"19","size_leaf_vector":"1"}},{"base_weights":[1.215024E-3,8.2513446E-1,-2.9991305E-2,4.9581792E-2,4.357781E-1,7.632189E-1,-2.0002158E-1,8.937326E-1,2.8612977E-1,5.162747E-1,-3.2727477E-1,1.18207615E-2,4.7212668E-2,3.2442633E-2,-5.8717374E-3,5.1376272E-2,-2.1179892E-2,-8.45519E-3,-2.9597303E-2],"categories":[],"categories_nodes":[],"categories_segments":[],"categories_sizes":[],"default_left":[0,0,0,0,0,0,0,0,0,0,0,0,0,0,0,0,0,0,0],"id":44,"left_children":[1,3,-1,-1,5,7,9,11,13,15,17,-1,-1,-1,-1,-1,-1,-1,-1],"loss_changes":[3.6245468E2,1.9581726E1,0E0,0E0,1.9775915E1,3.631199E0,3.1618218E0,1.3888283E0,2.2543082E0,3.0017319E0,1.0927081E0,0E0,0E0,0E0,0E0,0E0,0E0,0E0,0E0],"parents":[2147483647,0,0,1,1,4,4,5,5,6,6,7,7,8,8,9,9,10,10],"right_children":[2,4,-1,-1,6,8,10,12,14,16,18,-1,-1,-1,-1,-1,-1,-1,-1],"split_conditions":[1E1,8E0,-2.9991305E-2,4.9581792E-2,1.4425299E-1,7E0,1E0,4.815952E0,3E0,1E0,2.8923887E-1,1.18207615E-2,4.7212668E-2,3.2442633E-2,-5.8717374E-3,5.1376272E-2,-2.1179892E-2,-8.45519E-3,-2.9597303E-2],"split_indices":[11,11,0,0,10,7,8,6,8,1,10,0,0,0,0,0,0,0,0],"split_type":[0,0,0,0,0,0,0,0,0,0,0,0,0,0,0,0,0,0,0],"sum_hessian":[7.2992255E2,3.0772037E2,4.222022E2,2.1446243E2,9.325792E1,6.1423847E1,3.1834074E1,4.7544224E1,1.3879623E1,4.34114E0,2.7492933E1,3.798757E0,4.374547E1,6.989591E0,6.8900323E0,2.7512927E0,1.5898468E0,1.8234613E1,9.258321E0],"tree_param":{"num_deleted":"0","num_feature":"13","num_nodes":"19","size_leaf_vector":"1"}},{"base_weights":[8.898896E-4,3.5998333E-1,-3.0039927E-2,-2.9829789E-2,6.9144946E-1,3.67286E-1,8.1008655E-1,-4.2521632E-1,5.921695E-1,5.0868507E-2,3.6557776E-1,-2.5164647E-2,1.30533995E-2,3.4782332E-3,3.666536E-2,3.405654E-2,-1.1052286E-2],"categories":[],"categories_nodes":[],"categories_segments":[],"categories_sizes":[],"default_left":[0,0,0,0,0,0,0,0,0,0,0,0,0,0,0,0,0],"id":45,"left_children":[1,3,-1,-1,5,7,9,11,13,-1,15,-1,-1,-1,-1,-1,-1],"loss_changes":[1.6216399E2,1.4944493E2,0E0,0E0,1.3144684E1,1.7267868E1,2.312857E1,1.2934132E0,5.4655247E0,0E0,1.54543E1,0E0,0E0,0E0,0E0,0E0,0E0],"parents":[2147483647,0,0,1,1,4,4,5,5,6,6,7,7,8,8,10,10],"right_children":[2,4,-1,-1,6,8,10,12,14,-1,16,-1,-1,-1,-1,-1,-1],"split_conditions":[1.8E1,8E0,-3.0039927E-2,-2.9829789E-2,1E1,3.6202057E-3,1.6E1,9E0,2E0,5.0868507E-2,3.2907403E-1,-2.5164647E-2,1.30533995E-2,3.4782332E-3,3.666536E-2,3.405654E-2,-1.1052286E-2],"split_indices":[11,11,0,0,11,10,11,8,8,0,10,0,0,0,0,0,0],"split_type":[0,0,0,0,0,0,0,0,0,0,0,0,0,0,0,0,0],"sum_hessian":[7.4854144E2,4.6902472E2,2.7951675E2,1.2049318E2,3.4853152E2,9.4477516E1,2.5405402E2,2.0686451E1,7.379107E1,1.7238065E2,8.1673386E1,1.8812813E1,1.8736393E0,1.6008324E1,5.778274E1,5.300184E1,2.8671543E1],"tree_param":{"num_deleted":"0","num_feature":"13","num_nodes":"17","size_leaf_vector":"1"}},{"base_weights":[3.475596E-3,-2.9949142E-2,3.6740005E-1,6.796759E-1,-2.9773632E-2,8.0189854E-1,3.603338E-1,4.292163E-1,4.9926966E-2,7.436279E-1,-1.3488457E-1,-1.6746594E-2,3.2114744E-2,4.7661997E-2,2.4070552E-2,9.887343E-3,-1.8769039E-2],"categories":[],"categories_nodes":[],"categories_segments":[],"categories_sizes":[],"default_left":[0,0,0,0,0,0,0,0,0,0,0,0,0,0,0,0,0],"id":46,"left_children":[1,-1,3,5,-1,7,9,11,-1,13,15,-1,-1,-1,-1,-1,-1],"loss_changes":[1.6336505E2,0E0,1.4007387E2,1.3419464E1,0E0,1.8126175E1,1.8897945E1,1.4739573E1,0E0,2.6178532E0,3.5983942E0,0E0,0E0,0E0,0E0,0E0,0E0],"parents":[2147483647,0,0,2,2,3,3,5,5,6,6,7,7,9,9,10,10],"right_children":[2,-1,4,6,-1,8,10,12,-1,14,16,-1,-1,-1,-1,-1,-1],"split_conditions":[1.6E1,-2.9949142E-2,2.6E1,2.4E1,-2.9773632E-2,1.8E1,5.1630515E-1,1.803796E-1,4.9926966E-2,3.678591E-1,6E0,-1.6746594E-2,3.2114744E-2,4.7661997E-2,2.4070552E-2,9.887343E-3,-1.8769039E-2],"split_indices":[11,0,11,11,0,11,10,10,0,10,7,0,0,0,0,0,0],"split_type":[0,0,0,0,0,0,0,0,0,0,0,0,0,0,0,0,0],"sum_hessian":[7.431071E2,2.795991E2,4.63508E2,3.5021988E2,1.132881E2,2.5218814E2,9.8031746E1,8.8203575E1,1.6398456E2,5.4977833E1,4.3053917E1,1.9107582E1,6.909599E1,2.9089132E1,2.5888702E1,1.8140903E1,2.4913012E1],"tree_param":{"num_deleted":"0","num_feature":"13","num_nodes":"17","size_leaf_vector":"1"}},{"base_weights":[3.8045377E-3,-3.0041693E-2,8.278816E-1,4.7312605E-1,5.0144654E-2,-2.062829E-1,7.698934E-1,-5.4054034E-1,1.6906095E-1,-3.4518526E-3,8.304783E-1,-2.954801E-2,-7.768287E-3,-2.1105066E-2,2.8165935E-2,-1.72685E-2,2.6264101E-2,4.7644254E-2,3.0169366E-2],"categories":[],"categories_nodes":[],"categories_segments":[],"categories_sizes":[],"default_left":[0,0,0,0,0,0,0,0,0,0,0,0,0,0,0,0,0,0,0],"id":47,"left_children":[1,-1,3,5,-1,7,9,11,13,15,17,-1,-1,-1,-1,-1,-1,-1,-1],"loss_changes":[3.653386E2,0E0,1.8790787E1,2.1208984E1,0E0,4.172381E0,3.4172363E0,2.4695349E-1,3.9864805E0,1.3185719E0,1.3036995E0,0E0,0E0,0E0,0E0,0E0,0E0,0E0,0E0],"parents":[2147483647,0,0,2,2,3,3,5,5,6,6,7,7,8,8,9,9,10,10],"right_children":[2,-1,4,6,-1,8,10,12,14,16,18,-1,-1,-1,-1,-1,-1,-1,-1],"split_conditions":[2.4E1,-3.0041693E-2,2.6E1,4.533059E-1,5.0144654E-2,3E1,1E0,7.473739E0,5E0,9E0,6.3313575E0,-2.954801E-2,-7.768287E-3,-2.1105066E-2,2.8165935E-2,-1.72685E-2,2.6264101E-2,4.7644254E-2,3.0169366E-2],"split_indices":[11,0,11,10,0,0,7,6,8,8,6,0,0,0,0,0,0,0,0],"split_type":[0,0,0,0,0,0,0,0,0,0,0,0,0,0,0,0,0,0,0],"sum_hessian":[7.3121783E2,4.2191965E2,3.0929822E2,1.0340185E2,2.0589636E2,3.1527887E1,7.187396E1,1.6443886E1,1.5084002E1,5.2901425E0,6.658382E1,1.4068087E1,2.375799E0,6.0067186E0,9.077283E0,3.4232295E0,1.8669132E0,4.1187077E1,2.5396744E1],"tree_param":{"num_deleted":"0","num_feature":"13","num_nodes":"19","size_leaf_vector":"1"}},{"base_weights":[5.153849E-4,8.021142E-1,-2.9759038E-2,4.7716115E-2,4.3913057E-1,8.755769E-3,5.90591E-1,5.7125866E-1,-2.0496748E-1,7.085951E-1,-7.333056E-3,4.617289E-2,6.1974525E-3,5.077454E-3,-2.5543613E-2,3.75905E-2,-2.7741778E-3,3.363629E-2,-1.1423285E-2],"categories":[],"categories_nodes":[],"categories_segments":[],"categories_sizes":[],"default_left":[0,0,0,0,0,0,0,0,0,0,0,0,0,0,0,0,0,0,0],"id":48,"left_children":[1,3,-1,-1,5,7,9,11,13,15,17,-1,-1,-1,-1,-1,-1,-1,-1],"loss_changes":[3.4007428E2,1.6355576E1,0E0,0E0,5.9627132E0,3.1042857E0,4.7823315E0,1.0049608E0,1.8092396E0,1.909174E0,1.9807677E0,0E0,0E0,0E0,0E0,0E0,0E0,0E0,0E0],"parents":[2147483647,0,0,1,1,4,4,5,5,6,6,7,7,8,8,9,9,10,10],"right_children":[2,4,-1,-1,6,8,10,12,14,16,18,-1,-1,-1,-1,-1,-1,-1,-1],"split_conditions":[1E1,8E0,-2.9759038E-2,4.7716115E-2,5.91886E0,1E0,8E0,9E0,3E1,1E1,1E0,4.617289E-2,6.1974525E-3,5.077454E-3,-2.5543613E-2,3.75905E-2,-2.7741778E-3,3.363629E-2,-1.1423285E-2],"split_indices":[11,11,0,0,6,4,7,11,3,8,4,0,0,0,0,0,0,0,0],"split_type":[0,0,0,0,0,0,0,0,0,0,0,0,0,0,0,0,0,0,0],"sum_hessian":[7.1018384E2,3.0261853E2,4.0756528E2,2.1206519E2,9.055335E1,2.384776E1,6.670559E1,6.105547E0,1.7742212E1,5.5556145E1,1.1149447E1,2.820384E0,3.2851632E0,9.195929E0,8.546284E0,5.259739E1,2.9587557E0,2.2347236E0,8.914724E0],"tree_param":{"num_deleted":"0","num_feature":"13","num_nodes":"19","size_leaf_vector":"1"}},{"base_weights":[-1.0308004E-2,3.330433E-1,-2.9805759E-2,-2.9586358E-2,6.479751E-1,3.1740558E-1,7.6933724E-1,-2.1498056E-1,6.732379E-1,4.8858788E-2,3.409804E-1,-2.4997804E-2,7.985022E-4,-2.487146E-3,3.9075408E-2,3.267766E-2,-1.1488235E-2],"categories":[],"categories_nodes":[],"categories_segments":[],"categories_sizes":[],"default_left":[0,0,0,0,0,0,0,0,0,0,0,0,0,0,0,0,0],"id":49,"left_children":[1,3,-1,-1,5,7,9,11,13,-1,15,-1,-1,-1,-1,-1,-1],"loss_changes":[1.4778255E2,1.3529929E2,0E0,0E0,1.363855E1,1.8071228E1,2.2138885E1,2.552898E0,4.4976463E0,0E0,1.5135129E1,0E0,0E0,0E0,0E0,0E0,0E0],"parents":[2147483647,0,0,1,1,4,4,5,5,6,6,7,7,8,8,10,10],"right_children":[2,4,-1,-1,6,8,10,12,14,-1,16,-1,-1,-1,-1,-1,-1],"split_conditions":[1.8E1,8E0,-2.9805759E-2,-2.9586358E-2,1E1,7.1498305E-2,1.6E1,3E0,1E0,4.8858788E-2,3.2907403E-1,-2.4997804E-2,7.985022E-4,-2.487146E-3,3.9075408E-2,3.267766E-2,-1.1488235E-2],"split_indices":[11,11,0,0,11,10,11,8,8,0,10,0,0,0,0,0,0],"split_type":[0,0,0,0,0,0,0,0,0,0,0,0,0,0,0,0,0],"sum_hessian":[7.327462E2,4.6224704E2,2.7049918E2,1.1720515E2,3.450419E2,9.362877E1,2.5141312E2,3.766753E1,5.596124E1,1.6841638E2,8.2996735E1,1.6340195E1,2.1327335E1,7.359344E0,4.8601894E1,5.3533585E1,2.9463152E1],"tree_param":{"num_deleted":"0","num_feature":"13","num_nodes":"17","size_leaf_vector":"1"}},{"base_weights":[-4.7688563E-3,-2.9713202E-2,3.3773056E-1,6.455064E-1,-2.9539658E-2,7.7524936E-1,3.0887565E-1,4.2212668E-1,4.7999904E-2,7.289991E-1,-1.7578253E-1,-1.2383441E-2,2.9764554E-2,4.555978E-2,2.2659E-2,2.9148472E-2,-1.2493246E-2],"categories":[],"categories_nodes":[],"categories_segments":[],"categories_sizes":[],"default_left":[0,0,0,0,0,0,0,0,0,0,0,0,0,0,0,0,0],"id":50,"left_children":[1,-1,3,5,-1,7,9,11,-1,13,15,-1,-1,-1,-1,-1,-1],"loss_changes":[1.4509789E2,0E0,1.302858E2,1.46923065E1,0E0,1.5650574E1,1.9832409E1,1.015904E1,0E0,2.2018032E0,2.7167344E0,0E0,0E0,0E0,0E0,0E0,0E0],"parents":[2147483647,0,0,2,2,3,3,5,5,6,6,7,7,9,9,10,10],"right_children":[2,-1,4,6,-1,8,10,12,-1,14,16,-1,-1,-1,-1,-1,-1],"split_conditions":[1.6E1,-2.9713202E-2,2.6E1,2.4E1,-2.9539658E-2,1.8E1,5.020023E-1,1.803796E-1,4.7999904E-2,7E0,1E0,-1.2383441E-2,2.9764554E-2,4.555978E-2,2.2659E-2,2.9148472E-2,-1.2493246E-2],"split_indices":[11,0,11,11,0,11,10,10,0,8,7,0,0,0,0,0,0],"split_type":[0,0,0,0,0,0,0,0,0,0,0,0,0,0,0,0,0],"sum_hessian":[7.166619E2,2.6309653E2,4.5356543E2,3.4087958E2,1.1268585E2,2.45108E2,9.577157E1,8.53183E1,1.5978972E2,5.1031246E1,4.4740322E1,1.7438065E1,6.788023E1,2.9344017E1,2.168723E1,3.3687158E0,4.1371605E1],"tree_param":{"num_deleted":"0","num_feature":"13","num_nodes":"17","size_leaf_vector":"1"}},{"base_weights":[-3.3416707E-4,-2.980946E-2,7.974936E-1,4.6531016E-1,4.8190083E-2,-1.5131104E-1,7.3778087E-1,-5.334259E-1,2.3444651E-1,-1.3316572E-1,7.831632E-1,-2.9210886E-2,-1.018958E-3,-2.141117E-2,3.3108193E-2,-2.370324E-2,1.7501658E-2,2.6637262E-2,4.390851E-2],"categories":[],"categories_nodes":[],"categories_segments":[],"categories_sizes":[],"default_left":[0,0,0,0,0,0,0,0,0,0,0,0,0,0,0,0,0,0,0],"id":51,"left_children":[1,-1,3,5,-1,7,9,11,13,15,17,-1,-1,-1,-1,-1,-1,-1,-1],"loss_changes":[3.4143027E2,0E0,1.6515244E1,1.7648146E1,0E0,4.9624305E0,2.9722633E0,4.25663E-1,5.1091604E0,8.9867014E-1,1.1764221E0,0E0,0E0,0E0,0E0,0E0,0E0,0E0,0E0],"parents":[2147483647,0,0,2,2,3,3,5,5,6,6,7,7,8,8,9,9,10,10],"right_children":[2,-1,4,6,-1,8,10,12,14,16,18,-1,-1,-1,-1,-1,-1,-1,-1],"split_conditions":[2.4E1,-2.980946E-2,2.6E1,4.533059E-1,4.8190083E-2,3E1,1E0,4.3632808E-1,5E0,9E0,5.6649756E-1,-2.9210886E-2,-1.018958E-3,-2.141117E-2,3.3108193E-2,-2.370324E-2,1.7501658E-2,2.6637262E-2,4.390851E-2],"split_indices":[11,0,11,10,0,0,7,10,8,8,10,0,0,0,0,0,0,0,0],"split_type":[0,0,0,0,0,0,0,0,0,0,0,0,0,0,0,0,0,0,0],"sum_hessian":[7.162113E2,4.1014703E2,3.0606424E2,1.0337704E2,2.026872E2,3.1817158E1,7.155988E1,1.57917385E1,1.602542E1,3.448292E0,6.811159E1,1.4242958E1,1.5487802E0,6.285697E0,9.739723E0,2.032944E0,1.415348E0,2.0551004E1,4.7560585E1],"tree_param":{"num_deleted":"0","num_feature":"13","num_nodes":"19","size_leaf_vector":"1"}},{"base_weights":[-5.7870485E-3,7.57587E-1,-2.9541954E-2,4.5997884E-2,4.0560895E-1,6.8355525E-1,1.9601604E-1,7.827415E-1,1.2934494E-1,3.335658E-1,-3.1350797E-1,4.3197494E-2,2.575381E-2,3.5443466E-2,-1.7525915E-2,-1.3197306E-2,2.5230348E-2,-1.8439455E-2,7.834881E-3],"categories":[],"categories_nodes":[],"categories_segments":[],"categories_sizes":[],"default_left":[0,0,0,0,0,0,0,0,0,0,0,0,0,0,0,0,0,0,0],"id":52,"left_children":[1,3,-1,-1,5,7,9,11,13,15,17,-1,-1,-1,-1,-1,-1,-1,-1],"loss_changes":[3.1713953E2,1.7235E1,0E0,0E0,5.6362267E0,2.2173634E0,4.1604233E0,3.283615E-1,2.36221E0,4.839802E0,3.9095068E-1,0E0,0E0,0E0,0E0,0E0,0E0,0E0,0E0],"parents":[2147483647,0,0,1,1,4,4,5,5,6,6,7,7,8,8,9,9,10,10],"right_children":[2,4,-1,-1,6,8,10,12,14,16,18,-1,-1,-1,-1,-1,-1,-1,-1],"split_conditions":[1E1,8E0,-2.9541954E-2,4.5997884E-2,3E0,8E0,7E0,3E1,1E0,5.342604E0,8.376809E0,4.3197494E-2,2.575381E-2,3.5443466E-2,-1.7525915E-2,-1.3197306E-2,2.5230348E-2,-1.8439455E-2,7.834881E-3],"split_indices":[11,11,0,0,8,7,7,0,4,6,6,0,0,0,0,0,0,0,0],"split_type":[0,0,0,0,0,0,0,0,0,0,0,0,0,0,0,0,0,0,0],"sum_hessian":[7.0809607E2,3.0709915E2,4.0099692E2,2.0904918E2,9.804998E1,4.1179497E1,5.6870483E1,3.457865E1,6.6008472E0,4.505334E1,1.1817144E1,2.4820503E1,9.758147E0,2.77377E0,3.8270774E0,9.90572E0,3.514762E1,1.0766977E1,1.0501671E0],"tree_param":{"num_deleted":"0","num_feature":"13","num_nodes":"19","size_leaf_vector":"1"}},{"base_weights":[1.3973317E-2,3.526175E-1,-2.9574504E-2,-2.9356806E-2,6.6190284E-1,7.555764E-1,3.5768512E-1,3.9090276E-1,4.7044855E-2,6.0154694E-1,-2.2571772E-1,-2.029975E-2,3.0521372E-2,4.328971E-2,1.942223E-2,2.9526785E-2,-1.5814198E-2],"categories":[],"categories_nodes":[],"categories_segments":[],"categories_sizes":[],"default_left":[0,0,0,0,0,0,0,0,0,0,0,0,0,0,0,0,0],"id":53,"left_children":[1,3,-1,-1,5,7,9,11,-1,13,15,-1,-1,-1,-1,-1,-1],"loss_changes":[1.4876418E2,1.3562155E2,0E0,0E0,9.718948E0,1.7683945E1,1.2146666E1,1.6292103E1,0E0,3.0316792E0,2.0802584E0,0E0,0E0,0E0,0E0,0E0,0E0],"parents":[2147483647,0,0,1,1,4,4,5,5,6,6,7,7,9,9,10,10],"right_children":[2,4,-1,-1,6,8,10,12,-1,14,16,-1,-1,-1,-1,-1,-1],"split_conditions":[1.8E1,8E0,-2.9574504E-2,-2.9356806E-2,1.6E1,1E1,3.556715E-1,6.073736E-3,4.7044855E-2,1.803796E-1,1.5E3,-2.029975E-2,3.0521372E-2,4.328971E-2,1.942223E-2,2.9526785E-2,-1.5814198E-2],"split_indices":[11,11,0,0,11,11,10,10,0,10,12,0,0,0,0,0,0],"split_type":[0,0,0,0,0,0,0,0,0,0,0,0,0,0,0,0,0],"sum_hessian":[7.235319E2,4.6427432E2,2.5925757E2,1.14740524E2,3.495338E2,2.6611044E2,8.3423355E1,9.071367E1,1.7539679E2,5.8809807E1,2.4613544E1,1.9408682E1,7.1304985E1,2.488704E1,3.3922768E1,1.9068692E0,2.2706676E1],"tree_param":{"num_deleted":"0","num_feature":"13","num_nodes":"17","size_leaf_vector":"1"}},{"base_weights":[9.034762E-3,-5.45833E-1,2.4195541E-1,-5.7076395E-1,-2.3345098E-2,3.4461546E-1,-3.2739124E-1,-2.931878E-2,-3.5074025E-1,-2.594167E-2,4.7491768E-1,4.0651727E-1,-2.6031363E-1,6.907755E-1,-4.101819E-1,-4.3831253E-1,7.9422355E-2,-1.7310483E-2,4.0190186E-2,-9.5954955E-2,4.9834856E-1,3.3533487E-1,-3.868072E-1,4.1249998E-2,1.0352693E-2,2.251086E-1,-4.4836137E-1,-2.4280943E-2,1.4519031E-4,1.8645221E-2,-1.5372685E-2,-1.2379001E-2,3.1261533E-2,2.7322954E-2,1.3783827E-2,3.144702E-2,-1.9102236E-2,1.2099187E-2,-2.3959247E-2,3.3654187E-2,-1.886379E-2,-7.978151E-3,-2.3972888E-2],"categories":[],"categories_nodes":[],"categories_segments":[],"categories_sizes":[],"default_left":[0,0,0,0,0,0,0,0,0,0,0,0,0,0,0,0,0,0,0,0,0,0,0,0,0,0,0,0,0,0,0,0,0,0,0,0,0,0,0,0,0,0,0],"id":54,"left_children":[1,3,5,7,9,11,13,-1,15,-1,17,19,21,23,25,27,29,-1,-1,31,33,35,37,-1,-1,39,41,-1,-1,-1,-1,-1,-1,-1,-1,-1,-1,-1,-1,-1,-1,-1,-1],"loss_changes":[9.244424E1,2.741581E0,2.9558222E1,4.8755646E-1,2.8817637E0,1.6106766E1,6.81392E0,0E0,6.3224375E-1,0E0,1.8566219E0,1.7952492E1,3.1643531E0,2.3162913E-1,1.8539572E0,2.7964497E-1,5.153546E-1,0E0,0E0,6.802868E0,3.365654E0,1.8390666E0,2.0726295E0,0E0,0E0,1.5392625E0,5.387707E-1,0E0,0E0,0E0,0E0,0E0,0E0,0E0,0E0,0E0,0E0,0E0,0E0,0E0,0E0,0E0,0E0],"parents":[2147483647,0,0,1,1,2,2,3,3,4,4,5,5,6,6,8,8,10,10,11,11,12,12,13,13,14,14,15,15,16,16,19,19,20,20,21,21,22,22,25,25,26,26],"right_children":[2,4,6,8,10,12,14,-1,16,-1,18,20,22,24,26,28,30,-1,-1,32,34,36,38,-1,-1,40,42,-1,-1,-1,-1,-1,-1,-1,-1,-1,-1,-1,-1,-1,-1,-1,-1],"split_conditions":[1.595E3,4.1787124E-1,6.274182E-1,1.49E3,6E0,4.424E3,2.108E3,-2.931878E-2,3.1197324E-1,-2.594167E-2,1.188E3,1.8811166E-1,3.5306838E-1,2.9E1,2E0,4.5E1,1E0,-1.7310483E-2,4.0190186E-2,3.1E3,5.308439E-1,5.016E3,2E0,4.1249998E-2,1.0352693E-2,4.175E3,6.418252E-1,-2.4280943E-2,1.4519031E-4,1.8645221E-2,-1.5372685E-2,-1.2379001E-2,3.1261533E-2,2.7322954E-2,1.3783827E-2,3.144702E-2,-1.9102236E-2,1.2099187E-2,-2.3959247E-2,3.3654187E-2,-1.886379E-2,-7.978151E-3,-2.3972888E-2],"split_indices":[12,10,10,12,7,12,12,0,10,0,12,10,10,0,8,3,1,0,0,12,10,12,7,0,0,12,10,0,0,0,0,0,0,0,0,0,0,0,0,0,0,0,0],"split_type":[0,0,0,0,0,0,0,0,0,0,0,0,0,0,0,0,0,0,0,0,0,0,0,0,0,0,0,0,0,0,0,0,0,0,0,0,0,0,0,0,0,0,0],"sum_hessian":[7.132685E2,2.1049059E2,5.027779E2,2.0081607E2,9.674516E0,4.2630472E2,7.647316E1,1.8595659E2,1.485948E1,4.8300633E0,4.844453E0,3.8702847E2,3.9276257E1,5.1984553E0,7.1274704E1,1.2330331E1,2.5291493E0,1.3703747E0,3.474078E0,5.9796387E1,3.272321E2,6.5906053E0,3.2685654E1,3.5170178E0,1.6814375E0,3.7630503E0,6.751166E1,1.1045426E1,1.284905E0,1.4587007E0,1.0704485E0,4.9951153E1,9.845234E0,2.6789633E2,5.9335762E1,4.764071E0,1.8265342E0,3.979403E0,2.870625E1,2.0908113E0,1.6722391E0,7.15869E0,6.0352966E1],"tree_param":{"num_deleted":"0","num_feature":"13","num_nodes":"43","size_leaf_vector":"1"}},{"base_weights":[-1.0577897E-3,-2.9588208E-2,7.6407486E-1,4.4093716E-1,4.6477165E-2,1.6248313E-1,6.498582E-1,-1.329216E-1,4.2838317E-1,4.7207108E-1,9.4400305E-1,-2.1302393E-2,5.1598446E-3,3.7627723E-2,4.550132E-3,6.726086E-3,3.015682E-2,5.493913E-2,2.5886336E-2],"categories":[],"categories_nodes":[],"categories_segments":[],"categories_sizes":[],"default_left":[0,0,0,0,0,0,0,0,0,0,0,0,0,0,0,0,0,0,0],"id":55,"left_children":[1,-1,3,5,-1,7,9,11,13,15,17,-1,-1,-1,-1,-1,-1,-1,-1],"loss_changes":[3.212135E2,0E0,1.6146042E1,6.1052513E0,0E0,3.7564335E0,2.7267513E0,1.6410143E0,2.6683521E0,1.6801138E0,8.729553E-1,0E0,0E0,0E0,0E0,0E0,0E0,0E0,0E0],"parents":[2147483647,0,0,2,2,3,3,5,5,6,6,7,7,8,8,9,9,10,10],"right_children":[2,-1,4,6,-1,8,10,12,14,16,18,-1,-1,-1,-1,-1,-1,-1,-1],"split_conditions":[2.4E1,-2.9588208E-2,2.6E1,7E0,4.6477165E-2,7E0,3.3E1,4E0,6.1165648E0,3.08E3,3E0,-2.1302393E-2,5.1598446E-3,3.7627723E-2,4.550132E-3,6.726086E-3,3.015682E-2,5.493913E-2,2.5886336E-2],"split_indices":[11,0,11,8,0,7,0,8,6,12,2,0,0,0,0,0,0,0,0],"split_type":[0,0,0,0,0,0,0,0,0,0,0,0,0,0,0,0,0,0,0],"sum_hessian":[7.086982E2,4.0006332E2,3.0863486E2,1.0576155E2,2.0287329E2,4.6098404E1,5.9663143E1,2.2074543E1,2.4023863E1,3.8810307E1,2.0852837E1,9.48952E0,1.2585024E1,1.16242E1,1.2399662E1,1.1421478E1,2.738883E1,1.4140748E1,6.712089E0],"tree_param":{"num_deleted":"0","num_feature":"13","num_nodes":"19","size_leaf_vector":"1"}},{"base_weights":[-3.4329658E-3,7.351945E-1,-2.9333282E-2,7.8532124E-1,-3.302783E-1,4.447202E-2,5.243279E-1,2.9959192E-2,-5.2723444E-1,8.850008E-1,3.0292055E-1,-2.9803246E-2,3.512707E-3,4.6360202E-2,1.3185157E-2,2.6111796E-2,-3.4235248E-3],"categories":[],"categories_nodes":[],"categories_segments":[],"categories_sizes":[],"default_left":[0,0,0,0,0,0,0,0,0,0,0,0,0,0,0,0,0],"id":56,"left_children":[1,3,-1,5,7,-1,9,-1,11,13,15,-1,-1,-1,-1,-1,-1],"loss_changes":[2.9637534E2,1.6471695E1,0E0,7.4199066E0,2.941647E0,0E0,6.535223E0,0E0,5.5048704E-1,5.9155273E-1,4.459372E0,0E0,0E0,0E0,0E0,0E0,0E0],"parents":[2147483647,0,0,1,1,3,3,4,4,6,6,8,8,9,9,10,10],"right_children":[2,4,-1,6,8,-1,10,-1,12,14,16,-1,-1,-1,-1,-1,-1],"split_conditions":[1E1,3.011509E-1,-2.9333282E-2,8E0,7E0,4.447202E-2,3.6202057E-3,2.9959192E-2,1.666E3,9E0,2E0,-2.9803246E-2,3.512707E-3,4.6360202E-2,1.3185157E-2,2.6111796E-2,-3.4235248E-3],"split_indices":[11,10,0,11,11,0,10,0,12,8,4,0,0,0,0,0,0],"split_type":[0,0,0,0,0,0,0,0,0,0,0,0,0,0,0,0,0],"sum_hessian":[6.8597705E2,3.025526E2,3.834244E2,2.892093E2,1.3343329E1,2.0501422E2,8.419507E1,1.9760182E0,1.13673115E1,3.0885448E1,5.330962E1,1.01952095E1,1.172102E0,2.8459873E1,2.4255745E0,3.326165E1,2.0047968E1],"tree_param":{"num_deleted":"0","num_feature":"13","num_nodes":"17","size_leaf_vector":"1"}},{"base_weights":[-2.4889776E-5,3.332255E-1,-2.9375765E-2,-2.9113043E-2,6.1944044E-1,3.1195286E-1,7.3139954E-1,-1.9612712E-1,6.611338E-1,4.5556866E-2,3.386739E-1,-2.3017094E-2,6.0272007E-3,-1.2988847E-3,3.8016442E-2,4.449174E-2,4.7193286E-3],"categories":[],"categories_nodes":[],"categories_segments":[],"categories_sizes":[],"default_left":[0,0,0,0,0,0,0,0,0,0,0,0,0,0,0,0,0],"id":57,"left_children":[1,3,-1,-1,5,7,9,11,13,-1,15,-1,-1,-1,-1,-1,-1],"loss_changes":[1.3845633E2,1.18596466E2,0E0,0E0,1.1622955E1,1.6740892E1,1.7452515E1,3.3109841E0,3.8176365E0,0E0,1.0767127E1,0E0,0E0,0E0,0E0,0E0,0E0],"parents":[2147483647,0,0,1,1,4,4,5,5,6,6,7,7,8,8,10,10],"right_children":[2,4,-1,-1,6,8,10,12,14,-1,16,-1,-1,-1,-1,-1,-1],"split_conditions":[1.8E1,8E0,-2.9375765E-2,-2.9113043E-2,1E1,7.1498305E-2,1.6E1,6.073736E-3,1E0,4.5556866E-2,1.803796E-1,-2.3017094E-2,6.0272007E-3,-1.2988847E-3,3.8016442E-2,4.449174E-2,4.7193286E-3],"split_indices":[11,11,0,0,11,10,11,10,8,0,10,0,0,0,0,0,0],"split_type":[0,0,0,0,0,0,0,0,0,0,0,0,0,0,0,0,0],"sum_hessian":[7.0519867E2,4.5023715E2,2.549615E2,1.06988785E2,3.4324838E2,9.263086E1,2.5061752E2,3.7909096E1,5.4721764E1,1.7102495E2,7.9592575E1,2.041889E1,1.7490206E1,6.996437E0,4.7725327E1,2.3631844E1,5.596073E1],"tree_param":{"num_deleted":"0","num_feature":"13","num_nodes":"17","size_leaf_vector":"1"}},{"base_weights":[-1.9126935E-3,-2.9325832E-2,3.2938233E-1,5.9979284E-1,-2.9183103E-2,7.225536E-1,2.887771E-1,3.720378E-1,4.517607E-2,5.699154E-1,-2.6861292E-1,1.3807853E-3,3.8462296E-2,4.151191E-2,1.7941048E-2,8.168018E-3,-2.7489264E-2],"categories":[],"categories_nodes":[],"categories_segments":[],"categories_sizes":[],"default_left":[0,0,0,0,0,0,0,0,0,0,0,0,0,0,0,0,0],"id":58,"left_children":[1,-1,3,5,-1,7,9,11,-1,13,15,-1,-1,-1,-1,-1,-1],"loss_changes":[1.3742444E2,0E0,1.1217034E2,1.3151138E1,0E0,1.5535751E1,1.5931926E1,1.1867096E1,0E0,3.3978176E0,4.2727766E0,0E0,0E0,0E0,0E0,0E0,0E0],"parents":[2147483647,0,0,2,2,3,3,5,5,6,6,7,7,9,9,10,10],"right_children":[2,-1,4,6,-1,8,10,12,-1,14,16,-1,-1,-1,-1,-1,-1],"split_conditions":[1.6E1,-2.9325832E-2,2.6E1,2.4E1,-2.9183103E-2,1.8E1,5.6649756E-1,3.2907403E-1,4.517607E-2,3.678591E-1,7E0,1.3807853E-3,3.8462296E-2,4.151191E-2,1.7941048E-2,8.168018E-3,-2.7489264E-2],"split_indices":[11,0,11,11,0,11,10,10,0,10,8,0,0,0,0,0,0],"split_type":[0,0,0,0,0,0,0,0,0,0,0,0,0,0,0,0,0],"sum_hessian":[7.075597E2,2.556568E2,4.519029E2,3.4891116E2,1.0299171E2,2.4921896E2,9.96922E1,8.589846E1,1.6332051E2,6.625288E1,3.3439323E1,4.657899E1,3.9319466E1,2.8353807E1,3.7899075E1,1.3349341E1,2.0089981E1],"tree_param":{"num_deleted":"0","num_feature":"13","num_nodes":"17","size_leaf_vector":"1"}},{"base_weights":[4.42781E-3,-2.9387785E-2,7.429163E-1,4.2122343E-1,4.506551E-2,-5.0323486E-2,7.169894E-1,-3.126354E-1,2.5935233E-1,4.8897183E-1,8.8324356E-1,-2.5683457E-2,2.683104E-3,-9.772107E-3,3.3238564E-2,1.1213912E-3,3.4907497E-2,1.296899E-2,4.5116246E-2],"categories":[],"categories_nodes":[],"categories_segments":[],"categories_sizes":[],"default_left":[0,0,0,0,0,0,0,0,0,0,0,0,0,0,0,0,0,0,0],"id":59,"left_children":[1,-1,3,5,-1,7,9,11,13,15,17,-1,-1,-1,-1,-1,-1,-1,-1],"loss_changes":[3.0498917E2,0E0,1.5434509E1,1.4578888E1,0E0,3.4219334E0,1.9998322E0,1.7006195E0,3.708325E0,2.8426814E0,1.9281197E-1,0E0,0E0,0E0,0E0,0E0,0E0,0E0,0E0],"parents":[2147483647,0,0,2,2,3,3,5,5,6,6,7,7,8,8,9,9,10,10],"right_children":[2,-1,4,6,-1,8,10,12,14,16,18,-1,-1,-1,-1,-1,-1,-1,-1],"split_conditions":[2.4E1,-2.9387785E-2,2.6E1,5.1630515E-1,4.506551E-2,3E1,7E0,4.3632808E-1,6E0,7E0,1.4E1,-2.5683457E-2,2.683104E-3,-9.772107E-3,3.3238564E-2,1.1213912E-3,3.4907497E-2,1.296899E-2,4.5116246E-2],"split_indices":[11,0,11,10,0,0,7,10,8,8,0,0,0,0,0,0,0,0,0],"split_type":[0,0,0,0,0,0,0,0,0,0,0,0,0,0,0,0,0,0,0],"sum_hessian":[6.9540546E2,3.860453E2,3.0936017E2,1.0327379E2,2.0608638E2,4.0127457E1,6.3146336E1,2.1719948E1,1.8407509E1,2.8289038E1,3.4857296E1,1.3763723E1,7.9562235E0,8.919566E0,9.487944E0,9.099974E0,1.9189066E1,1.4676003E0,3.3389694E1],"tree_param":{"num_deleted":"0","num_feature":"13","num_nodes":"19","size_leaf_vector":"1"}},{"base_weights":[7.886133E-4,7.120442E-1,-2.9138599E-2,4.308377E-2,3.72062E-1,7.213348E-1,-4.8499756E-2,4.6942435E-2,5.80577E-1,6.17084E-1,-1.9629036E-1,4.0531836E-2,9.540441E-3,5.079211E-2,-3.2720827E-3,2.1616782E-3,-2.2901535E-2],"categories":[],"categories_nodes":[],"categories_segments":[],"categories_sizes":[],"default_left":[0,0,0,0,0,0,0,0,0,0,0,0,0,0,0,0,0],"id":60,"left_children":[1,3,-1,-1,5,7,9,-1,11,13,15,-1,-1,-1,-1,-1,-1],"loss_changes":[2.8379163E2,1.5355698E1,0E0,0E0,1.412688E1,1.0614529E0,4.494756E0,0E0,2.9369087E0,2.330916E0,2.3483598E0,0E0,0E0,0E0,0E0,0E0,0E0],"parents":[2147483647,0,0,1,1,4,4,5,5,6,6,8,8,9,9,10,10],"right_children":[2,4,-1,-1,6,8,10,-1,12,14,16,-1,-1,-1,-1,-1,-1],"split_conditions":[1E1,8E0,-2.9138599E-2,4.308377E-2,1.0279389E-1,1E0,1E0,4.6942435E-2,6.073736E-3,1E0,2E0,4.0531836E-2,9.540441E-3,5.079211E-2,-3.2720827E-3,2.1616782E-3,-2.2901535E-2],"split_indices":[11,11,0,0,10,4,8,0,10,1,4,0,0,0,0,0,0],"split_type":[0,0,0,0,0,0,0,0,0,0,0,0,0,0,0,0,0],"sum_hessian":[6.817354E2,3.0715204E2,3.7458337E2,2.1221754E2,9.49345E1,5.1472157E1,4.346234E1,1.7994772E1,3.3477386E1,7.320162E0,3.614218E1,2.0372675E1,1.3104712E1,4.3123574E0,3.0078044E0,1.9307926E1,1.6834255E1],"tree_param":{"num_deleted":"0","num_feature":"13","num_nodes":"17","size_leaf_vector":"1"}},{"base_weights":[-3.0760139E-3,3.096119E-1,-2.916857E-2,-2.8909001E-2,5.8280146E-1,6.800129E-1,2.6567954E-1,3.104403E-1,4.4077557E-2,5.1677084E-1,-3.627483E-1,-6.7683198E-3,3.0549852E-2,4.543807E-2,1.8680071E-2,8.32442E-4,-2.680662E-2],"categories":[],"categories_nodes":[],"categories_segments":[],"categories_sizes":[],"default_left":[0,0,0,0,0,0,0,0,0,0,0,0,0,0,0,0,0],"id":61,"left_children":[1,3,-1,-1,5,7,9,11,-1,13,15,-1,-1,-1,-1,-1,-1],"loss_changes":[1.2596416E2,1.0975128E2,0E0,0E0,1.0469437E1,1.9373055E1,1.3236285E1,1.2761738E1,0E0,2.9996758E0,1.6005864E0,0E0,0E0,0E0,0E0,0E0,0E0],"parents":[2147483647,0,0,1,1,4,4,5,5,6,6,7,7,9,9,10,10],"right_children":[2,4,-1,-1,6,8,10,12,-1,14,16,-1,-1,-1,-1,-1,-1],"split_conditions":[1.8E1,8E0,-2.916857E-2,-2.8909001E-2,1.6E1,1E1,3.556715E-1,9.437907E-2,4.4077557E-2,3E0,4E0,-6.7683198E-3,3.0549852E-2,4.543807E-2,1.8680071E-2,8.32442E-4,-2.680662E-2],"split_indices":[11,11,0,0,11,11,10,10,0,8,7,0,0,0,0,0,0],"split_type":[0,0,0,0,0,0,0,0,0,0,0,0,0,0,0,0,0],"sum_hessian":[6.9220807E2,4.5012695E2,2.4208113E2,1.05656296E2,3.4447064E2,2.627747E2,8.169597E1,9.3626526E1,1.6914816E2,5.849978E1,2.319619E1,3.792425E1,5.5702274E1,1.4219654E1,4.428013E1,7.559203E0,1.5636987E1],"tree_param":{"num_deleted":"0","num_feature":"13","num_nodes":"17","size_leaf_vector":"1"}},{"base_weights":[1.3474122E-3,-2.912043E-2,3.1800428E-1,5.7914853E-1,-2.896498E-2,7.005784E-1,2.7639148E-1,3.7260702E-1,4.3716174E-2,5.5032134E-1,-2.912207E-1,-1.5583186E-2,2.7841467E-2,3.683672E-2,1.41091095E-2,1.2687268E-2,-2.553591E-2],"categories":[],"categories_nodes":[],"categories_segments":[],"categories_sizes":[],"default_left":[0,0,0,0,0,0,0,0,0,0,0,0,0,0,0,0,0],"id":62,"left_children":[1,-1,3,5,-1,7,9,11,-1,13,15,-1,-1,-1,-1,-1,-1],"loss_changes":[1.2924756E2,0E0,1.065562E2,1.2733124E1,0E0,1.3937729E1,1.6067604E1,1.1320263E1,0E0,3.258606E0,4.1913548E0,0E0,0E0,0E0,0E0,0E0,0E0],"parents":[2147483647,0,0,2,2,3,3,5,5,6,6,7,7,9,9,10,10],"right_children":[2,-1,4,6,-1,8,10,12,-1,14,16,-1,-1,-1,-1,-1,-1],"split_conditions":[1.6E1,-2.912043E-2,2.6E1,2.4E1,-2.896498E-2,1.8E1,5.6649756E-1,1.803796E-1,4.3716174E-2,3E1,5E0,-1.5583186E-2,2.7841467E-2,3.683672E-2,1.41091095E-2,1.2687268E-2,-2.553591E-2],"split_indices":[11,0,11,11,0,11,10,10,0,0,7,0,0,0,0,0,0],"split_type":[0,0,0,0,0,0,0,0,0,0,0,0,0,0,0,0,0],"sum_hessian":[6.9719904E2,2.4489554E2,4.523035E2,3.506172E2,1.0168632E2,2.4930994E2,1.0130725E2,8.742535E1,1.618846E2,6.8351326E1,3.295592E1,1.8397682E1,6.9027664E1,3.928938E1,2.906195E1,9.417707E0,2.3538212E1],"tree_param":{"num_deleted":"0","num_feature":"13","num_nodes":"17","size_leaf_vector":"1"}},{"base_weights":[7.926024E-3,-4.5091838E-1,5.821358E-1,-5.114837E-1,5.984821E-1,1.3868785E-1,6.945825E-1,-2.8627565E-2,-2.7348563E-1,2.8193223E-1,8.040326E-1,-3.525656E-1,3.879613E-1,5.401266E-1,7.8557116E-1,-4.4365087E-1,-1.2406422E-1,2.423701E-2,3.249551E-2,4.345804E-4,4.432242E-2,-2.6709024E-2,-1.424936E-1,-2.3327786E-2,4.9211457E-1,2.0378947E-1,6.3988656E-1,6.7333615E-1,4.2302474E-2,-2.558676E-2,-1.2053962E-2,-1.6472494E-2,1.0004939E-2,1.6027803E-2,-1.3704719E-2,-2.2758747E-2,1.8790802E-3,1.4771022E-2,3.4752257E-2,-1.5614663E-2,1.7537234E-2,2.3511795E-2,3.8428225E-2,3.1294015E-3,3.6037527E-2],"categories":[],"categories_nodes":[],"categories_segments":[],"categories_sizes":[],"default_left":[0,0,0,0,0,0,0,0,0,0,0,0,0,0,0,0,0,0,0,0,0,0,0,0,0,0,0,0,0,0,0,0,0,0,0,0,0,0,0,0,0,0,0,0,0],"id":63,"left_children":[1,3,5,7,9,11,13,-1,15,17,19,21,23,25,27,29,31,33,-1,-1,-1,-1,35,-1,37,39,41,43,-1,-1,-1,-1,-1,-1,-1,-1,-1,-1,-1,-1,-1,-1,-1,-1,-1],