{"learner":{"attributes":{"scikit_learn":"{\"_estimator_type\": \"classifier\"}"},"feature_names":[],"feature_types":[],"gradient_booster":{"model":{"cats":{"enc":[],"feature_segments":[],"sorted_idx":[]},"gbtree_model_param":{"num_parallel_tree":"1","num_trees":"1200"},"iteration_indptr":[0,4,8,12,16,20,24,28,32,36,40,44,48,52,56,60,64,68,72,76,80,84,88,92,96,100,104,108,112,116,120,124,128,132,136,140,144,148,152,156,160,164,168,172,176,180,184,188,192,196,200,204,208,212,216,220,224,228,232,236,240,244,248,252,256,260,264,268,272,276,280,284,288,292,296,300,304,308,312,316,320,324,328,332,336,340,344,348,352,356,360,364,368,372,376,380,384,388,392,396,400,404,408,412,416,420,424,428,432,436,440,444,448,452,456,460,464,468,472,476,480,484,488,492,496,500,504,508,512,516,520,524,528,532,536,540,544,548,552,556,560,564,568,572,576,580,584,588,592,596,600,604,608,612,616,620,624,628,632,636,640,644,648,652,656,660,664,668,672,676,680,684,688,692,696,700,704,708,712,716,720,724,728,732,736,740,744,748,752,756,760,764,768,772,776,780,784,788,792,796,800,804,808,812,816,820,824,828,832,836,840,844,848,852,856,860,864,868,872,876,880,884,888,892,896,900,904,908,912,916,920,924,928,932,936,940,944,948,952,956,960,964,968,972,976,980,984,988,992,996,1000,1004,1008,1012,1016,1020,1024,1028,1032,1036,1040,1044,1048,1052,1056,1060,1064,1068,1072,1076,1080,1084,1088,1092,1096,1100,1104,1108,1112,1116,1120,1124,1128,1132,1136,1140,1144,1148,1152,1156,1160,1164,1168,1172,1176,1180,1184,1188,1192,1196,1200],"tree_info":[0,1,2,3,0,1,2,3,0,1,2,3,0,1,2,3,0,1,2,3,0,1,2,3,0,1,2,3,0,1,2,3,0,1,2,3,0,1,2,3,0,1,2,3,0,1,2,3,0,1,2,3,0,1,2,3,0,1,2,3,0,1,2,3,0,1,2,3,0,1,2,3,0,1,2,3,0,1,2,3,0,1,2,3,0,1,2,3,0,1,2,3,0,1,2,3,0,1,2,3,0,1,2,3,0,1,2,3,0,1,2,3,0,1,2,3,0,1,2,3,0,1,2,3,0,1,2,3,0,1,2,3,0,1,2,3,0,1,2,3,0,1,2,3,0,1,2,3,0,1,2,3,0,1,2,3,0,1,2,3,0,1,2,3,0,1,2,3,0,1,2,3,0,1,2,3,0,1,2,3,0,1,2,3,0,1,2,3,0,1,2,3,0,1,2,3,0,1,2,3,0,1,2,3,0,1,2,3,0,1,2,3,0,1,2,3,0,1,2,3,0,1,2,3,0,1,2,3,0,1,2,3,0,1,2,3,0,1,2,3,0,1,2,3,0,1,2,3,0,1,2,3,0,1,2,3,0,1,2,3,0,1,2,3,0,1,2,3,0,1,2,3,0,1,2,3,0,1,2,3,0,1,2,3,0,1,2,3,0,1,2,3,0,1,2,3,0,1,2,3,0,1,2,3,0,1,2,3,0,1,2,3,0,1,2,3,0,1,2,3,0,1,2,3,0,1,2,3,0,1,2,3,0,1,2,3,0,1,2,3,0,1,2,3,0,1,2,3,0,1,2,3,0,1,2,3,0,1,2,3,0,1,2,3,0,1,2,3,0,1,2,3,0,1,2,3,0,1,2,3,0,1,2,3,0,1,2,3,0,1,2,3,0,1,2,3,0,1,2,3,0,1,2,3,0,1,2,3,0,1,2,3,0,1,2,3,0,1,2,3,0,1,2,3,0,1,2,3,0,1,2,3,0,1,2,3,0,1,2,3,0,1,2,3,0,1,2,3,0,1,2,3,0,1,2,3,0,1,2,3,0,1,2,3,0,1,2,3,0,1,2,3,0,1,2,3,0,1,2,3,0,1,2,3,0,1,2,3,0,1,2,3,0,1,2,3,0,1,2,3,0,1,2,3,0,1,2,3,0,1,2,3,0,1,2,3,0,1,2,3,0,1,2,3,0,1,2,3,0,1,2,3,0,1,2,3,0,1,2,3,0,1,2,3,0,1,2,3,0,1,2,3,0,1,2,3,0,1,2,3,0,1,2,3,0,1,2,3,0,1,2,3,0,1,2,3,0,1,2,3,0,1,2,3,0,1,2,3,0,1,2,3,0,1,2,3,0,1,2,3,0,1,2,3,0,1,2,3,0,1,2,3,0,1,2,3,0,1,2,3,0,1,2,3,0,1,2,3,0,1,2,3,0,1,2,3,0,1,2,3,0,1,2,3,0,1,2,3,0,1,2,3,0,1,2,3,0,1,2,3,0,1,2,3,0,1,2,3,0,1,2,3,0,1,2,3,0,1,2,3,0,1,2,3,0,1,2,3,0,1,2,3,0,1,2,3,0,1,2,3,0,1,2,3,0,1,2,3,0,1,2,3,0,1,2,3,0,1,2,3,0,1,2,3,0,1,2,3,0,1,2,3,0,1,2,3,0,1,2,3,0,1,2,3,0,1,2,3,0,1,2,3,0,1,2,3,0,1,2,3,0,1,2,3,0,1,2,3,0,1,2,3,0,1,2,3,0,1,2,3,0,1,2,3,0,1,2,3,0,1,2,3,0,1,2,3,0,1,2,3,0,1,2,3,0,1,2,3,0,1,2,3,0,1,2,3,0,1,2,3,0,1,2,3,0,1,2,3,0,1,2,3,0,1,2,3,0,1,2,3,0,1,2,3,0,1,2,3,0,1,2,3,0,1,2,3,0,1,2,3,0,1,2,3,0,1,2,3,0,1,2,3,0,1,2,3,0,1,2,3,0,1,2,3,0,1,2,3,0,1,2,3,0,1,2,3,0,1,2,3,0,1,2,3,0,1,2,3,0,1,2,3,0,1,2,3,0,1,2,3,0,1,2,3,0,1,2,3,0,1,2,3,0,1,2,3,0,1,2,3,0,1,2,3,0,1,2,3,0,1,2,3,0,1,2,3,0,1,2,3,0,1,2,3,0,1,2,3,0,1,2,3,0,1,2,3,0,1,2,3,0,1,2,3,0,1,2,3,0,1,2,3,0,1,2,3,0,1,2,3,0,1,2,3,0,1,2,3,0,1,2,3,0,1,2,3,0,1,2,3,0,1,2,3,0,1,2,3,0,1,2,3,0,1,2,3,0,1,2,3,0,1,2,3,0,1,2,3,0,1,2,3,0,1,2,3,0,1,2,3,0,1,2,3,0,1,2,3,0,1,2,3,0,1,2,3,0,1,2,3,0,1,2,3,0,1,2,3,0,1,2,3,0,1,2,3,0,1,2,3,0,1,2,3,0,1,2,3,0,1,2,3,0,1,2,3,0,1,2,3,0,1,2,3,0,1,2,3,0,1,2,3,0,1,2,3,0,1,2,3,0,1,2,3,0,1,2,3,0,1,2,3,0,1,2,3,0,1,2,3,0,1,2,3,0,1,2,3,0,1,2,3,0,1,2,3,0,1,2,3,0,1,2,3,0,1,2,3,0,1,2,3,0,1,2,3,0,1,2,3],"trees":[{"base_weights":[5.8651026E-3,1.5759135E0,-3.3274647E-2,9.9386506E-2,7.264297E-1,1.5073314E0,-1.4012739E-1,-0E0,1.56231E0,3.6144578E-1,-3.0962342E-1,8.163934E-2,2.5E-2,-1.06382985E-2,4.5454547E-2,1.1864407E-2,-2.3404256E-2],"categories":[],"categories_nodes":[],"categories_segments":[],"categories_sizes":[],"default_left":[0,0,0,0,0,0,0,0,0,0,0,0,0,0,0,0,0],"id":0,"left_children":[1,3,-1,-1,5,7,9,-1,11,13,15,-1,-1,-1,-1,-1,-1],"loss_changes":[8.547094E2,8.352136E1,0E0,0E0,5.4938995E1,3.5323792E0,3.4487379E0,0E0,2.2625656E0,3.4559903E0,2.7001736E0,0E0,0E0,0E0,0E0,0E0,0E0],"parents":[2147483647,0,0,1,1,4,4,5,5,6,6,8,8,9,9,10,10],"right_children":[2,4,-1,-1,6,8,10,-1,12,14,16,-1,-1,-1,-1,-1,-1],"split_conditions":[1E1,8E0,-3.3274647E-2,9.9386506E-2,9.3033805E-2,4.6497636E0,1.4392416E-1,-0E0,8.635663E0,1.305E3,2E0,8.163934E-2,2.5E-2,-1.06382985E-2,4.5454547E-2,1.1864407E-2,-2.3404256E-2],"split_indices":[14,14,0,0,13,6,13,0,6,15,8,0,0,0,0,0,0],"split_type":[0,0,0,0,0,0,0,0,0,0,0,0,0,0,0,0,0],"sum_hessian":[8.08875E2,2.41875E2,5.67E2,1.62E2,7.9875E1,4.1625E1,3.825E1,1.5E0,4.0125E1,9.375E0,2.8875E1,3.7125E1,3E0,4.875E0,4.5E0,6.375E0,2.25E1],"tree_param":{"num_deleted":"0","num_feature":"16","num_nodes":"17","size_leaf_vector":"1"}},{"base_weights":[3.3955858E-3,5.1884216E-1,-3.323894E-2,-3.313433E-2,1.1965666E0,1.4546561E0,5.726619E-1,6.2153846E-1,9.92008E-2,1.4407295E0,-2.0320855E-1,-5.1428573E-3,7.1428575E-2,7.887324E-2,2.4528302E-2,5.154639E-3,-2.5531916E-2],"categories":[],"categories_nodes":[],"categories_segments":[],"categories_sizes":[],"default_left":[0,0,0,0,0,0,0,0,0,0,0,0,0,0,0,0,0],"id":1,"left_children":[1,3,-1,-1,5,7,9,11,-1,13,15,-1,-1,-1,-1,-1,-1],"loss_changes":[2.792725E2,3.6733664E2,0E0,0E0,4.6065002E1,8.9341156E1,5.8803772E1,4.7646595E1,0E0,4.569145E0,4.4549103E0,0E0,0E0,0E0,0E0,0E0,0E0],"parents":[2147483647,0,0,1,1,4,4,5,5,6,6,7,7,9,9,10,10],"right_children":[2,4,-1,-1,6,8,10,12,-1,14,16,-1,-1,-1,-1,-1,-1],"split_conditions":[1.8E1,8E0,-3.323894E-2,-3.313433E-2,1.6E1,1E1,3.0279756E-1,9.3033805E-2,9.92008E-2,1E1,6E0,-5.1428573E-3,7.1428575E-2,7.887324E-2,2.4528302E-2,5.154639E-3,-2.5531916E-2],"split_indices":[14,14,0,0,14,14,13,13,0,7,7,0,0,0,0,0,0],"split_type":[0,0,0,0,0,0,0,0,0,0,0,0,0,0,0,0,0],"sum_hessian":[8.08875E2,4.5675E2,3.52125E2,1.665E2,2.9025E2,2.04375E2,8.5875E1,8.025E1,1.24125E2,4.0125E1,4.575E1,4.275E1,3.75E1,3.45E1,5.625E0,2.325E1,2.25E1],"tree_param":{"num_deleted":"0","num_feature":"16","num_nodes":"17","size_leaf_vector":"1"}},{"base_weights":[-2.1548406E-3,-3.3243336E-2,5.5223036E-1,1.2277315E0,-3.3123527E-2,1.474343E0,6.415094E-1,7.592319E-1,9.913886E-2,1.6847291E0,2.0242915E-1,-4.819277E-3,7.733711E-2,8.723404E-2,3.0434782E-2,2.781955E-2,-1.0169491E-2],"categories":[],"categories_nodes":[],"categories_segments":[],"categories_sizes":[],"default_left":[0,0,0,0,0,0,0,0,0,0,0,0,0,0,0,0,0],"id":2,"left_children":[1,-1,3,5,-1,7,9,11,-1,13,15,-1,-1,-1,-1,-1,-1],"loss_changes":[2.9873996E2,0E0,3.6410376E2,4.023831E1,0E0,7.112109E1,3.910914E1,5.7170048E1,0E0,5.749588E-1,8.983208E0,0E0,0E0,0E0,0E0,0E0,0E0],"parents":[2147483647,0,0,2,2,3,3,5,5,6,6,7,7,9,9,10,10],"right_children":[2,-1,4,6,-1,8,10,12,-1,14,16,-1,-1,-1,-1,-1,-1],"split_conditions":[1.6E1,-3.3243336E-2,2.6E1,2.4E1,-3.3123527E-2,1.8E1,3.8668075E-1,3.0279756E-1,9.913886E-2,4.7E1,5.904212E-1,-4.819277E-3,7.733711E-2,8.723404E-2,3.0434782E-2,2.781955E-2,-1.0169491E-2],"split_indices":[14,0,14,14,0,14,13,13,0,3,13,0,0,0,0,0,0],"split_type":[0,0,0,0,0,0,0,0,0,0,0,0,0,0,0,0,0],"sum_hessian":[8.11125E2,3.69375E2,4.4175E2,2.83875E2,1.57875E2,1.9875E2,8.5125E1,8.3625E1,1.15125E2,2.4375E1,6.075E1,4.05E1,4.3125E1,2.25E1,1.875E0,3.225E1,2.85E1],"tree_param":{"num_deleted":"0","num_feature":"16","num_nodes":"17","size_leaf_vector":"1"}},{"base_weights":[-1.0111843E-2,-3.327507E-2,1.5219612E0,6.355685E-1,9.9375E-2,-4.4334975E-1,1.0712831E0,-5.13089E-1,2.0000001E-2,7.352941E-1,1.4361234E0,-2.9545454E-2,1.3043478E-2,2.0958085E-2,5.7522126E-2,4.6938777E-2,8.540146E-2],"categories":[],"categories_nodes":[],"categories_segments":[],"categories_sizes":[],"default_left":[0,0,0,0,0,0,0,0,0,0,0,0,0,0,0,0,0],"id":3,"left_children":[1,-1,3,5,-1,7,9,11,-1,13,15,-1,-1,-1,-1,-1,-1],"loss_changes":[8.2023676E2,0E0,9.973297E1,4.0786068E1,0E0,1.6976557E0,6.467514E0,1.5921297E0,0E0,3.9800034E0,2.2337456E0,0E0,0E0,0E0,0E0,0E0,0E0],"parents":[2147483647,0,0,2,2,3,3,5,5,6,6,7,7,9,9,10,10],"right_children":[2,-1,4,6,-1,8,10,12,-1,14,16,-1,-1,-1,-1,-1,-1],"split_conditions":[2.4E1,-3.327507E-2,2.6E1,3.8668075E-1,9.9375E-2,4.7E1,5.904212E-1,1E1,2.0000001E-2,7E0,7E0,-2.9545454E-2,1.3043478E-2,2.0958085E-2,5.7522126E-2,4.6938777E-2,8.540146E-2],"split_indices":[14,0,14,13,0,3,13,4,0,4,8,0,0,0,0,0,0],"split_type":[0,0,0,0,0,0,0,0,0,0,0,0,0,0,0,0,0],"sum_hessian":[8.14875E2,5.71125E2,2.4375E2,8.475E1,1.59E2,2.4375E1,6.0375E1,2.2875E1,1.5E0,3.3E1,2.7375E1,2.1E1,1.875E0,1.9875E1,1.3125E1,1.125E1,1.6125E1],"tree_param":{"num_deleted":"0","num_feature":"16","num_nodes":"17","size_leaf_vector":"1"}},{"base_weights":[1.0454062E-3,1.431281E0,-3.2902535E-2,9.016803E-2,6.400919E-1,1.3197311E0,-1.10887915E-1,1.5405188E0,8.7846196E-1,4.6422103E-1,-3.1659415E-1,8.0052964E-2,4.331415E-3,6.670117E-2,1.5059607E-2,-2.4011863E-2,4.0369518E-2,9.444139E-3,-2.3381159E-2],"categories":[],"categories_nodes":[],"categories_segments":[],"categories_sizes":[],"default_left":[0,0,0,0,0,0,0,0,0,0,0,0,0,0,0,0,0,0,0],"id":4,"left_children":[1,3,-1,-1,5,7,9,11,13,15,17,-1,-1,-1,-1,-1,-1,-1,-1],"loss_changes":[7.7181616E2,7.488086E1,0E0,0E0,4.310346E1,2.958641E0,4.986313E0,2.3409576E0,4.0916224E0,4.011999E0,2.4338436E0,0E0,0E0,0E0,0E0,0E0,0E0,0E0,0E0],"parents":[2147483647,0,0,1,1,4,4,5,5,6,6,7,7,8,8,9,9,10,10],"right_children":[2,4,-1,-1,6,8,10,12,14,16,18,-1,-1,-1,-1,-1,-1,-1,-1],"split_conditions":[1E1,8E0,-3.2902535E-2,9.016803E-2,9.3033805E-2,8.947304E-3,1.4392416E-1,1E1,2.3E1,9.9E2,2E0,8.0052964E-2,4.331415E-3,6.670117E-2,1.5059607E-2,-2.4011863E-2,4.0369518E-2,9.444139E-3,-2.3381159E-2],"split_indices":[14,14,0,0,13,13,13,4,3,15,8,0,0,0,0,0,0,0,0],"split_type":[0,0,0,0,0,0,0,0,0,0,0,0,0,0,0,0,0,0,0],"sum_hessian":[8.167626E2,2.572846E2,5.5947797E2,1.7412022E2,8.316439E1,4.3258217E1,3.9906174E1,2.7171785E1,1.6086432E1,1.0182223E1,2.9723951E1,2.5988398E1,1.1833878E0,8.2583275E0,7.828104E0,2.6072435E0,7.57498E0,6.7803273E0,2.2943624E1],"tree_param":{"num_deleted":"0","num_feature":"16","num_nodes":"19","size_leaf_vector":"1"}},{"base_weights":[8.072161E-3,5.1572275E-1,-3.286808E-2,-3.2748733E-2,1.1268884E0,1.3724368E0,4.8258796E-1,6.531767E-1,9.002604E-2,1.2718742E0,-2.2972874E-1,-6.3013444E-3,6.797571E-2,6.625643E-2,-1.331228E-3,2.301052E-3,-2.087344E-2],"categories":[],"categories_nodes":[],"categories_segments":[],"categories_sizes":[],"default_left":[0,0,0,0,0,0,0,0,0,0,0,0,0,0,0,0,0],"id":5,"left_children":[1,3,-1,-1,5,7,9,11,-1,13,15,-1,-1,-1,-1,-1,-1],"loss_changes":[2.7222018E2,3.2779346E2,0E0,0E0,4.6908966E1,6.569275E1,4.780892E1,4.5632175E1,0E0,2.818245E0,2.3628635E0,0E0,0E0,0E0,0E0,0E0,0E0],"parents":[2147483647,0,0,1,1,4,4,5,5,6,6,7,7,9,9,10,10],"right_children":[2,4,-1,-1,6,8,10,12,-1,14,16,-1,-1,-1,-1,-1,-1],"split_conditions":[1.8E1,8E0,-3.286808E-2,-3.2748733E-2,1.6E1,1E1,3.0279756E-1,9.3033805E-2,9.002604E-2,4.9E1,4.074468E-1,-6.3013444E-3,6.797571E-2,6.625643E-2,-1.331228E-3,2.301052E-3,-2.087344E-2],"split_indices":[14,14,0,0,14,14,13,13,0,3,13,0,0,0,0,0,0],"split_type":[0,0,0,0,0,0,0,0,0,0,0,0,0,0,0,0,0],"sum_hessian":[8.038398E2,4.5610687E2,3.477329E2,1.5641664E2,2.9969025E2,2.1617426E2,8.351598E1,8.15989E1,1.3457535E2,3.924491E1,4.4271072E1,3.918886E1,4.2410034E1,3.7679096E1,1.5658127E0,1.8238098E1,2.6032976E1],"tree_param":{"num_deleted":"0","num_feature":"16","num_nodes":"17","size_leaf_vector":"1"}},{"base_weights":[5.216524E-3,-3.2866217E-2,5.303174E-1,1.1456203E0,-3.2745875E-2,1.358461E0,6.403419E-1,7.213876E-1,8.996054E-2,1.5276601E0,2.3108755E-1,-4.8337867E-3,6.911732E-2,8.174968E-2,3.408244E-2,2.7982974E-2,-8.231543E-3],"categories":[],"categories_nodes":[],"categories_segments":[],"categories_sizes":[],"default_left":[0,0,0,0,0,0,0,0,0,0,0,0,0,0,0,0,0],"id":6,"left_children":[1,-1,3,5,-1,7,9,11,-1,13,15,-1,-1,-1,-1,-1,-1],"loss_changes":[2.8210452E2,0E0,3.3064093E2,3.1192444E1,0E0,5.7352997E1,3.2421726E1,4.7221046E1,0E0,1.456192E0,8.276266E0,0E0,0E0,0E0,0E0,0E0,0E0],"parents":[2147483647,0,0,2,2,3,3,5,5,6,6,7,7,9,9,10,10],"right_children":[2,-1,4,6,-1,8,10,12,-1,14,16,-1,-1,-1,-1,-1,-1],"split_conditions":[1.6E1,-3.2866217E-2,2.6E1,2.4E1,-3.2745875E-2,1.8E1,3.8668075E-1,2.931527E-1,8.996054E-2,4.3E1,5.904212E-1,-4.8337867E-3,6.911732E-2,8.174968E-2,3.408244E-2,2.7982974E-2,-8.231543E-3],"split_indices":[14,0,14,14,0,14,13,13,0,3,13,0,0,0,0,0,0],"split_type":[0,0,0,0,0,0,0,0,0,0,0,0,0,0,0,0,0],"sum_hessian":[8.0887445E2,3.5752234E2,4.513521E2,2.9713226E2,1.5421983E2,2.0787822E2,8.9254036E1,8.608501E1,1.2179322E2,2.7309843E1,6.1944195E1,3.885197E1,4.7233032E1,2.340754E1,3.9023037E0,3.3617065E1,2.832713E1],"tree_param":{"num_deleted":"0","num_feature":"16","num_nodes":"17","size_leaf_vector":"1"}},{"base_weights":[1.5488212E-2,-3.2899294E-2,1.4298619E0,6.5781885E-1,9.017496E-2,-4.1738105E-1,1.0285133E0,-5.2916896E-1,2.5142783E-1,7.095592E-1,1.3545003E0,-3.121624E-2,1.2950979E-2,3.0217031E-2,-4.6135434E-3,5.3815436E-2,1.8514661E-2,4.2189594E-2,8.000947E-2],"categories":[],"categories_nodes":[],"categories_segments":[],"categories_sizes":[],"default_left":[0,0,0,0,0,0,0,0,0,0,0,0,0,0,0,0,0,0,0],"id":7,"left_children":[1,-1,3,5,-1,7,9,11,13,15,17,-1,-1,-1,-1,-1,-1,-1,-1],"loss_changes":[7.7866974E2,0E0,7.4877014E1,3.533161E1,0E0,1.864747E0,5.8395767E0,1.6742597E0,5.403258E-1,3.9762802E0,2.5704498E0,0E0,0E0,0E0,0E0,0E0,0E0,0E0,0E0],"parents":[2147483647,0,0,2,2,3,3,5,5,6,6,7,7,8,8,9,9,10,10],"right_children":[2,-1,4,6,-1,8,10,12,14,16,18,-1,-1,-1,-1,-1,-1,-1,-1],"split_conditions":[2.4E1,-3.2899294E-2,2.6E1,3.8668075E-1,9.017496E-2,4.3E1,5.904212E-1,1E1,4.5E1,6.0554366E0,7E0,-3.121624E-2,1.2950979E-2,3.0217031E-2,-4.6135434E-3,5.3815436E-2,1.8514661E-2,4.2189594E-2,8.000947E-2],"split_indices":[14,0,14,13,0,3,13,4,3,6,8,0,0,0,0,0,0,0,0],"split_type":[0,0,0,0,0,0,0,0,0,0,0,0,0,0,0,0,0,0,0],"sum_hessian":[8.154754E2,5.5279095E2,2.6268445E2,8.656878E1,1.7611568E2,2.2161976E1,6.440681E1,1.9167086E1,2.9948888E0,3.4160217E1,3.0246584E1,1.7287867E1,1.8792188E0,1.1034809E0,1.8914078E0,1.5371275E1,1.8788944E1,1.1264894E1,1.8981691E1],"tree_param":{"num_deleted":"0","num_feature":"16","num_nodes":"19","size_leaf_vector":"1"}},{"base_weights":[1.1218719E-3,1.4344147E0,-4.7448662E-1,1.619353E0,9.207085E-1,3.9293844E-1,-6.10385E-1,8.124958E-2,2.5810918E-2,1.26908E0,1.6053821E-1,8.780566E-1,-3.1440135E-2,-3.9617985E-1,-3.231927E-2,4.0378568E-1,1.390373E0,5.539003E-1,-3.5695395E-1,1.153039E0,4.7288123E-1,1.5983118E-1,-5.093091E-1,4.759263E-2,-1.1017382E-2,7.2777696E-2,1.9556735E-2,-1.883612E-3,4.041806E-2,1.1548952E-2,-2.7937004E-2,6.205904E-2,-2.0488812E-2,4.1248348E-2,-5.8103465E-3,3.454942E-2,-1.6514486E-2,2.618179E-4,-2.8025484E-2],"categories":[],"categories_nodes":[],"categories_segments":[],"categories_sizes":[],"default_left":[0,0,0,0,0,0,0,0,0,0,0,0,0,0,0,0,0,0,0,0,0,0,0,0,0,0,0,0,0,0,0,0,0,0,0,0,0,0,0],"id":8,"left_children":[1,3,5,7,9,11,13,-1,-1,15,17,19,-1,21,-1,23,25,27,29,31,33,35,37,-1,-1,-1,-1,-1,-1,-1,-1,-1,-1,-1,-1,-1,-1,-1,-1],"loss_changes":[5.5625836E2,1.782425E1,7.246541E1,8.276367E-2,1.4662281E1,4.198819E1,3.8317413E0,0E0,0E0,3.4635582E0,4.021864E0,5.816719E0,0E0,5.041518E0,0E0,2.3045793E0,1.5947189E0,1.6960976E0,1.1637021E0,5.0984573E0,5.235626E0,3.8970776E0,1.7354584E0,0E0,0E0,0E0,0E0,0E0,0E0,0E0,0E0,0E0,0E0,0E0,0E0,0E0,0E0,0E0,0E0],"parents":[2147483647,0,0,1,1,2,2,3,3,4,4,5,5,6,6,9,9,10,10,11,11,13,13,15,15,16,16,17,17,18,18,19,19,20,20,21,21,22,22],"right_children":[2,4,6,8,10,12,14,-1,-1,16,18,20,-1,22,-1,24,26,28,30,32,34,36,38,-1,-1,-1,-1,-1,-1,-1,-1,-1,-1,-1,-1,-1,-1,-1,-1],"split_conditions":[1.026E3,7.74E2,9.3033805E-2,3.5060957E-1,9.537676E-2,1.692E3,1.573E3,8.124958E-2,2.5810918E-2,5.1997347E0,6E0,2.3930209E-2,-3.1440135E-2,1.4392416E-1,-3.231927E-2,3E0,8.597877E0,5.8182096E0,8.82E2,9E0,2.8E1,1E0,1E0,4.759263E-2,-1.1017382E-2,7.2777696E-2,1.9556735E-2,-1.883612E-3,4.041806E-2,1.1548952E-2,-2.7937004E-2,6.205904E-2,-2.0488812E-2,4.1248348E-2,-5.8103465E-3,3.454942E-2,-1.6514486E-2,2.618179E-4,-2.8025484E-2],"split_indices":[15,15,13,13,13,15,15,0,0,6,8,13,0,13,0,8,6,6,15,8,0,12,4,0,0,0,0,0,0,0,0,0,0,0,0,0,0,0,0],"split_type":[0,0,0,0,0,0,0,0,0,0,0,0,0,0,0,0,0,0,0,0,0,0,0,0,0,0,0,0,0,0,0,0,0,0,0,0,0,0,0],"sum_hessian":[8.140051E2,2.0230952E2,6.1169556E2,1.4717357E2,5.5135963E1,8.2596886E1,5.290987E2,1.4595448E2,1.2190877E0,3.7349796E1,1.7786171E1,5.6101006E1,2.6495884E1,7.785576E1,4.5124292E2,5.124069E0,3.2225727E1,1.0065052E1,7.721118E0,3.232027E1,2.3780733E1,1.3093013E1,6.476275E1,2.4487138E0,2.6753552E0,2.9823647E1,2.4020796E0,3.2834995E0,6.7815523E0,1.9359055E0,5.7852125E0,3.0789564E1,1.5307083E0,1.4633927E1,9.146807E0,6.0867763E0,7.0062366E0,5.94234E0,5.8820404E1],"tree_param":{"num_deleted":"0","num_feature":"16","num_nodes":"39","size_leaf_vector":"1"}},{"base_weights":[7.689576E-3,5.000422E-1,-3.251027E-2,-3.2382455E-2,1.065205E0,1.2802887E0,4.9010998E-1,6.003617E-1,8.2518004E-2,8.183892E-1,7.029071E-2,1.8546585E-2,5.5611383E-2,5.258056E-2,2.3095101E-2,3.2544844E-2,-3.991995E-3],"categories":[],"categories_nodes":[],"categories_segments":[],"categories_sizes":[],"default_left":[0,0,0,0,0,0,0,0,0,0,0,0,0,0,0,0,0],"id":9,"left_children":[1,3,-1,-1,5,7,9,11,-1,13,15,-1,-1,-1,-1,-1,-1],"loss_changes":[2.5898227E2,2.973046E2,0E0,0E0,3.7319824E1,5.5035065E1,1.1674364E1,8.988058E0,0E0,3.4781704E0,3.4034247E0,0E0,0E0,0E0,0E0,0E0,0E0],"parents":[2147483647,0,0,1,1,4,4,5,5,6,6,7,7,9,9,10,10],"right_children":[2,4,-1,-1,6,8,10,12,-1,14,16,-1,-1,-1,-1,-1,-1],"split_conditions":[1.8E1,8E0,-3.251027E-2,-3.2382455E-2,1.6E1,1E1,6E0,6E0,8.2518004E-2,7E0,2E0,1.8546585E-2,5.5611383E-2,5.258056E-2,2.3095101E-2,3.2544844E-2,-3.991995E-3],"split_indices":[14,14,0,0,14,14,7,8,0,8,8,0,0,0,0,0,0],"split_type":[0,0,0,0,0,0,0,0,0,0,0,0,0,0,0,0,0],"sum_hessian":[7.975307E2,4.5629245E2,3.4123825E2,1.5050731E2,3.0578516E2,2.2165915E2,8.412601E1,7.9047874E1,1.4261127E2,4.6677208E1,3.7448803E1,5.5773556E1,2.3274315E1,2.7038248E1,1.9638962E1,7.0086045E0,3.0440197E1],"tree_param":{"num_deleted":"0","num_feature":"16","num_nodes":"17","size_leaf_vector":"1"}},{"base_weights":[-8.465675E-3,-3.2506254E-2,4.8374563E-1,1.0520136E0,-3.2383587E-2,1.2520311E0,5.751252E-1,6.187601E-1,8.246345E-2,1.4090667E0,1.8000673E-1,-7.4820407E-3,6.2094916E-2,3.426913E-3,7.3247634E-2,2.5441647E-2,-7.4250475E-3],"categories":[],"categories_nodes":[],"categories_segments":[],"categories_sizes":[],"default_left":[0,0,0,0,0,0,0,0,0,0,0,0,0,0,0,0,0],"id":10,"left_children":[1,-1,3,5,-1,7,9,11,-1,13,15,-1,-1,-1,-1,-1,-1],"loss_changes":[2.5306575E2,0E0,2.922251E2,2.810794E1,0E0,5.2327972E1,2.9781912E1,4.009507E1,0E0,2.0839882E0,6.880492E0,0E0,0E0,0E0,0E0,0E0,0E0],"parents":[2147483647,0,0,2,2,3,3,5,5,6,6,7,7,9,9,10,10],"right_children":[2,-1,4,6,-1,8,10,12,-1,14,16,-1,-1,-1,-1,-1,-1],"split_conditions":[1.6E1,-3.2506254E-2,2.6E1,2.4E1,-3.2383587E-2,1.8E1,3.8668075E-1,2.931527E-1,8.246345E-2,1.5E1,5.6802195E-1,-7.4820407E-3,6.2094916E-2,3.426913E-3,7.3247634E-2,2.5441647E-2,-7.4250475E-3],"split_indices":[14,0,14,14,0,14,13,13,0,0,13,0,0,0,0,0,0],"split_type":[0,0,0,0,0,0,0,0,0,0,0,0,0,0,0,0,0],"sum_hessian":[7.992712E2,3.4682297E2,4.524482E2,3.0122467E2,1.5122354E2,2.110713E2,9.0153366E1,8.2349144E1,1.2872217E2,2.8157547E1,6.199582E1,3.7216625E1,4.5132515E1,1.2159986E0,2.6941547E1,3.070856E1,3.1287258E1],"tree_param":{"num_deleted":"0","num_feature":"16","num_nodes":"17","size_leaf_vector":"1"}},{"base_weights":[-3.6429828E-3,-3.2540906E-2,1.3068762E0,5.943617E-1,8.262173E-2,-3.8252023E-1,9.455464E-1,-4.8318487E-1,2.4548951E-1,1.03938974E-1,1.0722871E0,-2.8426582E-2,1.2890125E-2,-2.0089446E-2,3.974237E-2,-2.6768893E-2,2.7985414E-2,4.1185036E-2,7.162237E-2],"categories":[],"categories_nodes":[],"categories_segments":[],"categories_sizes":[],"default_left":[0,0,0,0,0,0,0,0,0,0,0,0,0,0,0,0,0,0,0],"id":11,"left_children":[1,-1,3,5,-1,7,9,11,13,15,17,-1,-1,-1,-1,-1,-1,-1,-1],"loss_changes":[6.8717395E2,0E0,6.496484E1,3.0907299E1,0E0,1.6520624E0,6.9051094E0,1.4899487E0,1.7467084E0,3.1309903E0,3.9290771E0,0E0,0E0,0E0,0E0,0E0,0E0,0E0,0E0],"parents":[2147483647,0,0,2,2,3,3,5,5,6,6,7,7,8,8,9,9,10,10],"right_children":[2,-1,4,6,-1,8,10,12,14,16,18,-1,-1,-1,-1,-1,-1,-1,-1],"split_conditions":[2.4E1,-3.2540906E-2,2.6E1,3.8668075E-1,8.262173E-2,4.3E1,3E0,1E1,3.234E3,7E0,8E0,-2.8426582E-2,1.2890125E-2,-2.0089446E-2,3.974237E-2,-2.6768893E-2,2.7985414E-2,4.1185036E-2,7.162237E-2],"split_indices":[14,0,14,13,0,3,8,4,15,7,7,0,0,0,0,0,0,0,0],"split_type":[0,0,0,0,0,0,0,0,0,0,0,0,0,0,0,0,0,0,0],"sum_hessian":[8.082144E2,5.4137164E2,2.6684277E2,8.803712E1,1.7880565E2,2.3256325E1,6.478079E1,2.024227E1,3.014055E0,8.716951E0,5.6063843E1,1.8360275E1,1.881995E0,1.5070275E0,1.5070275E0,3.555255E0,5.161696E0,3.51145E1,2.0949347E1],"tree_param":{"num_deleted":"0","num_feature":"16","num_nodes":"19","size_leaf_vector":"1"}},{"base_weights":[1.5158185E-3,1.235926E0,-3.2230224E-2,7.682362E-2,5.5950767E-1,1.1672226E0,-1.573176E-1,1.3822695E0,7.5305057E-1,5.528352E-2,-5.4496574E-1,7.18497E-2,3.0348052E-3,5.7229202E-2,9.417215E-3,-1.8077342E-2,1.829691E-2,-3.025328E-2,-7.2512547E-3],"categories":[],"categories_nodes":[],"categories_segments":[],"categories_sizes":[],"default_left":[0,0,0,0,0,0,0,0,0,0,0,0,0,0,0,0,0,0,0],"id":12,"left_children":[1,3,-1,-1,5,7,9,11,13,15,17,-1,-1,-1,-1,-1,-1,-1,-1],"loss_changes":[6.438367E2,5.5525146E1,0E0,0E0,3.8037735E1,3.1581955E0,3.3885283E0,2.0706062E0,3.832735E0,3.6576564E0,2.613864E-1,0E0,0E0,0E0,0E0,0E0,0E0,0E0,0E0],"parents":[2147483647,0,0,1,1,4,4,5,5,6,6,7,7,8,8,9,9,10,10],"right_children":[2,4,-1,-1,6,8,10,12,14,16,18,-1,-1,-1,-1,-1,-1,-1,-1],"split_conditions":[1E1,8E0,-3.2230224E-2,7.682362E-2,9.3033805E-2,8.947304E-3,6E0,1E1,2.2E1,6.3564515E0,1.513E3,7.18497E-2,3.0348052E-3,5.7229202E-2,9.417215E-3,-1.8077342E-2,1.829691E-2,-3.025328E-2,-7.2512547E-3],"split_indices":[14,14,0,0,13,13,8,4,3,6,15,0,0,0,0,0,0,0,0],"split_type":[0,0,0,0,0,0,0,0,0,0,0,0,0,0,0,0,0,0,0],"sum_hessian":[8.0524133E2,2.7635446E2,5.288869E2,1.9045844E2,8.589601E1,4.6145855E1,3.975016E1,2.8836107E1,1.7309746E1,2.622484E1,1.3525321E1,2.7605658E1,1.2304484E0,9.615836E0,7.69391E0,1.1128719E1,1.509612E1,1.1312483E1,2.2128377E0],"tree_param":{"num_deleted":"0","num_feature":"16","num_nodes":"19","size_leaf_vector":"1"}},{"base_weights":[1.0132578E-2,4.7430658E-1,-3.2168113E-2,-3.2062385E-2,9.906538E-1,1.1781764E0,4.9849135E-1,5.3471863E-1,7.6484025E-2,1.1656768E0,-2.9386234E-1,-6.9271075E-3,6.037801E-2,7.475726E-2,4.5745175E-2,4.6545777E-2,-1.8747209E-2],"categories":[],"categories_nodes":[],"categories_segments":[],"categories_sizes":[],"default_left":[0,0,0,0,0,0,0,0,0,0,0,0,0,0,0,0,0],"id":13,"left_children":[1,3,-1,-1,5,7,9,11,-1,13,15,-1,-1,-1,-1,-1,-1],"loss_changes":[2.446032E2,2.7220984E2,0E0,0E0,2.9194061E1,5.1864807E1,4.8323486E1,3.8140495E1,0E0,2.7197266E0,4.548518E0,0E0,0E0,0E0,0E0,0E0,0E0],"parents":[2147483647,0,0,1,1,4,4,5,5,6,6,7,7,9,9,10,10],"right_children":[2,4,-1,-1,6,8,10,12,-1,14,16,-1,-1,-1,-1,-1,-1],"split_conditions":[1.8E1,8E0,-3.2168113E-2,-3.2062385E-2,1.6E1,1E1,3.2461324E-1,9.3033805E-2,7.6484025E-2,1.29074E-1,1E0,-6.9271075E-3,6.037801E-2,7.475726E-2,4.5745175E-2,4.6545777E-2,-1.8747209E-2],"split_indices":[14,14,0,0,14,14,13,13,0,13,7,0,0,0,0,0,0],"split_type":[0,0,0,0,0,0,0,0,0,0,0,0,0,0,0,0,0],"sum_hessian":[8.043729E2,4.7047275E2,3.3390018E2,1.4878496E2,3.216878E2,2.31926E2,8.9761795E1,8.282645E1,1.4909955E2,4.8474045E1,4.1287746E1,4.179725E1,4.1029194E1,1.880531E1,2.9668734E1,1.912802E0,3.9374947E1],"tree_param":{"num_deleted":"0","num_feature":"16","num_nodes":"17","size_leaf_vector":"1"}},{"base_weights":[7.4707074E-3,-3.2169454E-2,4.904492E-1,1.015805E0,-3.2032836E-2,1.1986103E0,5.589998E-1,6.814315E-1,7.6239415E-2,1.3068745E0,1.9992703E-1,-2.640498E-3,6.1012357E-2,7.008502E-2,2.5219178E-2,2.420501E-2,-1.3771898E-2],"categories":[],"categories_nodes":[],"categories_segments":[],"categories_sizes":[],"default_left":[0,0,0,0,0,0,0,0,0,0,0,0,0,0,0,0,0],"id":14,"left_children":[1,-1,3,5,-1,7,9,11,-1,13,15,-1,-1,-1,-1,-1,-1],"loss_changes":[2.540538E2,0E0,2.7632455E2,2.5815643E1,0E0,3.7025665E1,2.4585E1,3.5305973E1,0E0,1.563137E0,8.737093E0,0E0,0E0,0E0,0E0,0E0,0E0],"parents":[2147483647,0,0,2,2,3,3,5,5,6,6,7,7,9,9,10,10],"right_children":[2,-1,4,6,-1,8,10,12,-1,14,16,-1,-1,-1,-1,-1,-1],"split_conditions":[1.6E1,-3.2169454E-2,2.6E1,2.4E1,-3.2032836E-2,1.8E1,3.8668075E-1,3.0279756E-1,7.6239415E-2,4.3E1,8E0,-2.640498E-3,6.1012357E-2,7.008502E-2,2.5219178E-2,2.420501E-2,-1.3771898E-2],"split_indices":[14,0,14,14,0,14,13,13,0,3,7,0,0,0,0,0,0],"split_type":[0,0,0,0,0,0,0,0,0,0,0,0,0,0,0,0,0],"sum_hessian":[8.061807E2,3.4326547E2,4.6291522E2,3.1616876E2,1.4674648E2,2.2464568E2,9.152308E1,8.807906E1,1.365666E2,2.8832119E1,6.2690956E1,3.766083E1,5.0418236E1,2.5117445E1,3.714675E0,3.9224297E1,2.3466658E1],"tree_param":{"num_deleted":"0","num_feature":"16","num_nodes":"17","size_leaf_vector":"1"}},{"base_weights":[1.4744716E-3,-3.2202598E-2,1.2362201E0,5.6977373E-1,7.637466E-2,-3.3061698E-1,8.958306E-1,-5.2263045E-1,7.265775E-1,1.4948352E-1,1.0609759E0,1.666888E-3,-2.8271819E-2,5.7782162E-2,-5.8474772E-5,2.671071E-2,-1.422852E-2,3.8205422E-3,5.6780018E-2],"categories":[],"categories_nodes":[],"categories_segments":[],"categories_sizes":[],"default_left":[0,0,0,0,0,0,0,0,0,0,0,0,0,0,0,0,0,0,0],"id":15,"left_children":[1,-1,3,5,-1,7,9,11,13,15,17,-1,-1,-1,-1,-1,-1,-1,-1],"loss_changes":[6.4566156E2,0E0,5.3114502E1,2.5595306E1,0E0,5.1786394E0,7.6723976E0,5.0882673E-1,1.2666254E0,2.268714E0,3.7234612E0,0E0,0E0,0E0,0E0,0E0,0E0,0E0,0E0],"parents":[2147483647,0,0,2,2,3,3,5,5,6,6,7,7,8,8,9,9,10,10],"right_children":[2,-1,4,6,-1,8,10,12,14,16,18,-1,-1,-1,-1,-1,-1,-1,-1],"split_conditions":[2.4E1,-3.2202598E-2,2.6E1,4.0065578E-1,7.637466E-2,4.3E1,4E0,1E0,5.9674735E0,1E0,1.7E1,1.666888E-3,-2.8271819E-2,5.7782162E-2,-5.8474772E-5,2.671071E-2,-1.422852E-2,3.8205422E-3,5.6780018E-2],"split_indices":[14,0,14,13,0,3,8,8,6,9,0,0,0,0,0,0,0,0,0],"split_type":[0,0,0,0,0,0,0,0,0,0,0,0,0,0,0,0,0,0,0],"sum_hessian":[8.080541E2,5.309508E2,2.7710327E2,8.5174995E1,1.9192827E2,2.2640453E1,6.2534542E1,1.9588352E1,3.0521007E0,1.1675272E1,5.0859272E1,1.4161685E0,1.8172184E1,1.5501739E0,1.5019269E0,6.066964E0,5.6083074E0,3.7258453E0,4.7133427E1],"tree_param":{"num_deleted":"0","num_feature":"16","num_nodes":"19","size_leaf_vector":"1"}},{"base_weights":[-2.390449E-2,1.1592896E0,-3.190423E-2,7.14644E-2,5.708371E-1,1.1150725E0,-1.5231526E-1,6.2460023E-1,1.2670729E0,3.7082443E-1,-3.310117E-1,4.0725008E-2,-2.2875274E-2,6.533008E-2,2.9632577E-3,6.2269013E-2,8.6714E-4,3.7988436E-3,-2.4446053E-2],"categories":[],"categories_nodes":[],"categories_segments":[],"categories_sizes":[],"default_left":[0,0,0,0,0,0,0,0,0,0,0,0,0,0,0,0,0,0,0],"id":16,"left_children":[1,3,-1,-1,5,7,9,11,13,15,17,-1,-1,-1,-1,-1,-1,-1,-1],"loss_changes":[5.823058E2,4.268924E1,0E0,0E0,3.4719696E1,2.951847E0,3.7290328E0,3.218948E0,1.706192E0,3.1606188E0,1.9190884E0,0E0,0E0,0E0,0E0,0E0,0E0,0E0,0E0],"parents":[2147483647,0,0,1,1,4,4,5,5,6,6,7,7,8,8,9,9,10,10],"right_children":[2,4,-1,-1,6,8,10,12,14,16,18,-1,-1,-1,-1,-1,-1,-1,-1],"split_conditions":[1E1,8E0,-3.190423E-2,7.14644E-2,9.3033805E-2,5.8946247E0,3E0,6E0,8.98649E0,2E0,1.5E1,4.0725008E-2,-2.2875274E-2,6.533008E-2,2.9632577E-3,6.2269013E-2,8.6714E-4,3.7988436E-3,-2.4446053E-2],"split_indices":[14,14,0,0,13,6,7,8,6,8,3,0,0,0,0,0,0,0,0],"split_type":[0,0,0,0,0,0,0,0,0,0,0,0,0,0,0,0,0,0,0],"sum_hessian":[7.992898E2,2.7282178E2,5.26468E2,1.860349E2,8.678688E1,4.921005E1,3.757683E1,1.2851209E1,3.635884E1,9.293792E0,2.8283041E1,1.114301E1,1.7081983E0,3.5127407E1,1.2314332E0,1.9488703E0,7.344921E0,8.051168E0,2.0231873E1],"tree_param":{"num_deleted":"0","num_feature":"16","num_nodes":"19","size_leaf_vector":"1"}},{"base_weights":[-4.110663E-3,4.404355E-1,-3.1840634E-2,-3.172976E-2,9.335794E-1,1.0990337E0,4.7640592E-1,5.350128E-1,7.117345E-2,1.0310607E0,-1.9870375E-1,5.9748545E-5,6.213623E-2,6.599405E-2,3.489215E-2,4.5309972E-2,-1.3917758E-2],"categories":[],"categories_nodes":[],"categories_segments":[],"categories_sizes":[],"default_left":[0,0,0,0,0,0,0,0,0,0,0,0,0,0,0,0,0],"id":17,"left_children":[1,3,-1,-1,5,7,9,11,-1,13,15,-1,-1,-1,-1,-1,-1],"loss_changes":[2.2549245E2,2.5022371E2,0E0,0E0,2.392392E1,4.2524475E1,3.3026257E1,3.323751E1,0E0,3.7254066E0,3.805223E0,0E0,0E0,0E0,0E0,0E0,0E0],"parents":[2147483647,0,0,1,1,4,4,5,5,6,6,7,7,9,9,10,10],"right_children":[2,4,-1,-1,6,8,10,12,-1,14,16,-1,-1,-1,-1,-1,-1],"split_conditions":[1.8E1,8E0,-3.1840634E-2,-3.172976E-2,1.6E1,1E1,3.2461324E-1,1.2624429E-1,7.117345E-2,1.788466E-1,1E0,5.9748545E-5,6.213623E-2,6.599405E-2,3.489215E-2,4.5309972E-2,-1.3917758E-2],"split_indices":[14,14,0,0,14,14,13,13,0,13,7,0,0,0,0,0,0],"split_type":[0,0,0,0,0,0,0,0,0,0,0,0,0,0,0,0,0],"sum_hessian":[7.9971027E2,4.698737E2,3.2983658E2,1.4767099E2,3.222027E2,2.355511E2,8.665159E1,8.698293E1,1.4856818E2,4.728009E1,3.9371494E1,5.015406E1,3.682887E1,2.3741156E1,2.3538937E1,1.9496335E0,3.7421864E1],"tree_param":{"num_deleted":"0","num_feature":"16","num_nodes":"17","size_leaf_vector":"1"}},{"base_weights":[-2.5731558E-3,-3.184005E-2,4.516679E-1,9.388367E-1,-3.1700347E-2,1.1055212E0,5.260746E-1,6.0587966E-1,7.096641E-2,7.3227835E-1,9.0921484E-2,1.5455456E-2,4.6916347E-2,2.1447113E-2,5.7070624E-2,1.6676193E-2,-2.1266295E-2],"categories":[],"categories_nodes":[],"categories_segments":[],"categories_sizes":[],"default_left":[0,0,0,0,0,0,0,0,0,0,0,0,0,0,0,0,0],"id":18,"left_children":[1,-1,3,5,-1,7,9,11,-1,13,15,-1,-1,-1,-1,-1,-1],"loss_changes":[2.3208829E2,0E0,2.4887027E2,2.1738892E1,0E0,3.523163E1,8.478529E0,8.643246E0,0E0,7.5116425E0,4.1195307E0,0E0,0E0,0E0,0E0,0E0,0E0],"parents":[2147483647,0,0,2,2,3,3,5,5,6,6,7,7,9,9,10,10],"right_children":[2,-1,4,6,-1,8,10,12,-1,14,16,-1,-1,-1,-1,-1,-1],"split_conditions":[1.6E1,-3.184005E-2,2.6E1,2.4E1,-3.1700347E-2,1.8E1,8E0,6E0,7.096641E-2,6.503721E0,3.588E3,1.5455456E-2,4.6916347E-2,2.1447113E-2,5.7070624E-2,1.6676193E-2,-2.1266295E-2],"split_indices":[14,0,14,14,0,14,7,7,0,6,15,0,0,0,0,0,0],"split_type":[0,0,0,0,0,0,0,0,0,0,0,0,0,0,0,0,0],"sum_hessian":[8.036055E2,3.3519385E2,4.6841168E2,3.2342035E2,1.4499135E2,2.2918918E2,9.4231155E1,8.954572E1,1.3964346E2,6.347146E1,3.0759699E1,4.8331097E1,4.1214622E1,3.7624615E1,2.5846844E1,2.116669E1,9.593008E0],"tree_param":{"num_deleted":"0","num_feature":"16","num_nodes":"17","size_leaf_vector":"1"}},{"base_weights":[-3.1933757E-3,-3.187555E-2,1.1405215E0,5.574394E-1,7.1072884E-2,-3.435763E-1,8.7305766E-1,-4.7252643E-1,2.924411E-1,3.88007E-1,1.045939E0,-2.7892074E-2,1.0001729E-2,3.812827E-2,-8.114919E-3,2.7149587E-3,4.363649E-2,1.3156605E-2,5.712126E-2],"categories":[],"categories_nodes":[],"categories_segments":[],"categories_sizes":[],"default_left":[0,0,0,0,0,0,0,0,0,0,0,0,0,0,0,0,0,0,0],"id":19,"left_children":[1,-1,3,5,-1,7,9,11,13,15,17,-1,-1,-1,-1,-1,-1,-1,-1],"loss_changes":[5.752507E2,0E0,4.5545746E1,2.6924362E1,0E0,2.1889894E0,5.432083E0,1.326457E0,1.1569489E0,3.1687932E0,3.531433E0,0E0,0E0,0E0,0E0,0E0,0E0,0E0,0E0],"parents":[2147483647,0,0,2,2,3,3,5,5,6,6,7,7,8,8,9,9,10,10],"right_children":[2,-1,4,6,-1,8,10,12,14,16,18,-1,-1,-1,-1,-1,-1,-1,-1],"split_conditions":[2.4E1,-3.187555E-2,2.6E1,3.8668075E-1,7.1072884E-2,4.3E1,6E0,3.5E1,1E0,8E0,1.9E1,-2.7892074E-2,1.0001729E-2,3.812827E-2,-8.114919E-3,2.7149587E-3,4.363649E-2,1.3156605E-2,5.712126E-2],"split_indices":[14,0,14,13,0,3,8,0,5,7,0,0,0,0,0,0,0,0,0],"split_type":[0,0,0,0,0,0,0,0,0,0,0,0,0,0,0,0,0,0,0],"sum_hessian":[7.909236E2,5.0904428E2,2.818793E2,9.262359E1,1.8925572E2,2.4005363E1,6.8618225E1,2.0172516E1,3.8328466E0,1.888295E1,4.973528E1,1.8053041E1,2.1194751E0,1.5517104E0,2.2811363E0,1.1842198E1,7.0407505E0,5.8665175E0,4.386876E1],"tree_param":{"num_deleted":"0","num_feature":"16","num_nodes":"19","size_leaf_vector":"1"}},{"base_weights":[2.8861684E-3,1.1006908E0,-3.1586137E-2,6.690585E-2,5.545148E-1,1.0531985E0,-1.4269851E-1,1.2335501E0,7.033719E-1,-4.9623084E-1,1.3196476E-1,6.406254E-2,1.5416582E-3,5.546803E-2,8.5238395E-3,6.506098E-3,-2.7416809E-2,3.0026916E-2,-2.066957E-2],"categories":[],"categories_nodes":[],"categories_segments":[],"categories_sizes":[],"default_left":[0,0,0,0,0,0,0,0,0,0,0,0,0,0,0,0,0,0,0],"id":20,"left_children":[1,3,-1,-1,5,7,9,11,13,15,17,-1,-1,-1,-1,-1,-1,-1,-1],"loss_changes":[5.4761285E2,3.6596405E1,0E0,0E0,3.1077276E1,2.4117203E0,3.7527044E0,1.8519859E0,4.139599E0,6.2005234E-1,5.910981E0,0E0,0E0,0E0,0E0,0E0,0E0,0E0,0E0],"parents":[2147483647,0,0,1,1,4,4,5,5,6,6,7,7,8,8,9,9,10,10],"right_children":[2,4,-1,-1,6,8,10,12,14,16,18,-1,-1,-1,-1,-1,-1,-1,-1],"split_conditions":[1E1,8E0,-3.1586137E-2,6.690585E-2,9.3033805E-2,1.3172134E-3,6.3564515E0,1E1,2.3E1,3E0,7.8637915E0,6.406254E-2,1.5416582E-3,5.546803E-2,8.5238395E-3,6.506098E-3,-2.7416809E-2,3.0026916E-2,-2.066957E-2],"split_indices":[14,14,0,0,13,13,6,4,3,3,6,0,0,0,0,0,0,0,0],"split_type":[0,0,0,0,0,0,0,0,0,0,0,0,0,0,0,0,0,0,0],"sum_hessian":[7.840379E2,2.869357E2,4.971022E2,1.9898553E2,8.795018E1,5.097768E1,3.69725E1,3.1969677E1,1.9008001E1,1.5812623E1,2.1159878E1,3.0687296E1,1.2823812E0,1.0174641E1,8.833361E0,1.0994122E0,1.4713211E1,1.132671E1,9.833168E0],"tree_param":{"num_deleted":"0","num_feature":"16","num_nodes":"19","size_leaf_vector":"1"}},{"base_weights":[9.9776946E-5,4.2212525E-1,-3.152397E-2,-3.1400718E-2,8.69209E-1,1.0331943E0,4.024569E-1,4.8856512E-1,6.665926E-2,9.6912616E-1,-1.8858589E-1,-5.9568515E-4,5.879442E-2,6.035752E-2,3.196982E-2,4.856352E-3,-2.8318286E-2],"categories":[],"categories_nodes":[],"categories_segments":[],"categories_sizes":[],"default_left":[0,0,0,0,0,0,0,0,0,0,0,0,0,0,0,0,0],"id":21,"left_children":[1,3,-1,-1,5,7,9,11,-1,13,15,-1,-1,-1,-1,-1,-1],"loss_changes":[2.0903056E2,2.2146924E2,0E0,0E0,2.487767E1,3.919873E1,2.95069E1,3.0356821E1,0E0,2.7490578E0,4.77103E0,0E0,0E0,0E0,0E0,0E0,0E0],"parents":[2147483647,0,0,1,1,4,4,5,5,6,6,7,7,9,9,10,10],"right_children":[2,4,-1,-1,6,8,10,12,-1,14,16,-1,-1,-1,-1,-1,-1],"split_conditions":[1.8E1,8E0,-3.152397E-2,-3.1400718E-2,1.6E1,1E1,3.0279756E-1,1.3870886E-1,6.665926E-2,1.8351625E-1,7E0,-5.9568515E-4,5.879442E-2,6.035752E-2,3.196982E-2,4.856352E-3,-2.8318286E-2],"split_indices":[14,14,0,0,14,14,13,13,0,13,7,0,0,0,0,0,0],"split_type":[0,0,0,0,0,0,0,0,0,0,0,0,0,0,0,0,0],"sum_hessian":[7.834734E2,4.6954993E2,3.1392346E2,1.4009079E2,3.2945914E2,2.4290503E2,8.655412E1,8.720822E1,1.5569681E2,4.3861603E1,4.269252E1,5.1031776E1,3.6176445E1,2.3927717E1,1.9933887E1,2.473128E1,1.796124E1],"tree_param":{"num_deleted":"0","num_feature":"16","num_nodes":"17","size_leaf_vector":"1"}},{"base_weights":[7.60534E-5,-3.1524427E-2,4.3893757E-1,9.2163676E-1,-3.1384617E-2,1.0758531E0,5.2462035E-1,6.3803005E-1,6.647311E-2,1.2218311E0,1.9287102E-1,-3.999585E-3,5.5297565E-2,6.364828E-2,2.0509278E-2,2.48579E-2,-1.1040381E-2],"categories":[],"categories_nodes":[],"categories_segments":[],"categories_sizes":[],"default_left":[0,0,0,0,0,0,0,0,0,0,0,0,0,0,0,0,0],"id":22,"left_children":[1,-1,3,5,-1,7,9,11,-1,13,15,-1,-1,-1,-1,-1,-1],"loss_changes":[2.1966623E2,0E0,2.415553E2,1.9188873E1,0E0,2.4847107E1,2.1092878E1,2.9252361E1,0E0,7.0396805E-1,8.124251E0,0E0,0E0,0E0,0E0,0E0,0E0],"parents":[2147483647,0,0,2,2,3,3,5,5,6,6,7,7,9,9,10,10],"right_children":[2,-1,4,6,-1,8,10,12,-1,14,16,-1,-1,-1,-1,-1,-1],"split_conditions":[1.6E1,-3.1524427E-2,2.6E1,2.4E1,-3.1384617E-2,1.8E1,3.8668075E-1,2.931527E-1,6.647311E-2,1E1,7E0,-3.999585E-3,5.5297565E-2,6.364828E-2,2.0509278E-2,2.48579E-2,-1.1040381E-2],"split_indices":[14,0,14,14,0,14,13,13,0,4,4,0,0,0,0,0,0],"split_type":[0,0,0,0,0,0,0,0,0,0,0,0,0,0,0,0,0],"sum_hessian":[7.9179095E2,3.247489E2,4.6704205E2,3.2162698E2,1.4541508E2,2.3041508E2,9.121189E1,8.580307E1,1.4461203E2,2.8542799E1,6.266909E1,3.4181244E1,5.1621822E1,2.6316456E1,2.2263436E0,3.599251E1,2.6676579E1],"tree_param":{"num_deleted":"0","num_feature":"16","num_nodes":"17","size_leaf_vector":"1"}},{"base_weights":[9.1854455E-3,-3.1561542E-2,1.0951339E0,5.82518E-1,6.657164E-2,-3.8175902E-1,8.525317E-1,2.8842613E-2,-4.6462122E-1,5.702169E-1,1.1438339E0,-2.7718702E-2,1.4034661E-2,-6.5596425E-3,3.4269527E-2,2.263484E-2,6.0703445E-2],"categories":[],"categories_nodes":[],"categories_segments":[],"categories_sizes":[],"default_left":[0,0,0,0,0,0,0,0,0,0,0,0,0,0,0,0,0],"id":23,"left_children":[1,-1,3,5,-1,7,9,-1,11,13,15,-1,-1,-1,-1,-1,-1],"loss_changes":[5.484523E2,0E0,3.4660522E1,2.4821417E1,0E0,1.9577184E0,5.417816E0,0E0,1.5024228E0,3.279047E0,1.1655121E0,0E0,0E0,0E0,0E0,0E0,0E0],"parents":[2147483647,0,0,2,2,3,3,5,5,6,6,8,8,9,9,10,10],"right_children":[2,-1,4,6,-1,8,10,-1,12,14,16,-1,-1,-1,-1,-1,-1],"split_conditions":[2.4E1,-3.1561542E-2,2.6E1,3.7331292E-1,6.657164E-2,1.5E1,5.904212E-1,2.8842613E-2,3.5E1,2E1,1.8E1,-2.7718702E-2,1.4034661E-2,-6.5596425E-3,3.4269527E-2,2.263484E-2,6.0703445E-2],"split_indices":[14,0,14,13,0,0,13,0,0,0,0,0,0,0,0,0,0],"split_type":[0,0,0,0,0,0,0,0,0,0,0,0,0,0,0,0,0],"sum_hessian":[7.86625E2,4.9508017E2,2.9154486E2,9.3082054E1,1.984628E2,2.0272116E1,7.280994E1,1.1385813E0,1.9133535E1,3.847727E1,3.433267E1,1.7305721E1,1.8278141E0,5.4073434E0,3.3069923E1,3.8539467E0,3.0478724E1],"tree_param":{"num_deleted":"0","num_feature":"16","num_nodes":"17","size_leaf_vector":"1"}},{"base_weights":[-8.441875E-4,1.0359915E0,-3.1283267E-2,6.296773E-2,5.122751E-1,9.077875E-1,-3.5290787E-1,1.0576252E0,3.963504E-1,1.8615952E-1,-5.2727914E-1,-4.4722385E-3,5.5135336E-2,-2.4568832E-2,2.8538242E-2,5.5184275E-2,-2.651585E-2,-2.8438194E-2,7.5722276E-3],"categories":[],"categories_nodes":[],"categories_segments":[],"categories_sizes":[],"default_left":[0,0,0,0,0,0,0,0,0,0,0,0,0,0,0,0,0,0,0],"id":24,"left_children":[1,3,-1,-1,5,7,9,11,13,15,17,-1,-1,-1,-1,-1,-1,-1,-1],"loss_changes":[5.069043E2,3.3772583E1,0E0,0E0,3.099865E1,4.3171806E0,2.809658E0,2.5395355E0,2.6964633E0,5.7059464E0,7.071862E-1,0E0,0E0,0E0,0E0,0E0,0E0,0E0,0E0],"parents":[2147483647,0,0,1,1,4,4,5,5,6,6,7,7,8,8,9,9,10,10],"right_children":[2,4,-1,-1,6,8,10,12,14,16,18,-1,-1,-1,-1,-1,-1,-1,-1],"split_conditions":[1E1,8E0,-3.1283267E-2,6.296773E-2,1.4392416E-1,6E0,2E0,4.6497636E0,5.8946247E0,5E0,4.8E1,-4.4722385E-3,5.5135336E-2,-2.4568832E-2,2.8538242E-2,5.5184275E-2,-2.651585E-2,-2.8438194E-2,7.5722276E-3],"split_indices":[14,14,0,0,13,8,8,6,6,7,3,0,0,0,0,0,0,0,0],"split_type":[0,0,0,0,0,0,0,0,0,0,0,0,0,0,0,0,0,0,0],"sum_hessian":[7.804561E2,2.9322195E2,4.872342E2,2.0456932E2,8.865263E1,6.080624E1,2.7846392E1,4.6202248E1,1.4603992E1,6.789404E0,2.1056988E1,1.7099365E0,4.449231E1,2.0997057E0,1.2504287E1,2.7400446E0,4.0493593E0,1.9996765E1,1.0602243E0],"tree_param":{"num_deleted":"0","num_feature":"16","num_nodes":"19","size_leaf_vector":"1"}},{"base_weights":[-5.42849E-3,3.998792E-1,-3.1221686E-2,-3.1091485E-2,8.2043093E-1,9.6946263E-1,3.9490497E-1,4.4285563E-1,6.2755875E-2,9.9951535E-1,-2.388864E-1,-6.6779195E-3,4.750595E-2,5.2266635E-2,-5.1623946E-3,2.4666826E-3,-2.6478315E-2],"categories":[],"categories_nodes":[],"categories_segments":[],"categories_sizes":[],"default_left":[0,0,0,0,0,0,0,0,0,0,0,0,0,0,0,0,0],"id":25,"left_children":[1,3,-1,-1,5,7,9,11,-1,13,15,-1,-1,-1,-1,-1,-1],"loss_changes":[1.9774915E2,2.0517879E2,0E0,0E0,2.1043488E1,3.698195E1,3.4467575E1,2.6238554E1,0E0,2.427433E0,3.7473612E0,0E0,0E0,0E0,0E0,0E0,0E0],"parents":[2147483647,0,0,1,1,4,4,5,5,6,6,7,7,9,9,10,10],"right_children":[2,4,-1,-1,6,8,10,12,-1,14,16,-1,-1,-1,-1,-1,-1],"split_conditions":[1.8E1,8E0,-3.1221686E-2,-3.1091485E-2,1.6E1,1E1,3.0279756E-1,9.3033805E-2,6.2755875E-2,4.9E1,6E0,-6.6779195E-3,4.750595E-2,5.2266635E-2,-5.1623946E-3,2.4666826E-3,-2.6478315E-2],"split_indices":[14,14,0,0,14,14,13,13,0,3,7,0,0,0,0,0,0],"split_type":[0,0,0,0,0,0,0,0,0,0,0,0,0,0,0,0,0],"sum_hessian":[7.8620306E2,4.7532635E2,3.108767E2,1.3846184E2,3.3686453E2,2.4854018E2,8.832433E1,8.830309E1,1.6023709E2,4.490746E1,4.3416874E1,4.167903E1,4.6624058E1,4.3166084E1,1.7413754E0,2.2217587E1,2.119929E1],"tree_param":{"num_deleted":"0","num_feature":"16","num_nodes":"17","size_leaf_vector":"1"}},{"base_weights":[-3.150226E-3,-5.5228543E-1,2.805502E-1,-5.8166915E-1,1.7274208E-1,4.4741416E-1,-3.08775E-1,-3.0578995E-2,-3.6017123E-1,-2.496056E-2,6.0273147E-1,-1.7403325E-1,5.653975E-1,4.275969E-1,-4.2637846E-1,-5.0593233E-1,1.21364206E-1,-1.7885003E-2,8.348213E-1,-2.7386472E-1,8.6811537E-1,6.79451E-1,-1.7569E-1,8.733267E-1,-2.5918504E-2,-2.604063E-1,-5.938114E-1,-2.8495295E-2,-4.4286344E-3,-2.3277545E-2,2.560567E-2,1.1969024E-2,5.2082617E-2,-2.1516472E-2,1.0020853E-4,5.148093E-2,4.7367397E-3,3.63801E-2,2.2076823E-2,2.8409077E-2,-1.6392753E-2,4.989628E-2,2.8597141E-4,-2.3212582E-2,-3.2469647E-3,-5.1523065E-3,-3.0653788E-2],"categories":[],"categories_nodes":[],"categories_segments":[],"categories_sizes":[],"default_left":[0,0,0,0,0,0,0,0,0,0,0,0,0,0,0,0,0,0,0,0,0,0,0,0,0,0,0,0,0,0,0,0,0,0,0,0,0,0,0,0,0,0,0,0,0,0,0],"id":26,"left_children":[1,3,5,7,9,11,13,-1,15,-1,17,19,21,23,25,27,29,-1,31,33,35,37,39,41,-1,43,45,-1,-1,-1,-1,-1,-1,-1,-1,-1,-1,-1,-1,-1,-1,-1,-1,-1,-1,-1,-1],"loss_changes":[1.2155408E2,5.762726E0,5.072922E1,1.4735184E0,3.5147135E0,2.9525543E1,1.0064737E1,0E0,2.3670564E0,0E0,1.9115143E0,6.9798927E0,2.8649986E1,7.289489E0,2.5937595E0,6.2795925E-1,2.1738985E0,0E0,5.0528383E-1,2.5863252E0,6.40008E-1,3.0322266E0,5.3720665E0,1.2260008E0,0E0,2.019815E0,3.9491272E-1,0E0,0E0,0E0,0E0,0E0,0E0,0E0,0E0,0E0,0E0,0E0,0E0,0E0,0E0,0E0,0E0,0E0,0E0,0E0,0E0],"parents":[2147483647,0,0,1,1,2,2,3,3,4,4,5,5,6,6,8,8,10,10,11,11,12,12,13,13,14,14,15,15,16,16,18,18,19,19,20,20,21,21,22,22,23,23,25,25,26,26],"right_children":[2,4,6,8,10,12,14,-1,16,-1,18,20,22,24,26,28,30,-1,32,34,36,38,40,42,-1,44,46,-1,-1,-1,-1,-1,-1,-1,-1,-1,-1,-1,-1,-1,-1,-1,-1,-1,-1,-1,-1],"split_conditions":[1.596E3,4.382755E-1,3.99E3,2.6990774E-1,1.28E3,1.8351625E-1,4.0065578E-1,-3.0578995E-2,7E0,-2.496056E-2,4.4885993E0,3.297E3,6.249404E-1,4.785E3,4.785E3,1.512E3,1.248E3,-1.7885003E-2,1E0,1.21773235E-1,1.4753012E-1,4.3E1,2.232E3,9E0,-2.5918504E-2,6.0992675E0,4.1461632E-1,-2.8495295E-2,-4.4286344E-3,-2.3277545E-2,2.560567E-2,1.1969024E-2,5.2082617E-2,-2.1516472E-2,1.0020853E-4,5.148093E-2,4.7367397E-3,3.63801E-2,2.2076823E-2,2.8409077E-2,-1.6392753E-2,4.989628E-2,2.8597141E-4,-2.3212582E-2,-3.2469647E-3,-5.1523065E-3,-3.0653788E-2],"split_indices":[15,13,15,13,15,13,13,0,7,0,6,15,13,15,15,15,15,0,11,13,13,3,15,4,0,6,13,0,0,0,0,0,0,0,0,0,0,0,0,0,0,0,0,0,0,0,0],"split_type":[0,0,0,0,0,0,0,0,0,0,0,0,0,0,0,0,0,0,0,0,0,0,0,0,0,0,0,0,0,0,0,0,0,0,0,0,0,0,0,0,0,0,0,0,0,0,0],"sum_hessian":[7.782491E2,2.6478336E2,5.134657E2,2.546603E2,1.0123083E1,4.0034985E2,1.13115875E2,2.2281113E2,3.1849154E1,3.8873136E0,6.2357697E0,6.3803894E1,3.3654596E2,1.5214519E1,9.790135E1,2.4409664E1,7.4394884E0,1.1082804E0,5.127489E0,5.8898945E1,4.9049463E0,2.9173157E2,4.4814373E1,1.0393839E1,4.8206797E0,5.0448387E1,4.7452965E1,2.0848476E1,3.5611882E0,2.896876E0,4.542612E0,1.8780856E0,3.2494035E0,3.7225708E1,2.1673237E1,3.7835207E0,1.1214259E0,2.4091502E2,5.0816555E1,7.146098E0,3.7668278E1,8.957263E0,1.4365757E0,2.4021822E1,2.6426565E1,2.0321612E0,4.5420807E1],"tree_param":{"num_deleted":"0","num_feature":"16","num_nodes":"47","size_leaf_vector":"1"}},{"base_weights":[-1.3141541E-3,-3.125946E-2,1.0154977E0,5.072271E-1,6.26806E-2,-3.596959E-1,7.735354E-1,1.999873E-2,-4.2987573E-1,5.635905E-1,1.0634449E0,-2.7451849E-2,6.78877E-3,-2.0142721E-2,3.411399E-2,1.4086162E-2,5.79194E-2],"categories":[],"categories_nodes":[],"categories_segments":[],"categories_sizes":[],"default_left":[0,0,0,0,0,0,0,0,0,0,0,0,0,0,0,0,0],"id":27,"left_children":[1,-1,3,5,-1,7,9,-1,11,13,15,-1,-1,-1,-1,-1,-1],"loss_changes":[4.966908E2,0E0,3.5397186E1,2.2594477E1,0E0,1.4193733E0,3.9207268E0,0E0,1.5507746E0,5.4595633E0,1.9049988E0,0E0,0E0,0E0,0E0,0E0,0E0],"parents":[2147483647,0,0,2,2,3,3,5,5,6,6,8,8,9,9,10,10],"right_children":[2,-1,4,6,-1,8,10,-1,12,14,16,-1,-1,-1,-1,-1,-1],"split_conditions":[2.4E1,-3.125946E-2,2.6E1,3.8668075E-1,6.26806E-2,1.5E1,8E0,1.999873E-2,3.4E1,2E1,2.363E3,-2.7451849E-2,6.78877E-3,-2.0142721E-2,3.411399E-2,1.4086162E-2,5.79194E-2],"split_indices":[14,0,14,13,0,0,7,0,0,0,15,0,0,0,0,0,0],"split_type":[0,0,0,0,0,0,0,0,0,0,0,0,0,0,0,0,0],"sum_hessian":[7.8097424E2,4.8424564E2,2.967286E2,9.5662025E1,2.0106657E2,2.2398071E1,7.3263954E1,1.4967737E0,2.0901299E1,4.4199707E1,2.9064243E1,1.7288614E1,3.6126838E0,4.5725813E0,3.962713E1,3.577329E0,2.5486914E1],"tree_param":{"num_deleted":"0","num_feature":"16","num_nodes":"17","size_leaf_vector":"1"}},{"base_weights":[-9.691516E-3,9.777518E-1,-3.1007601E-2,5.9552222E-2,4.556635E-1,8.339881E-1,-4.0447897E-1,1.0958631E0,5.252586E-1,3.3846613E-2,-4.8789832E-1,2.4619155E-2,5.6789804E-2,-2.0039143E-2,3.4740645E-2,-2.190127E-2,2.3995638E-2,-1.2082484E-3,-2.8107882E-2],"categories":[],"categories_nodes":[],"categories_segments":[],"categories_sizes":[],"default_left":[0,0,0,0,0,0,0,0,0,0,0,0,0,0,0,0,0,0,0],"id":28,"left_children":[1,3,-1,-1,5,7,9,11,13,15,17,-1,-1,-1,-1,-1,-1,-1,-1],"loss_changes":[4.652316E2,3.229187E1,0E0,0E0,2.869421E1,4.3438683E0,1.014483E0,2.1195221E-1,4.9647713E0,1.3255584E0,7.782564E-1,0E0,0E0,0E0,0E0,0E0,0E0,0E0,0E0],"parents":[2147483647,0,0,1,1,4,4,5,5,6,6,7,7,8,8,9,9,10,10],"right_children":[2,4,-1,-1,6,8,10,12,14,16,18,-1,-1,-1,-1,-1,-1,-1,-1],"split_conditions":[1E1,8E0,-3.1007601E-2,5.9552222E-2,1.3870886E-1,8.947304E-3,1.7E1,5.1997347E0,9.13E2,1E0,8.82E2,2.4619155E-2,5.6789804E-2,-2.0039143E-2,3.4740645E-2,-2.190127E-2,2.3995638E-2,-1.2082484E-3,-2.8107882E-2],"split_indices":[14,14,0,0,13,13,0,6,15,5,15,0,0,0,0,0,0,0,0],"split_type":[0,0,0,0,0,0,0,0,0,0,0,0,0,0,0,0,0,0,0],"sum_hessian":[7.6978467E2,2.938574E2,4.759273E2,2.077162E2,8.61412E1,5.984807E1,2.629313E1,3.1001728E1,2.884634E1,4.298898E0,2.1994232E1,2.75143E0,2.8250298E1,4.2532024E0,2.4593136E1,2.0977814E0,2.2011166E0,3.2188187E0,1.8775414E1],"tree_param":{"num_deleted":"0","num_feature":"16","num_nodes":"19","size_leaf_vector":"1"}},{"base_weights":[1.6568553E-3,3.9586195E-1,-3.0954046E-2,-3.0797735E-2,8.0003333E-1,4.3483588E-1,9.2822313E-1,-3.6597562E-1,7.4685687E-1,5.965019E-2,4.3297312E-1,-2.6095664E-2,5.2049714E-3,1.9505871E-2,5.157469E-2,4.8386417E-2,-1.0446595E-2],"categories":[],"categories_nodes":[],"categories_segments":[],"categories_sizes":[],"default_left":[0,0,0,0,0,0,0,0,0,0,0,0,0,0,0,0,0],"id":29,"left_children":[1,3,-1,-1,5,7,9,11,13,-1,15,-1,-1,-1,-1,-1,-1],"loss_changes":[1.9183994E2,1.9657593E2,0E0,0E0,1.5656433E1,2.3014738E1,3.266577E1,1.9741027E0,6.281357E0,0E0,3.1001554E1,0E0,0E0,0E0,0E0,0E0,0E0],"parents":[2147483647,0,0,1,1,4,4,5,5,6,6,7,7,8,8,10,10],"right_children":[2,4,-1,-1,6,8,10,12,14,-1,16,-1,-1,-1,-1,-1,-1],"split_conditions":[1.8E1,8E0,-3.0954046E-2,-3.0797735E-2,1E1,8.947304E-3,1.6E1,6E0,1.4392416E-1,5.965019E-2,3.0279756E-1,-2.6095664E-2,5.2049714E-3,1.9505871E-2,5.157469E-2,4.8386417E-2,-1.0446595E-2],"split_indices":[14,14,0,0,14,13,14,8,13,0,13,0,0,0,0,0,0],"split_type":[0,0,0,0,0,0,0,0,0,0,0,0,0,0,0,0,0],"sum_hessian":[7.8198505E2,4.7848264E2,3.035024E2,1.3642572E2,3.420569E2,9.001294E1,2.5204396E2,2.518975E1,6.482319E1,1.6331845E2,8.872551E1,1.8832262E1,6.3574886E0,2.9819971E1,3.5003223E1,4.8125637E1,4.059987E1],"tree_param":{"num_deleted":"0","num_feature":"16","num_nodes":"17","size_leaf_vector":"1"}},{"base_weights":[-3.0495052E-3,-3.0991936E-2,4.0396395E-1,8.153752E-1,-3.0926028E-2,8.7790877E-1,-4.0925972E-2,5.584564E-1,1.0159947E0,5.2093983E-2,-3.6644396E-1,-4.114752E-3,5.0046682E-2,6.0301404E-2,3.2309197E-2,2.0655537E-2,-2.2756245E-2],"categories":[],"categories_nodes":[],"categories_segments":[],"categories_sizes":[],"default_left":[0,0,0,0,0,0,0,0,0,0,0,0,0,0,0,0,0],"id":30,"left_children":[1,-1,3,5,-1,7,9,11,13,-1,15,-1,-1,-1,-1,-1,-1],"loss_changes":[1.9670088E2,0E0,1.9907648E2,1.8083618E1,0E0,1.3290176E1,8.803606E0,2.7592234E1,1.4549042E1,0E0,1.5091646E0,0E0,0E0,0E0,0E0,0E0,0E0],"parents":[2147483647,0,0,2,2,3,3,5,5,6,6,7,7,8,8,10,10],"right_children":[2,-1,4,6,-1,8,10,12,14,-1,16,-1,-1,-1,-1,-1,-1],"split_conditions":[1.6E1,-3.0991936E-2,2.6E1,6.5272653E-1,-3.0926028E-2,1.8E1,2.4E1,2.931527E-1,2.4E1,5.2093983E-2,2E0,-4.114752E-3,5.0046682E-2,6.0301404E-2,3.2309197E-2,2.0655537E-2,-2.2756245E-2],"split_indices":[14,0,14,13,0,14,14,13,14,0,4,0,0,0,0,0,0],"split_type":[0,0,0,0,0,0,0,0,0,0,0,0,0,0,0,0,0],"sum_hessian":[7.81542E2,3.104947E2,4.710473E2,3.3603955E2,1.3500775E2,3.13146E2,2.2893528E1,9.603042E1,2.1711559E2,4.782916E0,1.8110611E1,3.955901E1,5.647141E1,1.4192427E2,7.519132E1,1.4761386E0,1.6634474E1],"tree_param":{"num_deleted":"0","num_feature":"16","num_nodes":"17","size_leaf_vector":"1"}},{"base_weights":[-7.4874284E-3,-3.0990515E-2,9.591467E-1,4.5501775E-1,5.958996E-2,2.503394E-1,8.1062603E-1,5.677702E-2,7.114228E-1,5.261572E-1,1.0742811E0,1.688021E-2,-1.41789755E-2,-8.668426E-3,4.8716415E-2,4.1356087E-2,5.994014E-3,5.7009906E-2,2.6077552E-2],"categories":[],"categories_nodes":[],"categories_segments":[],"categories_sizes":[],"default_left":[0,0,0,0,0,0,0,0,0,0,0,0,0,0,0,0,0,0,0],"id":31,"left_children":[1,-1,3,5,-1,7,9,11,13,15,17,-1,-1,-1,-1,-1,-1,-1,-1],"loss_changes":[4.603616E2,0E0,3.4834686E1,6.847208E0,0E0,5.575492E0,2.0551586E0,4.4356885E0,4.4765987E0,2.1953979E0,3.0994415E-2,0E0,0E0,0E0,0E0,0E0,0E0,0E0,0E0],"parents":[2147483647,0,0,2,2,3,3,5,5,6,6,7,7,8,8,9,9,10,10],"right_children":[2,-1,4,6,-1,8,10,12,14,16,18,-1,-1,-1,-1,-1,-1,-1,-1],"split_conditions":[2.4E1,-3.0990515E-2,2.6E1,8E0,5.958996E-2,4.1E1,8E0,6.503721E0,4E0,1E0,4E0,1.688021E-2,-1.41789755E-2,-8.668426E-3,4.8716415E-2,4.1356087E-2,5.994014E-3,5.7009906E-2,2.6077552E-2],"split_indices":[14,0,14,7,0,3,8,6,8,9,2,0,0,0,0,0,0,0,0],"split_type":[0,0,0,0,0,0,0,0,0,0,0,0,0,0,0,0,0,0,0],"sum_hessian":[7.7577515E2,4.7514755E2,3.006276E2,9.586211E1,2.0476549E2,6.1924206E1,3.3937897E1,4.4405823E1,1.7518381E1,1.7765528E1,1.6172369E1,2.4335094E1,2.007073E1,4.0909896E0,1.3427393E1,9.61041E0,8.155119E0,1.3499596E1,2.6727738E0],"tree_param":{"num_deleted":"0","num_feature":"16","num_nodes":"19","size_leaf_vector":"1"}},{"base_weights":[9.0240814E-5,9.364232E-1,-3.0730808E-2,5.6568366E-2,4.66493E-1,7.8913504E-1,-2.9591218E-1,1.0451429E0,4.9029866E-1,-5.204952E-1,-7.1904235E-2,5.7967246E-2,2.8749332E-2,3.837293E-2,-2.650323E-3,-2.948809E-2,8.193825E-3,1.7556682E-2,-2.2166947E-2],"categories":[],"categories_nodes":[],"categories_segments":[],"categories_sizes":[],"default_left":[0,0,0,0,0,0,0,0,0,0,0,0,0,0,0,0,0,0,0],"id":32,"left_children":[1,3,-1,-1,5,7,9,11,13,15,17,-1,-1,-1,-1,-1,-1,-1,-1],"loss_changes":[4.3986304E2,2.7218689E1,0E0,0E0,2.2496572E1,4.373646E0,1.3530753E0,1.132885E0,4.7617435E0,7.433245E-1,2.5122867E0,0E0,0E0,0E0,0E0,0E0,0E0,0E0,0E0],"parents":[2147483647,0,0,1,1,4,4,5,5,6,6,7,7,8,8,9,9,10,10],"right_children":[2,4,-1,-1,6,8,10,12,14,16,18,-1,-1,-1,-1,-1,-1,-1,-1],"split_conditions":[1E1,8E0,-3.0730808E-2,5.6568366E-2,1.4392416E-1,8.947304E-3,1E0,6E0,3E1,4.8E1,3E0,5.7967246E-2,2.8749332E-2,3.837293E-2,-2.650323E-3,-2.948809E-2,8.193825E-3,1.7556682E-2,-2.2166947E-2],"split_indices":[14,14,0,0,13,13,5,8,3,3,8,0,0,0,0,0,0,0,0],"split_type":[0,0,0,0,0,0,0,0,0,0,0,0,0,0,0,0,0,0,0],"sum_hessian":[7.622219E2,3.018756E2,4.6034628E2,2.1236948E2,8.950614E1,6.286659E1,2.6639553E1,3.2514565E1,3.0352026E1,1.2641772E1,1.399778E1,2.4980797E1,7.533766E0,1.9825657E1,1.052637E1,1.1605409E1,1.0363635E0,6.5698457E0,7.4279346E0],"tree_param":{"num_deleted":"0","num_feature":"16","num_nodes":"19","size_leaf_vector":"1"}},{"base_weights":[-7.6712943E-3,3.7167126E-1,-3.0680839E-2,-3.0512858E-2,7.5190616E-1,9.0083706E-1,3.5193595E-1,4.517286E-1,5.6619592E-2,5.16808E-1,6.955257E-2,1.3732758E-2,4.131665E-2,6.634883E-3,3.0972583E-2,1.327607E-2,-1.4256895E-2],"categories":[],"categories_nodes":[],"categories_segments":[],"categories_sizes":[],"default_left":[0,0,0,0,0,0,0,0,0,0,0,0,0,0,0,0,0],"id":33,"left_children":[1,3,-1,-1,5,7,9,11,-1,13,15,-1,-1,-1,-1,-1,-1],"loss_changes":[1.7835246E2,1.7862599E2,0E0,0E0,2.0200455E1,2.5522354E1,4.3914604E0,5.5325317E0,0E0,2.2788677E0,2.5926652E0,0E0,0E0,0E0,0E0,0E0,0E0],"parents":[2147483647,0,0,1,1,4,4,5,5,6,6,7,7,9,9,10,10],"right_children":[2,4,-1,-1,6,8,10,12,-1,14,16,-1,-1,-1,-1,-1,-1],"split_conditions":[1.8E1,8E0,-3.0680839E-2,-3.0512858E-2,1.6E1,1E1,7E0,6E0,5.6619592E-2,1.9E1,3.2E1,1.3732758E-2,4.131665E-2,6.634883E-3,3.0972583E-2,1.327607E-2,-1.4256895E-2],"split_indices":[14,14,0,0,14,14,8,8,0,0,3,0,0,0,0,0,0],"split_type":[0,0,0,0,0,0,0,0,0,0,0,0,0,0,0,0,0],"sum_hessian":[7.739226E2,4.7619495E2,2.9772766E2,1.3275641E2,3.4343854E2,2.4934236E2,9.4096176E1,8.582759E1,1.6351477E2,5.8885307E1,3.521087E1,5.945617E1,2.6371424E1,1.2900859E1,4.5984447E1,2.2841942E1,1.2368926E1],"tree_param":{"num_deleted":"0","num_feature":"16","num_nodes":"17","size_leaf_vector":"1"}},{"base_weights":[3.2161851E-3,-3.0712325E-2,3.974129E-1,7.864662E-1,-3.0626824E-2,8.2713145E-1,-3.1391132E-1,2.0330545E-2,8.835813E-1,3.996384E-2,-5.141541E-1,-2.4311913E-2,5.2056868E-2,4.999697E-2,2.7943442E-2,6.4358003E-3,-2.9709399E-2],"categories":[],"categories_nodes":[],"categories_segments":[],"categories_sizes":[],"default_left":[0,0,0,0,0,0,0,0,0,0,0,0,0,0,0,0,0],"id":34,"left_children":[1,-1,3,5,-1,7,9,11,13,-1,15,-1,-1,-1,-1,-1,-1],"loss_changes":[1.8850607E2,0E0,1.8621178E2,1.5548553E1,0E0,1.5001083E1,3.2868395E0,1.218672E1,1.1085266E1,0E0,6.7039895E-1,0E0,0E0,0E0,0E0,0E0,0E0],"parents":[2147483647,0,0,2,2,3,3,5,5,6,6,7,7,8,8,10,10],"right_children":[2,-1,4,6,-1,8,10,12,14,-1,16,-1,-1,-1,-1,-1,-1],"split_conditions":[1.6E1,-3.0712325E-2,2.6E1,7.2070754E-1,-3.0626824E-2,1.21773235E-1,2.025E3,1.8E1,2.4E1,3.996384E-2,6E0,-2.4311913E-2,5.2056868E-2,4.999697E-2,2.7943442E-2,6.4358003E-3,-2.9709399E-2],"split_indices":[14,0,14,13,0,13,15,14,14,0,3,0,0,0,0,0,0],"split_type":[0,0,0,0,0,0,0,0,0,0,0,0,0,0,0,0,0],"sum_hessian":[7.724618E2,3.0077496E2,4.716868E2,3.4067358E2,1.310132E2,3.287719E2,1.1901689E1,2.1588047E1,3.0718387E2,1.3584216E0,1.0543267E1,1.4778155E1,6.8098917E0,2.2461534E2,8.256852E1,1.0999199E0,9.443347E0],"tree_param":{"num_deleted":"0","num_feature":"16","num_nodes":"17","size_leaf_vector":"1"}},{"base_weights":[-1.4134265E-3,-4.7306326E-1,6.8311137E-1,-5.653825E-1,4.0703797E-1,-3.8394845E-1,8.0808425E-1,-3.067935E-2,-3.7443256E-1,-3.3217725E-1,6.343112E-1,-2.936751E-2,-3.8464896E-2,5.694011E-1,1.0322741E0,-5.40223E-1,-1.3235448E-1,-4.7277376E-1,1.9649731E-2,8.7643313E-1,2.8509188E-1,-4.5347095E-1,4.977615E-1,3.46915E-1,9.8835254E-1,5.795314E-1,1.0479984E0,-2.855258E-2,-7.5452784E-3,-2.4905777E-2,3.76634E-3,-2.7595876E-2,2.2508015E-3,-4.675791E-4,4.7377095E-2,-4.3765265E-3,2.9538482E-2,6.048892E-3,-2.7944848E-2,3.812815E-2,-1.6902559E-2,-5.235276E-3,2.3210771E-2,4.18903E-2,5.6516297E-2,7.7818045E-3,4.38089E-2,3.5216335E-2,5.3577434E-2],"categories":[],"categories_nodes":[],"categories_segments":[],"categories_sizes":[],"default_left":[0,0,0,0,0,0,0,0,0,0,0,0,0,0,0,0,0,0,0,0,0,0,0,0,0,0,0,0,0,0,0,0,0,0,0,0,0,0,0,0,0,0,0,0,0,0,0,0,0],"id":35,"left_children":[1,3,5,7,9,11,13,-1,15,17,19,-1,21,23,25,27,29,31,-1,33,35,37,39,41,43,45,47,-1,-1,-1,-1,-1,-1,-1,-1,-1,-1,-1,-1,-1,-1,-1,-1,-1,-1,-1,-1,-1,-1],"loss_changes":[2.4696207E2,3.7026924E1,4.192273E1,3.5469818E0,7.5318003E0,2.3239894E0,1.4376556E1,0E0,3.3506594E0,1.2974901E0,2.5973434E0,0E0,3.217633E0,1.2490269E1,4.1049194E-1,5.17334E-1,2.7709424E0,4.1771126E-1,0E0,1.2310524E0,1.7909442E0,5.582988E-1,1.6615007E0,4.893983E0,6.2129974E-2,7.484026E-1,3.5360718E-1,0E0,0E0,0E0,0E0,0E0,0E0,0E0,0E0,0E0,0E0,0E0,0E0,0E0,0E0,0E0,0E0,0E0,0E0,0E0,0E0,0E0,0E0],"parents":[2147483647,0,0,1,1,2,2,3,3,4,4,5,5,6,6,8,8,9,9,10,10,12,12,13,13,14,14,15,15,16,16,17,17,19,19,20,20,21,21,22,22,23,23,24,24,25,25,26,26],"right_children":[2,4,6,8,10,12,14,-1,16,18,20,-1,22,24,26,28,30,32,-1,34,36,38,40,42,44,46,48,-1,-1,-1,-1,-1,-1,-1,-1,-1,-1,-1,-1,-1,-1,-1,-1,-1,-1,-1,-1,-1,-1],"split_conditions":[4.2624655E-1,3.48E3,2.232E3,2.268E3,2.84667E-1,1.968E3,3.751E3,-3.067935E-2,7E0,8E0,6.4039655E0,-2.936751E-2,3.1E1,6.249404E-1,1.5E1,3.8E1,2.8085417E-1,4.2E1,1.9649731E-2,4.2423654E0,2.8E1,5.032398E0,2.128E3,2.1E1,7.2070754E-1,4.29E3,4.5436317E-1,-2.855258E-2,-7.5452784E-3,-2.4905777E-2,3.76634E-3,-2.7595876E-2,2.2508015E-3,-4.675791E-4,4.7377095E-2,-4.3765265E-3,2.9538482E-2,6.048892E-3,-2.7944848E-2,3.812815E-2,-1.6902559E-2,-5.235276E-3,2.3210771E-2,4.18903E-2,5.6516297E-2,7.7818045E-3,4.38089E-2,3.5216335E-2,5.3577434E-2],"split_indices":[13,15,15,15,13,15,15,0,4,4,6,0,0,13,0,0,13,3,0,6,0,6,15,0,13,15,13,0,0,0,0,0,0,0,0,0,0,0,0,0,0,0,0,0,0,0,0,0,0],"split_type":[0,0,0,0,0,0,0,0,0,0,0,0,0,0,0,0,0,0,0,0,0,0,0,0,0,0,0,0,0,0,0,0,0,0,0,0,0,0,0,0,0,0,0,0,0,0,0,0,0],"sum_hessian":[7.629285E2,4.518824E2,3.1104614E2,4.0930545E2,4.2576954E1,3.2392868E1,2.7865326E2,3.2503757E2,8.426786E1,9.903584E0,3.267337E1,1.9948315E1,1.2444552E1,1.3667857E2,1.4197469E2,4.928367E1,3.498419E1,8.586822E0,1.3167622E0,1.8403856E1,1.4269514E1,7.1022105E0,5.3423424E0,9.046486E1,4.621372E1,6.0360885E0,1.359386E2,4.523489E1,4.0487776E0,1.2163609E1,2.2820583E1,7.391176E0,1.1956452E0,1.4321687E0,1.697169E1,6.752203E0,7.517311E0,1.0784425E0,6.023768E0,4.1235585E0,1.2187836E0,1.8674232E1,7.179063E1,2.5779089E1,2.043463E1,3.1127515E0,2.9233367E0,1.0699975E1,1.25238625E2],"tree_param":{"num_deleted":"0","num_feature":"16","num_nodes":"49","size_leaf_vector":"1"}},{"base_weights":[-2.7806023E-3,8.9218855E-1,-3.0470163E-2,5.39213E-2,4.4152597E-1,8.322505E-1,-1.5445554E-1,-5.389968E-3,8.647964E-1,3.3509618E-1,-2.9136786E-1,4.8673272E-2,3.0282063E-2,3.3996366E-2,-2.2810599E-2,3.8891006E-3,-2.5212912E-2],"categories":[],"categories_nodes":[],"categories_segments":[],"categories_sizes":[],"default_left":[0,0,0,0,0,0,0,0,0,0,0,0,0,0,0,0,0],"id":36,"left_children":[1,3,-1,-1,5,7,9,-1,11,13,15,-1,-1,-1,-1,-1,-1],"loss_changes":[4.1287625E2,2.5309647E1,0E0,0E0,2.1442808E1,1.789463E0,2.5835245E0,0E0,9.226761E-1,2.6488664E0,2.3589857E0,0E0,0E0,0E0,0E0,0E0,0E0],"parents":[2147483647,0,0,1,1,4,4,5,5,6,6,8,8,9,9,10,10],"right_children":[2,4,-1,-1,6,8,10,-1,12,14,16,-1,-1,-1,-1,-1,-1],"split_conditions":[1E1,8E0,-3.0470163E-2,5.39213E-2,9.3033805E-2,4.6497636E0,1.8E1,-5.389968E-3,3.250496E-2,9E0,3E0,4.8673272E-2,3.0282063E-2,3.3996366E-2,-2.2810599E-2,3.8891006E-3,-2.5212912E-2],"split_indices":[14,14,0,0,13,6,0,0,13,7,8,0,0,0,0,0,0],"split_type":[0,0,0,0,0,0,0,0,0,0,0,0,0,0,0,0,0],"sum_hessian":[7.5848804E2,3.0622867E2,4.5225937E2,2.1569794E2,9.053072E1,5.4442123E1,3.6088604E1,1.7444204E0,5.26977E1,7.570731E0,2.8517874E1,3.518684E1,1.7510859E1,5.370963E0,2.199768E0,1.0662989E1,1.7854885E1],"tree_param":{"num_deleted":"0","num_feature":"16","num_nodes":"17","size_leaf_vector":"1"}},{"base_weights":[1.5303925E-2,3.7700728E-1,-3.0432839E-2,-3.0238638E-2,7.338176E-1,8.591497E-1,3.7412405E-1,4.2963922E-1,5.400429E-2,8.318283E-1,-1.7739007E-1,-9.82462E-3,4.120719E-2,5.251473E-2,2.7049279E-2,2.724162E-3,-2.7205175E-2],"categories":[],"categories_nodes":[],"categories_segments":[],"categories_sizes":[],"default_left":[0,0,0,0,0,0,0,0,0,0,0,0,0,0,0,0,0],"id":37,"left_children":[1,3,-1,-1,5,7,9,11,-1,13,15,-1,-1,-1,-1,-1,-1],"loss_changes":[1.7208463E2,1.695224E2,0E0,0E0,1.56577E1,2.4406723E1,2.3715187E1,2.2561934E1,0E0,2.6847878E0,3.7001376E0,0E0,0E0,0E0,0E0,0E0,0E0],"parents":[2147483647,0,0,1,1,4,4,5,5,6,6,7,7,9,9,10,10],"right_children":[2,4,-1,-1,6,8,10,12,-1,14,16,-1,-1,-1,-1,-1,-1],"split_conditions":[1.8E1,8E0,-3.0432839E-2,-3.0238638E-2,1.6E1,1E1,3.0279756E-1,5.9381984E-2,5.400429E-2,1.8351625E-1,7E0,-9.82462E-3,4.120719E-2,5.251473E-2,2.7049279E-2,2.724162E-3,-2.7205175E-2],"split_indices":[14,14,0,0,14,14,13,13,0,13,7,0,0,0,0,0,0],"split_type":[0,0,0,0,0,0,0,0,0,0,0,0,0,0,0,0,0],"sum_hessian":[7.6047003E2,4.8165533E2,2.7881467E2,1.2820325E2,3.534521E2,2.610892E2,9.236289E1,8.968392E1,1.7140529E2,5.01964E1,4.2166496E1,3.4859367E1,5.4824554E1,2.7173693E1,2.3022705E1,2.635416E1,1.5812336E1],"tree_param":{"num_deleted":"0","num_feature":"16","num_nodes":"17","size_leaf_vector":"1"}},{"base_weights":[2.100967E-3,-3.0441964E-2,3.7565857E-1,7.474222E-1,-3.0404676E-2,7.8327066E-1,-2.8531528E-1,2.7809735E-2,8.376339E-1,2.697448E-1,-4.8842192E-1,-2.4283584E-2,5.0188925E-2,4.7519863E-2,2.5935262E-2,3.9471533E-2,-1.9067133E-2,1.9515132E-3,-2.858097E-2],"categories":[],"categories_nodes":[],"categories_segments":[],"categories_sizes":[],"default_left":[0,0,0,0,0,0,0,0,0,0,0,0,0,0,0,0,0,0,0],"id":38,"left_children":[1,-1,3,5,-1,7,9,11,13,15,17,-1,-1,-1,-1,-1,-1,-1,-1],"loss_changes":[1.7406308E2,0E0,1.7354916E2,1.2956726E1,0E0,1.3639038E1,1.5151663E0,1.2197236E1,1.0666489E1,1.6313376E0,4.3216014E-1,0E0,0E0,0E0,0E0,0E0,0E0,0E0,0E0],"parents":[2147483647,0,0,2,2,3,3,5,5,6,6,7,7,8,8,9,9,10,10],"right_children":[2,-1,4,6,-1,8,10,12,14,16,18,-1,-1,-1,-1,-1,-1,-1,-1],"split_conditions":[1.6E1,-3.0441964E-2,2.6E1,7.2070754E-1,-3.0404676E-2,1.21773235E-1,5E0,1.8E1,2.4E1,2.9E1,1.7E1,-2.4283584E-2,5.0188925E-2,4.7519863E-2,2.5935262E-2,3.9471533E-2,-1.9067133E-2,1.9515132E-3,-2.858097E-2],"split_indices":[14,0,14,13,0,13,4,14,14,0,0,0,0,0,0,0,0,0,0],"split_type":[0,0,0,0,0,0,0,0,0,0,0,0,0,0,0,0,0,0,0],"sum_hessian":[7.606918E2,2.883977E2,4.7229407E2,3.4293707E2,1.29357E2,3.3166583E2,1.12712555E1,2.2366102E1,3.0929974E2,2.931583E0,8.339672E0,1.4984666E1,7.3814354E0,2.27044E2,8.225573E1,1.5121406E0,1.4194423E0,1.2085603E0,7.131112E0],"tree_param":{"num_deleted":"0","num_feature":"16","num_nodes":"19","size_leaf_vector":"1"}},{"base_weights":[1.7319113E-3,-3.0492062E-2,8.9703786E-1,4.6763533E-1,5.434326E-2,-3.4928834E-1,7.1125597E-1,-5.243579E-1,-2.6386129E-2,4.7003394E-1,9.755284E-1,-2.9443447E-2,8.498654E-3,-2.316352E-2,1.1510396E-2,-1.3801602E-2,2.9221011E-2,3.403094E-2,5.557056E-2],"categories":[],"categories_nodes":[],"categories_segments":[],"categories_sizes":[],"default_left":[0,0,0,0,0,0,0,0,0,0,0,0,0,0,0,0,0,0,0],"id":39,"left_children":[1,-1,3,5,-1,7,9,11,13,15,17,-1,-1,-1,-1,-1,-1,-1,-1],"loss_changes":[4.148233E2,0E0,2.455487E1,1.935696E1,0E0,1.2708809E0,4.277149E0,7.57792E-1,1.1203535E0,3.640379E0,6.2688065E-1,0E0,0E0,0E0,0E0,0E0,0E0,0E0,0E0],"parents":[2147483647,0,0,2,2,3,3,5,5,6,6,7,7,8,8,9,9,10,10],"right_children":[2,-1,4,6,-1,8,10,12,14,16,18,-1,-1,-1,-1,-1,-1,-1,-1],"split_conditions":[2.4E1,-3.0492062E-2,2.6E1,3.8668075E-1,5.434326E-2,7E0,5.904212E-1,3.6961117E-1,5E0,3E0,7E0,-2.9443447E-2,8.498654E-3,-2.316352E-2,1.1510396E-2,-1.3801602E-2,2.9221011E-2,3.403094E-2,5.557056E-2],"split_indices":[14,0,14,13,0,7,13,13,8,8,8,0,0,0,0,0,0,0,0],"split_type":[0,0,0,0,0,0,0,0,0,0,0,0,0,0,0,0,0,0,0],"sum_hessian":[7.5560657E2,4.4912994E2,3.0647662E2,9.501334E1,2.1146329E2,2.1726149E1,7.328719E1,1.3683438E1,8.04271E0,3.9767185E1,3.352001E1,1.2659154E1,1.0242847E0,2.6778564E0,5.3648543E0,5.098684E0,3.46685E1,1.2468408E1,2.1051603E1],"tree_param":{"num_deleted":"0","num_feature":"16","num_nodes":"19","size_leaf_vector":"1"}},{"base_weights":[-5.545915E-3,7.1993995E-1,-5.249473E-1,9.9707687E-1,3.3722258E-1,1.2123816E-2,-5.8619225E-1,1.0037317E0,9.715098E-4,7.3112696E-1,-1.7519529E-1,5.0888294E-1,-4.9961868E-1,-3.8881883E-1,-3.0196762E-2,5.0746065E-2,6.570036E-1,8.950008E-1,3.7515384E-1,-4.0374912E-2,-5.262661E-1,9.350917E-1,1.445086E-2,8.01431E-3,-5.3842986E-1,1.9781381E-1,-5.214118E-1,-6.686394E-3,4.4127546E-2,4.7399465E-2,1.6333943E-2,3.5902753E-2,-2.3981536E-4,6.6203238E-3,-2.0011088E-2,4.124532E-3,-2.8789848E-2,8.3952764E-4,5.2264076E-2,3.0685067E-2,-1.0339129E-2,7.551579E-5,-2.9043516E-2,-1.3964695E-2,3.2223813E-2,-2.9318705E-2,2.6862936E-3],"categories":[],"categories_nodes":[],"categories_segments":[],"categories_sizes":[],"default_left":[0,0,0,0,0,0,0,0,0,0,0,0,0,0,0,0,0,0,0,0,0,0,0,0,0,0,0,0,0,0,0,0,0,0,0,0,0,0,0,0,0,0,0,0,0,0,0],"id":40,"left_children":[1,3,5,7,9,11,13,15,-1,17,19,21,23,25,-1,-1,27,29,31,33,35,37,39,-1,41,43,45,-1,-1,-1,-1,-1,-1,-1,-1,-1,-1,-1,-1,-1,-1,-1,-1,-1,-1,-1,-1],"loss_changes":[2.8037347E2,3.259099E1,1.4269737E1,1.1486511E0,2.6750546E1,1.1786568E1,1.1283112E0,2.4993896E-2,0E0,4.025635E0,2.7301946E0,4.941794E0,6.715307E-1,2.818769E0,0E0,0E0,1.6179736E0,1.2103386E0,3.2983913E0,2.7317762E0,5.3133917E-1,1.2587261E0,1.7047791E0,0E0,5.0066376E-1,1.7061145E0,1.1057205E0,0E0,0E0,0E0,0E0,0E0,0E0,0E0,0E0,0E0,0E0,0E0,0E0,0E0,0E0,0E0,0E0,0E0,0E0,0E0,0E0],"parents":[2147483647,0,0,1,1,2,2,3,3,4,4,5,5,6,6,7,7,9,9,10,10,11,11,12,12,13,13,16,16,17,17,18,18,19,19,20,20,21,21,22,22,24,24,25,25,26,26],"right_children":[2,4,6,8,10,12,14,16,-1,18,20,22,24,26,-1,-1,28,30,32,34,36,38,40,-1,42,44,46,-1,-1,-1,-1,-1,-1,-1,-1,-1,-1,-1,-1,-1,-1,-1,-1,-1,-1,-1,-1],"split_conditions":[1.395E3,8E2,1.573E3,3.5531622E-1,9.537676E-2,1.4392416E-1,1.785E3,7.74E2,9.715098E-4,2.6947781E-2,3.1813824E-1,5E0,4E0,5.5972364E-2,-3.0196762E-2,5.0746065E-2,6.1387615E0,4.3E1,2.2E1,6E0,9.28E2,4.7833214E0,1.1E1,8.01431E-3,1.6E1,1E0,1.764E3,-6.686394E-3,4.4127546E-2,4.7399465E-2,1.6333943E-2,3.5902753E-2,-2.3981536E-4,6.6203238E-3,-2.0011088E-2,4.124532E-3,-2.8789848E-2,8.3952764E-4,5.2264076E-2,3.0685067E-2,-1.0339129E-2,7.551579E-5,-2.9043516E-2,-1.3964695E-2,3.2223813E-2,-2.9318705E-2,2.6862936E-3],"split_indices":[15,15,15,13,13,13,15,15,0,13,13,4,3,13,0,0,6,3,3,8,15,6,3,0,0,1,15,0,0,0,0,0,0,0,0,0,0,0,0,0,0,0,0,0,0,0,0],"split_type":[0,0,0,0,0,0,0,0,0,0,0,0,0,0,0,0,0,0,0,0,0,0,0,0,0,0,0,0,0,0,0,0,0,0,0,0,0,0,0,0,0,0,0,0,0,0,0],"sum_hessian":[7.420519E2,3.0944348E2,4.326084E2,1.7854704E2,1.3089642E2,4.4364834E1,3.8824356E2,1.7731339E2,1.2336515E0,7.376511E1,5.7131317E1,2.2514818E1,2.1850018E1,3.3912693E1,3.5433087E2,1.699031E2,7.4102864E0,4.947488E1,2.429023E1,4.2084698E1,1.504662E1,1.1612987E1,1.0901833E1,1.0398363E0,2.081018E1,6.161298E0,2.7751396E1,1.7349466E0,5.6753397E0,4.464434E1,4.8305397E0,1.2299861E1,1.1990369E1,2.885969E1,1.3225006E1,1.0820682E0,1.3964553E1,1.3676484E0,1.0245338E1,2.4612086E0,8.440624E0,1.5868042E0,1.9223377E1,3.1602979E0,3.0010002E0,2.4917414E1,2.8339815E0],"tree_param":{"num_deleted":"0","num_feature":"16","num_nodes":"47","size_leaf_vector":"1"}},{"base_weights":[1.3742072E-2,2.4070479E-1,-4.5094502E-1,-5.307304E-1,4.3513918E-1,-2.1937926E-1,-3.0101871E-2,-2.9835979E-2,-2.449903E-1,4.9286562E-1,1.3747025E-1,-1.6939363E-2,-4.112169E-1,-5.1715046E-1,2.6819208E-1,2.0705487E-1,5.4224813E-1,4.2786857E-1,-2.4687456E-1,-3.0327353E-1,1.5225488E-1,-4.6881828E-1,-1.5372254E-1,-2.8816868E-2,-2.6610754E-3,-1.9563485E-2,2.6174083E-2,2.6106317E-2,1.750348E-3,2.9333994E-2,1.7537726E-2,3.233877E-2,5.825413E-3,-2.344509E-2,5.838617E-4,3.6575284E-3,-2.5099922E-2,1.4204833E-2,-1.5247064E-2,-2.5218138E-2,-2.2050396E-3,2.6153475E-2,-2.1254428E-2],"categories":[],"categories_nodes":[],"categories_segments":[],"categories_sizes":[],"default_left":[0,0,0,0,0,0,0,0,0,0,0,0,0,0,0,0,0,0,0,0,0,0,0,0,0,0,0,0,0,0,0,0,0,0,0,0,0,0,0,0,0,0,0],"id":41,"left_children":[1,3,5,7,9,11,-1,-1,13,15,17,19,21,23,25,27,29,31,33,35,37,39,41,-1,-1,-1,-1,-1,-1,-1,-1,-1,-1,-1,-1,-1,-1,-1,-1,-1,-1,-1,-1],"loss_changes":[7.9279076E1,7.5976364E1,8.498642E0,1.7791271E0,6.872322E0,3.8367429E0,0E0,0E0,3.0512335E0,4.656784E0,7.582491E0,2.429683E0,6.8102455E-1,3.5287023E-1,1.5323277E0,2.7678816E0,2.2403488E0,2.5503974E0,1.6969374E0,1.4286898E0,1.9908717E0,5.9678364E-1,2.2003098E0,0E0,0E0,0E0,0E0,0E0,0E0,0E0,0E0,0E0,0E0,0E0,0E0,0E0,0E0,0E0,0E0,0E0,0E0,0E0,0E0],"parents":[2147483647,0,0,1,1,2,2,3,3,4,4,5,5,8,8,9,9,10,10,11,11,12,12,13,13,14,14,15,15,16,16,17,17,18,18,19,19,20,20,21,21,22,22],"right_children":[2,4,6,8,10,12,-1,-1,14,16,18,20,22,24,26,28,30,32,34,36,38,40,42,-1,-1,-1,-1,-1,-1,-1,-1,-1,-1,-1,-1,-1,-1,-1,-1,-1,-1,-1,-1],"split_conditions":[2.604E3,7.74E2,3.312E3,6.54E2,2.232E3,6E0,-3.0101871E-2,-2.9835979E-2,5E0,1.026E3,7E0,6.0317726E0,4E0,3.9E1,1E1,5.900669E0,1.968E3,7E0,6.706785E0,2.856E3,4.2E1,3.277E3,2.703E3,-2.8816868E-2,-2.6610754E-3,-1.9563485E-2,2.6174083E-2,2.6106317E-2,1.750348E-3,2.9333994E-2,1.7537726E-2,3.233877E-2,5.825413E-3,-2.344509E-2,5.838617E-4,3.6575284E-3,-2.5099922E-2,1.4204833E-2,-1.5247064E-2,-2.5218138E-2,-2.2050396E-3,2.6153475E-2,-2.1254428E-2],"split_indices":[15,15,15,15,15,7,0,0,7,15,8,6,2,3,3,6,15,7,6,15,3,15,15,0,0,0,0,0,0,0,0,0,0,0,0,0,0,0,0,0,0,0,0],"split_type":[0,0,0,0,0,0,0,0,0,0,0,0,0,0,0,0,0,0,0,0,0,0,0,0,0,0,0,0,0,0,0,0,0,0,0,0,0,0,0,0,0,0,0],"sum_hessian":[7.496689E2,5.0399124E2,2.4567766E2,1.0110778E2,4.0288345E2,9.797388E1,1.4770378E2,8.1254456E1,1.9853327E1,3.3689435E2,6.5989105E1,4.819918E1,4.9774693E1,1.2968112E1,6.885215E0,5.0398163E1,2.864962E2,3.7523975E1,2.846513E1,1.7608E1,3.059118E1,4.0004917E1,9.7697735E0,1.1285979E1,1.6821332E0,1.7728791E0,5.1123357E0,1.7081686E1,3.3316475E1,2.3086537E2,5.5630817E1,2.1400652E1,1.6123323E1,1.48765545E1,1.3588574E1,6.3022313E0,1.1305769E1,2.403796E1,6.553221E0,3.6742428E1,3.2624907E0,2.5306764E0,7.239097E0],"tree_param":{"num_deleted":"0","num_feature":"16","num_nodes":"43","size_leaf_vector":"1"}},{"base_weights":[9.278778E-4,-5.2310455E-1,2.605013E-1,-5.86768E-1,-1.1594186E-1,3.978852E-1,-3.023133E-1,-2.9725585E-2,-3.66018E-1,-2.8147498E-2,1.608033E-1,-1.3749464E-1,4.9108273E-1,4.3986887E-1,-4.22807E-1,-2.7106926E-2,1.0278549E-2,-4.3386064E-2,6.62711E-1,-2.6168558E-1,7.344932E-1,5.89673E-1,-1.823958E-1,8.0081713E-1,-2.387665E-2,-2.725516E-1,-2.9530654E-2,7.516642E-3,-2.0636162E-2,4.6100866E-2,-2.8696274E-3,-2.0633195E-2,7.3921453E-4,3.111203E-3,4.1902944E-2,3.445338E-2,2.3787363E-2,1.7576827E-2,-1.7325299E-2,4.377922E-2,3.6879673E-3,-2.40544E-2,-4.158492E-3],"categories":[],"categories_nodes":[],"categories_segments":[],"categories_sizes":[],"default_left":[0,0,0,0,0,0,0,0,0,0,0,0,0,0,0,0,0,0,0,0,0,0,0,0,0,0,0,0,0,0,0,0,0,0,0,0,0,0,0,0,0,0,0],"id":42,"left_children":[1,3,5,7,9,11,13,-1,15,-1,17,19,21,23,25,-1,-1,27,29,31,33,35,37,39,-1,41,-1,-1,-1,-1,-1,-1,-1,-1,-1,-1,-1,-1,-1,-1,-1,-1,-1],"loss_changes":[1.0381877E2,6.4855576E0,3.9585743E1,1.5572357E-1,4.4737725E0,2.0559471E1,9.192619E0,0E0,1.1184616E0,0E0,2.3512254E0,6.871024E0,2.3348267E1,5.202813E0,2.0365686E0,0E0,0E0,1.2817163E0,1.2880781E0,2.2902577E0,5.014591E-1,3.1322021E0,4.105172E0,5.2361965E-1,0E0,1.8493226E0,0E0,0E0,0E0,0E0,0E0,0E0,0E0,0E0,0E0,0E0,0E0,0E0,0E0,0E0,0E0,0E0,0E0],"parents":[2147483647,0,0,1,1,2,2,3,3,4,4,5,5,6,6,8,8,10,10,11,11,12,12,13,13,14,14,17,17,18,18,19,19,20,20,21,21,22,22,23,23,25,25],"right_children":[2,4,6,8,10,12,14,-1,16,-1,18,20,22,24,26,-1,-1,28,30,32,34,36,38,40,-1,42,-1,-1,-1,-1,-1,-1,-1,-1,-1,-1,-1,-1,-1,-1,-1,-1,-1],"split_conditions":[1.596E3,3.0279756E-1,4.004E3,2.6990774E-1,1.28E3,1.8351625E-1,4.0065578E-1,-2.9725585E-2,7.568519E0,-2.8147498E-2,7E0,3.104E3,6.2262666E-1,4.785E3,4.785E3,-2.7106926E-2,1.0278549E-2,3E0,1E0,7E0,2.6E1,2.8E1,2.376E3,8E0,-2.387665E-2,6.126503E0,-2.9530654E-2,7.516642E-3,-2.0636162E-2,4.6100866E-2,-2.8696274E-3,-2.0633195E-2,7.3921453E-4,3.111203E-3,4.1902944E-2,3.445338E-2,2.3787363E-2,1.7576827E-2,-1.7325299E-2,4.377922E-2,3.6879673E-3,-2.40544E-2,-4.158492E-3],"split_indices":[15,13,15,13,15,13,13,0,6,0,7,15,13,15,15,0,0,7,1,8,0,0,15,7,0,6,0,0,0,0,0,0,0,0,0,0,0,0,0,0,0,0,0],"split_type":[0,0,0,0,0,0,0,0,0,0,0,0,0,0,0,0,0,0,0,0,0,0,0,0,0,0,0,0,0,0,0,0,0,0,0,0,0,0,0,0,0,0,0],"sum_hessian":[7.6123175E2,2.5182558E2,5.094062E2,2.1739317E2,3.443241E1,4.0969263E2,9.971356E1,2.0838991E2,9.00326E0,1.2770648E1,2.166176E1,6.0673584E1,3.4901904E2,1.3557213E1,8.615635E1,6.921959E0,2.0813007E0,1.6046982E1,5.6147795E0,5.3722214E1,6.9513707E0,3.0455917E2,4.4459866E1,9.820468E0,3.7367444E0,4.6839737E1,3.931661E1,1.0914989E1,5.131992E0,3.922065E0,1.6927147E0,3.4428455E1,1.929376E1,1.1416258E0,5.809745E0,1.5995657E2,1.4460262E2,1.0184035E1,3.427583E1,8.71951E0,1.1009586E0,2.1559422E1,2.5280315E1],"tree_param":{"num_deleted":"0","num_feature":"16","num_nodes":"43","size_leaf_vector":"1"}},{"base_weights":[7.912025E-3,-3.0237054E-2,8.6412036E-1,4.491168E-1,5.1971536E-2,-3.5083115E-1,6.515452E-1,2.747239E-2,-4.3835723E-1,2.5232324E-1,7.991764E-1,-2.6580378E-2,8.339925E-3,2.900495E-3,4.03414E-2,7.0236996E-3,4.432765E-2],"categories":[],"categories_nodes":[],"categories_segments":[],"categories_sizes":[],"default_left":[0,0,0,0,0,0,0,0,0,0,0,0,0,0,0,0,0],"id":43,"left_children":[1,-1,3,5,-1,7,9,-1,11,13,15,-1,-1,-1,-1,-1,-1],"loss_changes":[3.879207E2,0E0,2.1973892E1,1.5346928E1,0E0,1.7777565E0,4.210289E0,0E0,1.123184E0,2.2881298E0,2.9942284E0,0E0,0E0,0E0,0E0,0E0,0E0],"parents":[2147483647,0,0,2,2,3,3,5,5,6,6,8,8,9,9,10,10],"right_children":[2,-1,4,6,-1,8,10,-1,12,14,16,-1,-1,-1,-1,-1,-1],"split_conditions":[2.4E1,-3.0237054E-2,2.6E1,3.6961117E-1,5.1971536E-2,1.5E1,6E0,2.747239E-2,1E1,1E1,1.9E1,-2.6580378E-2,8.339925E-3,2.900495E-3,4.03414E-2,7.0236996E-3,4.432765E-2],"split_indices":[14,0,14,13,0,0,8,0,4,7,0,0,0,0,0,0,0],"split_type":[0,0,0,0,0,0,0,0,0,0,0,0,0,0,0,0,0],"sum_hessian":[7.37522E2,4.3007727E2,3.074447E2,9.236216E1,2.1508253E2,1.8504353E1,7.38578E1,1.1719838E0,1.7332369E1,2.067039E1,5.3187416E1,1.5123481E1,2.2088883E0,1.6124535E1,4.5458536E0,6.5344105E0,4.6653008E1],"tree_param":{"num_deleted":"0","num_feature":"16","num_nodes":"17","size_leaf_vector":"1"}},{"base_weights":[-2.2778242E-4,8.263204E-1,-3.0015593E-2,4.9720902E-2,4.1905582E-1,8.0263567E-1,-1.2627879E-1,-5.877408E-3,8.358962E-1,7.780081E-2,-5.178538E-1,4.3712582E-2,9.844726E-4,-1.6596554E-2,1.8429527E-2,-4.0395684E-3,-2.9002417E-2],"categories":[],"categories_nodes":[],"categories_segments":[],"categories_sizes":[],"default_left":[0,0,0,0,0,0,0,0,0,0,0,0,0,0,0,0,0],"id":44,"left_children":[1,3,-1,-1,5,7,9,-1,11,13,15,-1,-1,-1,-1,-1,-1],"loss_changes":[3.6343396E2,2.0683334E1,0E0,0E0,1.9298712E1,1.7513924E0,3.1377654E0,0E0,1.6186104E0,3.2618668E0,3.1767678E-1,0E0,0E0,0E0,0E0,0E0,0E0],"parents":[2147483647,0,0,1,1,4,4,5,5,6,6,8,8,9,9,10,10],"right_children":[2,4,-1,-1,6,8,10,-1,12,14,16,-1,-1,-1,-1,-1,-1],"split_conditions":[1E1,8E0,-3.0015593E-2,4.9720902E-2,9.3033805E-2,4.6497636E0,6E0,-5.877408E-3,1E1,6.3564515E0,1E0,4.3712582E-2,9.844726E-4,-1.6596554E-2,1.8429527E-2,-4.0395684E-3,-2.9002417E-2],"split_indices":[14,14,0,0,13,6,8,0,4,6,7,0,0,0,0,0,0],"split_type":[0,0,0,0,0,0,0,0,0,0,0,0,0,0,0,0,0],"sum_hessian":[7.3073193E2,3.0720908E2,4.2352286E2,2.1643448E2,9.0774605E1,5.3013744E1,3.7760864E1,1.7609615E0,5.125278E1,2.5350235E1,1.2410628E1,4.888447E1,2.3683116E0,1.0464269E1,1.4885966E1,1.8324406E0,1.0578187E1],"tree_param":{"num_deleted":"0","num_feature":"16","num_nodes":"17","size_leaf_vector":"1"}},{"base_weights":[-1.3177238E-3,3.448651E-1,-3.003255E-2,-2.9808192E-2,6.686077E-1,7.891758E-1,3.305926E-1,3.9054406E-1,5.051741E-2,7.671508E-1,-2.683013E-1,-1.9719971E-2,3.3675652E-2,4.771824E-2,2.5998184E-2,-6.463223E-3,-2.6409898E-2],"categories":[],"categories_nodes":[],"categories_segments":[],"categories_sizes":[],"default_left":[0,0,0,0,0,0,0,0,0,0,0,0,0,0,0,0,0],"id":45,"left_children":[1,3,-1,-1,5,7,9,11,-1,13,15,-1,-1,-1,-1,-1,-1],"loss_changes":[1.5572563E2,1.4533939E2,0E0,0E0,1.4184357E1,2.2576294E1,2.5020563E1,2.1278095E1,0E0,2.0561562E0,1.4044683E0,0E0,0E0,0E0,0E0,0E0,0E0],"parents":[2147483647,0,0,1,1,4,4,5,5,6,6,7,7,9,9,10,10],"right_children":[2,4,-1,-1,6,8,10,12,-1,14,16,-1,-1,-1,-1,-1,-1],"split_conditions":[1.8E1,8E0,-3.003255E-2,-2.9808192E-2,1.6E1,1E1,3.2461324E-1,8.947304E-3,5.051741E-2,1.8351625E-1,4.980103E-1,-1.9719971E-2,3.3675652E-2,4.771824E-2,2.5998184E-2,-6.463223E-3,-2.6409898E-2],"split_indices":[14,14,0,0,14,14,13,13,0,13,13,0,0,0,0,0,0],"split_type":[0,0,0,0,0,0,0,0,0,0,0,0,0,0,0,0,0],"sum_hessian":[7.4856287E2,4.7475986E2,2.7380298E2,1.2130853E2,3.5345132E2,2.595401E2,9.3911224E1,9.360188E1,1.6593823E2,5.4154705E1,3.975652E1,2.4697714E1,6.890417E1,2.9187698E1,2.4967005E1,2.6876026E1,1.2880493E1],"tree_param":{"num_deleted":"0","num_feature":"16","num_nodes":"17","size_leaf_vector":"1"}},{"base_weights":[5.0781504E-3,-3.0025084E-2,3.6590338E-1,6.942171E-1,-2.9982189E-2,8.061031E-1,4.0224808E-1,4.5445296E-1,5.1475763E-2,9.5770085E-1,1.5624505E-1,-6.5991203E-3,4.146644E-2,5.1144697E-2,1.6048139E-2,1.8807529E-2,-1.1619988E-2],"categories":[],"categories_nodes":[],"categories_segments":[],"categories_sizes":[],"default_left":[0,0,0,0,0,0,0,0,0,0,0,0,0,0,0,0,0],"id":46,"left_children":[1,-1,3,5,-1,7,9,11,-1,13,15,-1,-1,-1,-1,-1,-1],"loss_changes":[1.6433095E2,0E0,1.4980496E2,1.1179123E1,0E0,1.9454437E1,1.3453754E1,2.2161175E1,0E0,9.320736E-1,6.086339E0,0E0,0E0,0E0,0E0,0E0,0E0],"parents":[2147483647,0,0,2,2,3,3,5,5,6,6,7,7,9,9,10,10],"right_children":[2,-1,4,6,-1,8,10,12,-1,14,16,-1,-1,-1,-1,-1,-1],"split_conditions":[1.6E1,-3.0025084E-2,2.6E1,2.4E1,-2.9982189E-2,1.8E1,3.6961117E-1,2.931527E-1,5.1475763E-2,4.4E1,8E0,-6.5991203E-3,4.146644E-2,5.1144697E-2,1.6048139E-2,1.8807529E-2,-1.1619988E-2],"split_indices":[14,0,14,14,0,14,13,13,0,3,7,0,0,0,0,0,0],"split_type":[0,0,0,0,0,0,0,0,0,0,0,0,0,0,0,0,0],"sum_hessian":[7.5005194E2,2.797978E2,4.7025418E2,3.5113815E2,1.1911602E2,2.5258398E2,9.8554184E1,9.930783E1,1.5327615E2,2.9362732E1,6.919145E1,3.897905E1,6.0328777E1,2.6085485E1,3.2772467E0,4.4208984E1,2.4982466E1],"tree_param":{"num_deleted":"0","num_feature":"16","num_nodes":"17","size_leaf_vector":"1"}},{"base_weights":[5.8294088E-3,-3.0024195E-2,8.3841664E-1,4.506465E-1,5.0076332E-2,-3.7619647E-1,6.9029737E-1,-4.8677412E-1,2.1291497E-1,3.7681144E-1,9.1831493E-1,-2.9187772E-2,-2.4094763E-3,3.5672016E-2,-1.992646E-2,5.1038866E-3,4.18981E-2,4.5212465E-3,4.9304005E-2],"categories":[],"categories_nodes":[],"categories_segments":[],"categories_sizes":[],"default_left":[0,0,0,0,0,0,0,0,0,0,0,0,0,0,0,0,0,0,0],"id":47,"left_children":[1,-1,3,5,-1,7,9,11,13,15,17,-1,-1,-1,-1,-1,-1,-1,-1],"loss_changes":[3.6974707E2,0E0,1.9069366E1,1.8727737E1,0E0,1.5100889E0,4.8441772E0,7.5801325E-1,1.5414896E0,4.002968E0,2.230072E0,0E0,0E0,0E0,0E0,0E0,0E0,0E0,0E0],"parents":[2147483647,0,0,2,2,3,3,5,5,6,6,7,7,8,8,9,9,10,10],"right_children":[2,-1,4,6,-1,8,10,12,14,16,18,-1,-1,-1,-1,-1,-1,-1,-1],"split_conditions":[2.4E1,-3.0024195E-2,2.6E1,3.8668075E-1,5.0076332E-2,4.3E1,6E0,9E0,1E0,8E0,1E0,-2.9187772E-2,-2.4094763E-3,3.5672016E-2,-1.992646E-2,5.1038866E-3,4.18981E-2,4.5212465E-3,4.9304005E-2],"split_indices":[14,0,14,13,0,3,4,4,5,7,7,0,0,0,0,0,0,0,0],"split_type":[0,0,0,0,0,0,0,0,0,0,0,0,0,0,0,0,0,0,0],"sum_hessian":[7.304525E2,4.228211E2,3.076314E2,9.220066E1,2.1543074E2,2.0590296E1,7.161036E1,1.7482502E1,3.1077938E0,3.1270803E1,4.0339558E1,1.4045676E1,3.4368258E0,1.6171724E0,1.4906214E0,2.0361593E1,1.090921E1,3.2287073E0,3.711085E1],"tree_param":{"num_deleted":"0","num_feature":"16","num_nodes":"19","size_leaf_vector":"1"}},{"base_weights":[-3.1748033E-4,8.049896E-1,-2.978324E-2,4.7809035E-2,4.3628398E-1,5.706617E-1,3.704652E-2,3.455228E-1,7.555207E-1,-2.8255293E-2,2.0147368E-1,4.404956E-2,9.792984E-3,4.6008583E-2,1.463455E-2,-7.042552E-3,2.4120204E-2],"categories":[],"categories_nodes":[],"categories_segments":[],"categories_sizes":[],"default_left":[0,0,0,0,0,0,0,0,0,0,0,0,0,0,0,0,0],"id":48,"left_children":[1,3,-1,-1,5,7,9,11,13,-1,15,-1,-1,-1,-1,-1,-1],"loss_changes":[3.4181873E2,1.6475937E1,0E0,0E0,4.805462E0,2.5374737E0,2.4629073E0,2.4047854E0,2.4802475E0,0E0,1.9310932E0,0E0,0E0,0E0,0E0,0E0,0E0],"parents":[2147483647,0,0,1,1,4,4,5,5,6,6,7,7,8,8,10,10],"right_children":[2,4,-1,-1,6,8,10,12,14,-1,16,-1,-1,-1,-1,-1,-1],"split_conditions":[1E1,8E0,-2.978324E-2,4.7809035E-2,6E0,1.218E3,5.9674735E0,1E0,7E0,-2.8255293E-2,1.296E3,4.404956E-2,9.792984E-3,4.6008583E-2,1.463455E-2,-7.042552E-3,2.4120204E-2],"split_indices":[14,14,0,0,8,15,6,4,4,0,15,0,0,0,0,0,0],"split_type":[0,0,0,0,0,0,0,0,0,0,0,0,0,0,0,0,0],"sum_hessian":[7.109578E2,3.0204254E2,4.089153E2,2.1307559E2,8.896694E1,6.624158E1,2.2725367E1,3.1160482E1,3.5081097E1,4.3517847E0,1.837358E1,5.7394037E0,2.5421078E1,2.514696E1,9.934137E0,8.506592E0,9.86699E0],"tree_param":{"num_deleted":"0","num_feature":"16","num_nodes":"17","size_leaf_vector":"1"}},{"base_weights":[-1.17012765E-2,3.201352E-1,-2.9798517E-2,-2.9565493E-2,6.3058954E-1,7.4830127E-1,3.0853614E-1,3.6371163E-1,4.851459E-2,7.1240836E-1,-2.787324E-1,-1.2655713E-2,3.6483914E-2,4.2575095E-2,1.4322395E-2,3.6944464E-2,-1.7032666E-2],"categories":[],"categories_nodes":[],"categories_segments":[],"categories_sizes":[],"default_left":[0,0,0,0,0,0,0,0,0,0,0,0,0,0,0,0,0],"id":49,"left_children":[1,3,-1,-1,5,7,9,11,-1,13,15,-1,-1,-1,-1,-1,-1],"loss_changes":[1.4236554E2,1.328939E2,0E0,0E0,1.3030869E1,2.1459366E1,2.281133E1,2.1652428E1,0E0,3.119709E0,2.7449627E0,0E0,0E0,0E0,0E0,0E0,0E0],"parents":[2147483647,0,0,1,1,4,4,5,5,6,6,7,7,9,9,10,10],"right_children":[2,4,-1,-1,6,8,10,12,-1,14,16,-1,-1,-1,-1,-1,-1],"split_conditions":[1.8E1,8E0,-2.9798517E-2,-2.9565493E-2,1.6E1,1E1,3.4298408E-1,5.9381984E-2,4.851459E-2,8E0,1E0,-1.2655713E-2,3.6483914E-2,4.2575095E-2,1.4322395E-2,3.6944464E-2,-1.7032666E-2],"split_indices":[14,14,0,0,14,14,13,13,0,7,7,0,0,0,0,0,0],"split_type":[0,0,0,0,0,0,0,0,0,0,0,0,0,0,0,0,0],"sum_hessian":[7.323064E2,4.6733493E2,2.649715E2,1.1850838E2,3.4882654E2,2.5448706E2,9.433949E1,9.410036E1,1.6038669E2,5.577157E1,3.8567924E1,3.515538E1,5.894498E1,4.1289757E1,1.4481811E1,1.5851098E0,3.6982815E1],"tree_param":{"num_deleted":"0","num_feature":"16","num_nodes":"17","size_leaf_vector":"1"}},{"base_weights":[-2.0517746E-3,-2.9784966E-2,3.398722E-1,6.727526E-1,-2.9742358E-2,7.8235024E-1,3.955027E-1,4.5416814E-1,4.9361955E-2,6.63911E-1,-1.6387755E-1,-3.504983E-3,4.2167835E-2,4.4263743E-2,2.1025762E-2,1.0592687E-2,-2.140926E-2],"categories":[],"categories_nodes":[],"categories_segments":[],"categories_sizes":[],"default_left":[0,0,0,0,0,0,0,0,0,0,0,0,0,0,0,0,0],"id":50,"left_children":[1,-1,3,5,-1,7,9,11,-1,13,15,-1,-1,-1,-1,-1,-1],"loss_changes":[1.4721826E2,0E0,1.4359534E2,1.0016541E1,0E0,1.5859436E1,1.4867585E1,1.9456936E1,0E0,3.2173386E0,3.335635E0,0E0,0E0,0E0,0E0,0E0,0E0],"parents":[2147483647,0,0,2,2,3,3,5,5,6,6,7,7,9,9,10,10],"right_children":[2,-1,4,6,-1,8,10,12,-1,14,16,-1,-1,-1,-1,-1,-1],"split_conditions":[1.6E1,-2.9784966E-2,2.6E1,2.4E1,-2.9742358E-2,1.8E1,5.6802195E-1,3.2461324E-1,4.9361955E-2,3.8668075E-1,7E0,-3.504983E-3,4.2167835E-2,4.4263743E-2,2.1025762E-2,1.0592687E-2,-2.140926E-2],"split_indices":[14,0,14,14,0,14,13,13,0,13,8,0,0,0,0,0,0],"split_type":[0,0,0,0,0,0,0,0,0,0,0,0,0,0,0,0,0],"sum_hessian":[7.2327893E2,2.64066E2,4.592129E2,3.388271E2,1.203858E2,2.4152844E2,9.729866E1,9.406915E1,1.4745929E2,6.562354E1,3.1675117E1,4.0428562E1,5.364059E1,3.2986115E1,3.263743E1,1.316237E1,1.8512747E1],"tree_param":{"num_deleted":"0","num_feature":"16","num_nodes":"17","size_leaf_vector":"1"}},{"base_weights":[2.4994912E-5,-2.979116E-2,7.90547E-1,3.9608428E-1,4.8151653E-2,-3.3135822E-1,6.038407E-1,-4.328014E-1,2.1422167E-1,3.7388498E-1,8.292424E-1,-2.8903225E-2,3.4715727E-3,-1.713584E-2,2.6444528E-2,3.2196473E-2,6.689299E-3,2.6632741E-2,4.823946E-2],"categories":[],"categories_nodes":[],"categories_segments":[],"categories_sizes":[],"default_left":[0,0,0,0,0,0,0,0,0,0,0,0,0,0,0,0,0,0,0],"id":51,"left_children":[1,-1,3,5,-1,7,9,11,13,15,17,-1,-1,-1,-1,-1,-1,-1,-1],"loss_changes":[3.384964E2,0E0,2.0633148E1,1.4657969E1,0E0,1.304657E0,3.5653076E0,1.4113894E0,9.0016574E-1,2.4315314E0,9.7099304E-1,0E0,0E0,0E0,0E0,0E0,0E0,0E0,0E0],"parents":[2147483647,0,0,2,2,3,3,5,5,6,6,7,7,8,8,9,9,10,10],"right_children":[2,-1,4,6,-1,8,10,12,14,16,18,-1,-1,-1,-1,-1,-1,-1,-1],"split_conditions":[2.4E1,-2.979116E-2,2.6E1,3.8668075E-1,4.8151653E-2,4.4E1,5.904212E-1,9E0,7E0,6.1090565E0,7E0,-2.8903225E-2,3.4715727E-3,-1.713584E-2,2.6444528E-2,3.2196473E-2,6.689299E-3,2.6632741E-2,4.823946E-2],"split_indices":[14,0,14,13,0,3,13,4,7,6,8,0,0,0,0,0,0,0,0],"split_type":[0,0,0,0,0,0,0,0,0,0,0,0,0,0,0,0,0,0,0],"sum_hessian":[7.166286E2,4.0876917E2,3.0785944E2,9.466468E1,2.1319475E2,2.0897793E1,7.376689E1,1.7795647E1,3.1021464E0,3.7830658E1,3.5936234E1,1.3686151E1,4.109496E0,1.0877616E0,2.0143847E0,1.7013393E1,2.0817265E1,1.2818329E1,2.3117903E1],"tree_param":{"num_deleted":"0","num_feature":"16","num_nodes":"19","size_leaf_vector":"1"}},{"base_weights":[-7.267171E-3,7.590848E-1,-2.9563684E-2,4.612674E-2,3.7106946E-1,6.4273894E-1,-2.9279065E-1,7.579562E-1,2.0806555E-1,1.4198732E-1,-4.520687E-1,4.957102E-2,2.8028755E-2,3.336872E-2,-2.4533639E-2,4.3532915E-2,-2.5935E-2,-1.1127114E-3,-2.4447387E-2],"categories":[],"categories_nodes":[],"categories_segments":[],"categories_sizes":[],"default_left":[0,0,0,0,0,0,0,0,0,0,0,0,0,0,0,0,0,0,0],"id":52,"left_children":[1,3,-1,-1,5,7,9,11,13,15,17,-1,-1,-1,-1,-1,-1,-1,-1],"loss_changes":[3.1804633E2,1.9149506E1,0E0,0E0,1.6918583E1,3.1547375E0,1.9772668E0,1.8360405E0,5.2174587E0,4.3838363E0,3.1339455E-1,0E0,0E0,0E0,0E0,0E0,0E0,0E0,0E0],"parents":[2147483647,0,0,1,1,4,4,5,5,6,6,7,7,8,8,9,9,10,10],"right_children":[2,4,-1,-1,6,8,10,12,14,16,18,-1,-1,-1,-1,-1,-1,-1,-1],"split_conditions":[1E1,8E0,-2.9563684E-2,4.612674E-2,1.4392416E-1,7E0,2E0,3E0,2.8E1,5E0,1.6E1,4.957102E-2,2.8028755E-2,3.336872E-2,-2.4533639E-2,4.3532915E-2,-2.5935E-2,-1.1127114E-3,-2.4447387E-2],"split_indices":[14,14,0,0,13,7,8,8,3,7,0,0,0,0,0,0,0,0,0],"split_type":[0,0,0,0,0,0,0,0,0,0,0,0,0,0,0,0,0,0,0],"sum_hessian":[7.086286E2,3.0633987E2,4.0228876E2,2.1457388E2,9.176599E1,6.514054E1,2.6625454E1,5.09039E1,1.4236639E1,7.1679115E0,1.9457542E1,2.147738E1,2.942652E1,8.617135E0,5.619504E0,3.2574587E0,3.9104528E0,1.6642795E0,1.7793262E1],"tree_param":{"num_deleted":"0","num_feature":"16","num_nodes":"19","size_leaf_vector":"1"}},{"base_weights":[1.0453709E-2,3.390724E-1,-2.956955E-2,-2.9329045E-2,6.371565E-1,7.410126E-1,3.3674532E-1,3.7877855E-1,4.675335E-2,5.724704E-1,7.4175345E-3,1.4401205E-2,4.7463678E-2,3.7658334E-2,1.3236316E-2,-1.1891013E-2,1.2662776E-2],"categories":[],"categories_nodes":[],"categories_segments":[],"categories_sizes":[],"default_left":[0,0,0,0,0,0,0,0,0,0,0,0,0,0,0,0,0],"id":53,"left_children":[1,3,-1,-1,5,7,9,11,-1,13,15,-1,-1,-1,-1,-1,-1],"loss_changes":[1.435194E2,1.2987903E2,0E0,0E0,1.0842056E1,1.8157043E1,7.228012E0,4.5698767E0,0E0,2.8192692E0,2.46442E0,0E0,0E0,0E0,0E0,0E0,0E0],"parents":[2147483647,0,0,1,1,4,4,5,5,6,6,7,7,9,9,10,10],"right_children":[2,4,-1,-1,6,8,10,12,-1,14,16,-1,-1,-1,-1,-1,-1],"split_conditions":[1.8E1,8E0,-2.956955E-2,-2.9329045E-2,1.6E1,1E1,6E0,9E0,4.675335E-2,7E0,1E0,1.4401205E-2,4.7463678E-2,3.7658334E-2,1.3236316E-2,-1.1891013E-2,1.2662776E-2],"split_indices":[14,14,0,0,14,14,7,8,0,8,12,0,0,0,0,0,0],"split_type":[0,0,0,0,0,0,0,0,0,0,0,0,0,0,0,0,0],"sum_hessian":[7.2364734E2,4.683538E2,2.552935E2,1.1384822E2,3.5450558E2,2.6234338E2,9.21622E1,9.254503E1,1.6979836E2,5.328427E1,3.887793E1,8.114184E1,1.14031925E1,3.2660072E1,2.0624197E1,1.947905E1,1.939888E1],"tree_param":{"num_deleted":"0","num_feature":"16","num_nodes":"17","size_leaf_vector":"1"}},{"base_weights":[8.698823E-3,-5.0670993E-1,2.4178514E-1,-2.9381623E-2,-3.1679413E-1,3.674002E-1,-2.8311414E-1,-4.1103733E-1,-6.496302E-2,4.0606824E-1,1.9318609E-1,-8.152247E-2,-5.5483913E-1,-5.4786295E-1,-2.6839623E-1,2.605272E-1,-3.7700212E-1,2.5942835E-1,4.29718E-1,3.6066946E-1,4.00891E-2,2.0472586E-1,-3.2651573E-1,-2.732566E-1,-2.8760722E-2,-2.8860554E-2,-6.8000997E-3,-2.4834087E-2,-4.3923385E-3,-1.270458E-2,2.6047586E-2,-2.2548009E-2,5.735887E-3,6.1259572E-3,3.3161893E-2,2.5060598E-2,1.765697E-2,2.3469383E-2,9.779993E-4,9.07613E-3,-1.7803973E-2,2.01734E-2,-1.2835494E-2,1.0144721E-2,-2.0899924E-2,6.1038653E-3,-2.130614E-2],"categories":[],"categories_nodes":[],"categories_segments":[],"categories_sizes":[],"default_left":[0,0,0,0,0,0,0,0,0,0,0,0,0,0,0,0,0,0,0,0,0,0,0,0,0,0,0,0,0,0,0,0,0,0,0,0,0,0,0,0,0,0,0,0,0,0,0],"id":54,"left_children":[1,3,5,-1,7,9,11,13,15,17,19,21,23,25,27,29,31,33,35,37,39,41,43,45,-1,-1,-1,-1,-1,-1,-1,-1,-1,-1,-1,-1,-1,-1,-1,-1,-1,-1,-1,-1,-1,-1,-1],"loss_changes":[8.692337E1,3.2767181E0,3.295334E1,0E0,1.6226015E0,2.632576E0,5.255526E0,8.362379E-1,2.140918E0,1.0275192E0,1.9087939E0,4.0449796E0,7.8294754E-2,2.2071075E-1,1.0538338E0,1.5308915E0,4.4001508E-1,2.5799377E0,1.3630638E0,1.3145666E0,2.3233354E0,2.5590239E0,1.5838242E0,3.3450925E-1,0E0,0E0,0E0,0E0,0E0,0E0,0E0,0E0,0E0,0E0,0E0,0E0,0E0,0E0,0E0,0E0,0E0,0E0,0E0,0E0,0E0,0E0,0E0],"parents":[2147483647,0,0,1,1,2,2,4,4,5,5,6,6,7,7,8,8,9,9,10,10,11,11,12,12,13,13,14,14,15,15,16,16,17,17,18,18,19,19,20,20,21,21,22,22,23,23],"right_children":[2,4,6,-1,8,10,12,14,16,18,20,22,24,26,28,30,32,34,36,38,40,42,44,46,-1,-1,-1,-1,-1,-1,-1,-1,-1,-1,-1,-1,-1,-1,-1,-1,-1,-1,-1,-1,-1,-1,-1],"split_conditions":[1.596E3,1.28E3,4.004E3,-2.9381623E-2,7E0,4.3E1,4.785E3,5E0,1E0,1.92E3,2.8E1,7E0,3E0,8.635663E0,2.4E1,3E0,7.5308623E0,9E0,6E0,3.024E3,8E0,8E0,1.9E1,5.016E3,-2.8760722E-2,-2.8860554E-2,-6.8000997E-3,-2.4834087E-2,-4.3923385E-3,-1.270458E-2,2.6047586E-2,-2.2548009E-2,5.735887E-3,6.1259572E-3,3.3161893E-2,2.5060598E-2,1.765697E-2,2.3469383E-2,9.779993E-4,9.07613E-3,-1.7803973E-2,2.01734E-2,-1.2835494E-2,1.0144721E-2,-2.0899924E-2,6.1038653E-3,-2.130614E-2],"split_indices":[15,15,15,0,7,3,15,8,1,15,0,8,8,6,3,8,6,4,4,15,7,7,0,15,0,0,0,0,0,0,0,0,0,0,0,0,0,0,0,0,0,0,0,0,0,0,0],"split_type":[0,0,0,0,0,0,0,0,0,0,0,0,0,0,0,0,0,0,0,0,0,0,0,0,0,0,0,0,0,0,0,0,0,0,0,0,0,0,0,0,0,0,0,0,0,0,0],"sum_hessian":[7.215292E2,2.243234E2,4.972058E2,1.558304E2,6.8493004E1,4.0143692E2,9.576888E1,4.9380905E1,1.9112097E1,3.2743054E2,7.400638E1,5.5726006E1,4.0042877E1,2.3754255E1,2.5626648E1,9.435226E0,9.676871E0,4.7135765E1,2.8029477E2,3.4695145E1,3.9311237E1,2.5775023E1,2.9950985E1,3.674407E0,3.636847E1,2.1799417E1,1.9548389E0,1.0543974E1,1.5082674E1,3.178528E0,6.256698E0,8.483749E0,1.1931219E0,3.6174442E1,1.096132E1,1.420922E2,1.3820259E2,2.6024553E1,8.67059E0,2.9368416E1,9.942819E0,1.810343E1,7.671592E0,4.233558E0,2.5717426E1,1.080776E0,2.593631E0],"tree_param":{"num_deleted":"0","num_feature":"16","num_nodes":"47","size_leaf_vector":"1"}},{"base_weights":[4.5994212E-4,-2.9569233E-2,7.6002306E-1,4.098608E-1,4.6381187E-2,-2.8211564E-1,5.8827096E-1,-4.187245E-1,2.7465335E-1,3.3113515E-1,8.0200666E-1,-2.5824187E-2,1.435891E-2,3.5042915E-2,-7.7781924E-3,4.2459667E-3,3.5821926E-2,2.6685854E-2,5.0401747E-2],"categories":[],"categories_nodes":[],"categories_segments":[],"categories_sizes":[],"default_left":[0,0,0,0,0,0,0,0,0,0,0,0,0,0,0,0,0,0,0],"id":55,"left_children":[1,-1,3,5,-1,7,9,11,13,15,17,-1,-1,-1,-1,-1,-1,-1,-1],"loss_changes":[3.1965872E2,0E0,1.7895782E1,1.283205E1,0E0,1.7659432E0,4.235052E0,1.3784342E0,1.0038955E0,3.627101E0,1.8949833E0,0E0,0E0,0E0,0E0,0E0,0E0,0E0,0E0],"parents":[2147483647,0,0,2,2,3,3,5,5,6,6,7,7,8,8,9,9,10,10],"right_children":[2,-1,4,6,-1,8,10,12,14,16,18,-1,-1,-1,-1,-1,-1,-1,-1],"split_conditions":[2.4E1,-2.9569233E-2,2.6E1,3.8668075E-1,4.6381187E-2,4.3E1,6E0,1E1,1E0,8E0,7E0,-2.5824187E-2,1.435891E-2,3.5042915E-2,-7.7781924E-3,4.2459667E-3,3.5821926E-2,2.6685854E-2,5.0401747E-2],"split_indices":[14,0,14,13,0,3,4,4,5,7,8,0,0,0,0,0,0,0,0],"split_type":[0,0,0,0,0,0,0,0,0,0,0,0,0,0,0,0,0,0,0],"sum_hessian":[7.090745E2,3.986621E2,3.104124E2,1.0159628E2,2.0881615E2,2.0705866E1,8.089042E1,1.6825499E1,3.8803663E0,3.787453E1,4.301589E1,1.5014503E1,1.8109969E0,1.633259E0,2.2471073E0,2.3852652E1,1.4021879E1,2.0244308E1,2.277158E1],"tree_param":{"num_deleted":"0","num_feature":"16","num_nodes":"19","size_leaf_vector":"1"}},{"base_weights":[-6.5562786E-3,7.278742E-1,-2.9365111E-2,4.45649E-2,3.4968555E-1,6.8082005E-1,-1.7866607E-1,4.252305E-1,8.474558E-1,2.2356893E-1,-3.5410768E-1,3.3358585E-2,1.2865466E-3,4.4307772E-2,6.653653E-3,4.7567554E-2,-6.550254E-3,-2.9394193E-2,-7.543567E-3],"categories":[],"categories_nodes":[],"categories_segments":[],"categories_sizes":[],"default_left":[0,0,0,0,0,0,0,0,0,0,0,0,0,0,0,0,0,0,0],"id":56,"left_children":[1,3,-1,-1,5,7,9,11,13,15,17,-1,-1,-1,-1,-1,-1,-1,-1],"loss_changes":[2.9415894E2,1.8510788E1,0E0,0E0,1.6486628E1,2.0974617E0,2.678183E0,2.3781843E0,8.200073E-1,3.1691875E0,1.1481028E0,0E0,0E0,0E0,0E0,0E0,0E0,0E0,0E0],"parents":[2147483647,0,0,1,1,4,4,5,5,6,6,7,7,8,8,9,9,10,10],"right_children":[2,4,-1,-1,6,8,10,12,14,16,18,-1,-1,-1,-1,-1,-1,-1,-1],"split_conditions":[1E1,8E0,-2.9365111E-2,4.45649E-2,9.3033805E-2,1.208E3,3E0,1.3172134E-3,9E0,1.8E1,3E0,3.3358585E-2,1.2865466E-3,4.4307772E-2,6.653653E-3,4.7567554E-2,-6.550254E-3,-2.9394193E-2,-7.543567E-3],"split_indices":[14,14,0,0,13,15,7,13,8,0,4,0,0,0,0,0,0,0,0],"split_type":[0,0,0,0,0,0,0,0,0,0,0,0,0,0,0,0,0,0,0],"sum_hessian":[6.8767377E2,3.0354605E2,3.8412772E2,2.1100804E2,9.2538025E1,5.6708473E1,3.582955E1,2.3782381E1,3.292609E1,1.0798199E1,2.5031353E1,1.4394749E1,9.387633E0,3.1005981E1,1.9201084E0,2.9860632E0,7.8121357E0,1.0760865E1,1.4270487E1],"tree_param":{"num_deleted":"0","num_feature":"16","num_nodes":"19","size_leaf_vector":"1"}},{"base_weights":[-3.7275655E-3,3.1575522E-1,-2.937512E-2,-2.9097214E-2,5.947631E-1,7.045632E-1,2.7445218E-1,3.313904E-1,4.5328226E-2,6.4423066E-1,-3.2032466E-1,-1.951884E-2,3.0059565E-2,3.7506852E-2,9.306109E-3,3.5251398E-2,-1.9527739E-2],"categories":[],"categories_nodes":[],"categories_segments":[],"categories_sizes":[],"default_left":[0,0,0,0,0,0,0,0,0,0,0,0,0,0,0,0,0],"id":57,"left_children":[1,3,-1,-1,5,7,9,11,-1,13,15,-1,-1,-1,-1,-1,-1],"loss_changes":[1.3203143E2,1.14943054E2,0E0,0E0,1.2100182E1,1.9274155E1,2.0192144E1,1.8300825E1,0E0,2.5950756E0,2.8320775E0,0E0,0E0,0E0,0E0,0E0,0E0],"parents":[2147483647,0,0,1,1,4,4,5,5,6,6,7,7,9,9,10,10],"right_children":[2,4,-1,-1,6,8,10,12,-1,14,16,-1,-1,-1,-1,-1,-1],"split_conditions":[1.8E1,8E0,-2.937512E-2,-2.9097214E-2,1.6E1,1E1,3.4298408E-1,8.947304E-3,4.5328226E-2,9E0,1E0,-1.951884E-2,3.0059565E-2,3.7506852E-2,9.306109E-3,3.5251398E-2,-1.9527739E-2],"split_indices":[14,14,0,0,14,14,13,13,0,7,7,0,0,0,0,0,0],"split_type":[0,0,0,0,0,0,0,0,0,0,0,0,0,0,0,0,0],"sum_hessian":[7.0592596E2,4.5653625E2,2.4938974E2,1.07991394E2,3.4854486E2,2.5867383E2,8.987102E1,9.1773674E1,1.6690016E2,5.536618E1,3.4504837E1,2.4849573E1,6.69241E1,4.4452183E1,1.0914E1,1.6324463E0,3.287239E1],"tree_param":{"num_deleted":"0","num_feature":"16","num_nodes":"17","size_leaf_vector":"1"}},{"base_weights":[1.3471942E-3,-2.9403055E-2,3.3140358E-1,6.3368404E-1,-2.9387323E-2,7.2718436E-1,3.7339315E-1,3.9891082E-1,4.6471212E-2,6.883698E-1,1.9880089E-1,6.7341016E-3,3.452121E-2,3.8091466E-2,-1.1509654E-2,-1.4219107E-3,2.5266707E-2],"categories":[],"categories_nodes":[],"categories_segments":[],"categories_sizes":[],"default_left":[0,0,0,0,0,0,0,0,0,0,0,0,0,0,0,0,0],"id":58,"left_children":[1,-1,3,5,-1,7,9,11,-1,13,15,-1,-1,-1,-1,-1,-1],"loss_changes":[1.3941951E2,0E0,1.2801468E2,8.15387E0,0E0,1.6468826E1,5.0075855E0,7.489916E0,0E0,2.399106E0,4.304679E0,0E0,0E0,0E0,0E0,0E0,0E0],"parents":[2147483647,0,0,2,2,3,3,5,5,6,6,7,7,9,9,10,10],"right_children":[2,-1,4,6,-1,8,10,12,-1,14,16,-1,-1,-1,-1,-1,-1],"split_conditions":[1.6E1,-2.9403055E-2,2.6E1,2.4E1,-2.9387323E-2,1.8E1,6E0,6E0,4.6471212E-2,3.8E1,3E0,6.7341016E-3,3.452121E-2,3.8091466E-2,-1.1509654E-2,-1.4219107E-3,2.5266707E-2],"split_indices":[14,0,14,14,0,14,8,7,0,0,2,0,0,0,0,0,0],"split_type":[0,0,0,0,0,0,0,0,0,0,0,0,0,0,0,0,0],"sum_hessian":[7.14668E2,2.5626077E2,4.5840723E2,3.45194E2,1.1321323E2,2.5264609E2,9.254793E1,9.744572E1,1.5520036E2,3.195541E1,6.0592514E1,5.188184E1,4.5563877E1,2.9747097E1,2.2083123E0,3.5317894E1,2.5274622E1],"tree_param":{"num_deleted":"0","num_feature":"16","num_nodes":"17","size_leaf_vector":"1"}},{"base_weights":[5.239016E-3,-2.9372513E-2,7.3192143E-1,3.7190944E-1,4.5009803E-2,-3.5175154E-1,5.812204E-1,2.6368946E-2,-4.228908E-1,3.8590047E-1,8.746234E-1,-2.637338E-2,-1.462437E-4,3.1362854E-2,-1.5755016E-3,1.5103948E-2,4.848227E-2],"categories":[],"categories_nodes":[],"categories_segments":[],"categories_sizes":[],"default_left":[0,0,0,0,0,0,0,0,0,0,0,0,0,0,0,0,0],"id":59,"left_children":[1,-1,3,5,-1,7,9,-1,11,13,15,-1,-1,-1,-1,-1,-1],"loss_changes":[3.006678E2,0E0,1.8663132E1,1.5592821E1,0E0,1.6874349E0,4.19998E0,0E0,9.742155E-1,4.9888916E0,1.3856907E0,0E0,0E0,0E0,0E0,0E0,0E0],"parents":[2147483647,0,0,2,2,3,3,5,5,6,6,8,8,9,9,10,10],"right_children":[2,-1,4,6,-1,8,10,-1,12,14,16,-1,-1,-1,-1,-1,-1],"split_conditions":[2.4E1,-2.9372513E-2,2.6E1,4.0065578E-1,4.5009803E-2,1.5E1,8E0,2.6368946E-2,3.6961117E-1,6.503721E0,2.42E3,-2.637338E-2,-1.462437E-4,3.1362854E-2,-1.5755016E-3,1.5103948E-2,4.848227E-2],"split_indices":[14,0,14,13,0,0,7,0,13,6,15,0,0,0,0,0,0],"split_type":[0,0,0,0,0,0,0,0,0,0,0,0,0,0,0,0,0],"sum_hessian":[6.960977E2,3.8350162E2,3.1259607E2,1.00593445E2,2.1200262E2,2.2415327E1,7.817812E1,1.1979445E0,2.1217382E1,4.8323906E1,2.9854218E1,1.6782381E1,4.4350014E0,3.0300629E1,1.8023275E1,4.8443203E0,2.5009897E1],"tree_param":{"num_deleted":"0","num_feature":"16","num_nodes":"17","size_leaf_vector":"1"}},{"base_weights":[5.8843207E-4,7.2035235E-1,-2.9165765E-2,4.317144E-2,3.8040102E-1,6.1926097E-1,-2.382149E-1,3.8615602E-1,7.8371495E-1,1.7320153E-1,-3.8970342E-1,3.2320485E-2,3.9654505E-3,4.234501E-2,-1.9880838E-3,4.1858472E-2,-2.5166972E-2,-7.895976E-3,-2.4885042E-2],"categories":[],"categories_nodes":[],"categories_segments":[],"categories_sizes":[],"default_left":[0,0,0,0,0,0,0,0,0,0,0,0,0,0,0,0,0,0,0],"id":60,"left_children":[1,3,-1,-1,5,7,9,11,13,15,17,-1,-1,-1,-1,-1,-1,-1,-1],"loss_changes":[2.874289E2,1.4570587E1,0E0,0E0,1.3818701E1,2.2668152E0,1.7187997E0,2.3203068E0,2.0279846E0,3.9353228E0,4.1384506E-1,0E0,0E0,0E0,0E0,0E0,0E0,0E0,0E0],"parents":[2147483647,0,0,1,1,4,4,5,5,6,6,7,7,8,8,9,9,10,10],"right_children":[2,4,-1,-1,6,8,10,12,14,16,18,-1,-1,-1,-1,-1,-1,-1,-1],"split_conditions":[1E1,8E0,-2.9165765E-2,4.317144E-2,1.3870886E-1,1.208E3,2E0,1.3172134E-3,9E0,5E0,2.046331E-1,3.2320485E-2,3.9654505E-3,4.234501E-2,-1.9880838E-3,4.1858472E-2,-2.5166972E-2,-7.895976E-3,-2.4885042E-2],"split_indices":[14,14,0,0,13,15,8,13,8,7,13,0,0,0,0,0,0,0,0],"split_type":[0,0,0,0,0,0,0,0,0,0,0,0,0,0,0,0,0,0,0],"sum_hessian":[6.819105E2,3.0531836E2,3.765922E2,2.1379704E2,9.15213E1,6.602622E1,2.5495083E1,2.8697346E1,3.7328876E1,6.8226423E0,1.867244E1,1.49288E1,1.3768546E1,3.464233E1,2.6865451E0,3.3234906E0,3.4991517E0,6.7175326E0,1.1954907E1],"tree_param":{"num_deleted":"0","num_feature":"16","num_nodes":"19","size_leaf_vector":"1"}},{"base_weights":[-2.981866E-3,3.036438E-1,-2.9175257E-2,-2.8884947E-2,5.70871E-1,6.715663E-1,2.8849104E-1,3.0336642E-1,4.384342E-2,6.198107E-1,-2.6377705E-1,-8.99261E-4,3.8257442E-2,3.6105763E-2,8.223185E-3,3.4187242E-2,-1.6504198E-2],"categories":[],"categories_nodes":[],"categories_segments":[],"categories_sizes":[],"default_left":[0,0,0,0,0,0,0,0,0,0,0,0,0,0,0,0,0],"id":61,"left_children":[1,3,-1,-1,5,7,9,11,-1,13,15,-1,-1,-1,-1,-1,-1],"loss_changes":[1.2343188E2,1.0719931E2,0E0,0E0,9.7211075E0,1.9106895E1,1.7255505E1,1.3854919E1,0E0,2.6149254E0,2.4703665E0,0E0,0E0,0E0,0E0,0E0,0E0],"parents":[2147483647,0,0,1,1,4,4,5,5,6,6,7,7,9,9,10,10],"right_children":[2,4,-1,-1,6,8,10,12,-1,14,16,-1,-1,-1,-1,-1,-1],"split_conditions":[1.8E1,8E0,-2.9175257E-2,-2.8884947E-2,1.6E1,1E1,3.4298408E-1,1.4392416E-1,4.384342E-2,9E0,1E0,-8.99261E-4,3.8257442E-2,3.6105763E-2,8.223185E-3,3.4187242E-2,-1.6504198E-2],"split_indices":[14,14,0,0,14,14,13,13,0,7,7,0,0,0,0,0,0],"split_type":[0,0,0,0,0,0,0,0,0,0,0,0,0,0,0,0,0],"sum_hessian":[6.9142914E2,4.527623E2,2.3866684E2,1.0506972E2,3.4769257E2,2.5528198E2,9.241059E1,9.2272705E1,1.6300928E2,5.7682873E1,3.472772E1,5.497617E1,3.729654E1,4.6622223E1,1.1060649E1,1.6622621E0,3.3065456E1],"tree_param":{"num_deleted":"0","num_feature":"16","num_nodes":"17","size_leaf_vector":"1"}},{"base_weights":[5.3988514E-3,-2.91875E-2,3.2038042E-1,6.056661E-1,-2.9157965E-2,7.0638335E-1,3.4030995E-1,4.025129E-1,4.4889342E-2,5.877073E-1,-1.52352E-1,-7.144478E-3,3.4468953E-2,4.229049E-2,1.939412E-2,8.850555E-3,-2.0786563E-2],"categories":[],"categories_nodes":[],"categories_segments":[],"categories_sizes":[],"default_left":[0,0,0,0,0,0,0,0,0,0,0,0,0,0,0,0,0],"id":62,"left_children":[1,-1,3,5,-1,7,9,11,-1,13,15,-1,-1,-1,-1,-1,-1],"loss_changes":[1.312977E2,0E0,1.1919185E2,9.13739E0,0E0,1.4377922E1,1.2091217E1,1.5704941E1,0E0,3.0633621E0,